<?xml version="1.0"?>
<opencv_storage>
<opencv_ml_svm>
  <format>3</format>
  <svmType>C_SVC</svmType>
  <kernel>
    <type>RBF</type>
    <gamma>5.0625000000000009e-01</gamma></kernel>
  <C>5.0000000000000000e-01</C>
  <term_criteria><epsilon>1.1920928955078125e-07</epsilon></term_criteria>
  <var_count>900</var_count>
  <class_count>2</class_count>
  <class_labels type_id="opencv-matrix">
    <rows>2</rows>
    <cols>1</cols>
    <dt>i</dt>
    <data>
      0 1</data></class_labels>
  <sv_total>44</sv_total>
  <support_vectors>
    <_>
      3.18157300e-03 2.54525850e-03 2.54525850e-03 2.54525850e-03
      3.18157300e-03 2.54525850e-03 2.54525850e-03 2.54525850e-03
      1.90894387e-03 1.90894387e-03 2.54525850e-03 3.18157300e-03
      3.18157300e-03 3.18157300e-03 2.54525850e-03 2.54525850e-03
      3.18157300e-03 3.18157300e-03 3.18157300e-03 3.18157300e-03
      3.18157300e-03 3.81788774e-03 3.81788774e-03 3.81788774e-03
      3.81788774e-03 3.81788774e-03 4.45420248e-03 5.09051699e-03
      4.45420248e-03 5.09051699e-03 3.18157300e-03 2.54525850e-03
      2.54525850e-03 1.90894387e-03 2.54525850e-03 2.54525850e-03
      3.18157300e-03 2.54525850e-03 2.54525850e-03 2.54525850e-03
      2.54525850e-03 2.54525850e-03 2.54525850e-03 2.54525850e-03
      2.54525850e-03 2.54525850e-03 3.18157300e-03 3.18157300e-03
      3.18157300e-03 3.81788774e-03 3.18157300e-03 3.81788774e-03
      4.45420248e-03 3.81788774e-03 3.81788774e-03 3.18157300e-03
      3.81788774e-03 4.45420248e-03 4.45420248e-03 5.09051699e-03
      2.54525850e-03 2.54525850e-03 2.54525850e-03 2.54525850e-03
      2.54525850e-03 3.18157300e-03 3.18157300e-03 3.18157300e-03
      3.18157300e-03 3.18157300e-03 2.54525850e-03 2.54525850e-03
      3.18157300e-03 3.18157300e-03 1.90894387e-03 2.54525850e-03
      3.18157300e-03 3.18157300e-03 3.81788774e-03 3.81788774e-03
      3.18157300e-03 3.81788774e-03 3.81788774e-03 3.18157300e-03
      2.54525850e-03 3.18157300e-03 3.81788774e-03 4.45420248e-03
      5.09051699e-03 5.09051699e-03 2.54525850e-03 2.54525850e-03
      3.18157300e-03 2.54525850e-03 2.54525850e-03 2.54525850e-03
      2.54525850e-03 3.18157300e-03 3.18157300e-03 2.54525850e-03
      2.54525850e-03 2.54525850e-03 2.54525850e-03 3.18157300e-03
      2.54525850e-03 2.54525850e-03 3.18157300e-03 3.18157300e-03
      3.18157300e-03 3.81788774e-03 3.18157300e-03 2.54525850e-03
      3.18157300e-03 3.18157300e-03 3.18157300e-03 3.18157300e-03
      3.81788774e-03 5.09051699e-03 5.72683150e-03 5.72683150e-03
      3.18157300e-03 3.18157300e-03 3.18157300e-03 2.54525850e-03
      2.54525850e-03 3.18157300e-03 3.18157300e-03 3.18157300e-03
      3.81788774e-03 2.54525850e-03 3.18157300e-03 2.54525850e-03
      3.18157300e-03 3.18157300e-03 3.18157300e-03 2.54525850e-03
      3.18157300e-03 3.18157300e-03 3.18157300e-03 3.18157300e-03
      2.54525850e-03 2.54525850e-03 3.18157300e-03 3.18157300e-03
      2.54525850e-03 2.54525850e-03 3.81788774e-03 3.81788774e-03
      4.45420248e-03 5.09051699e-03 2.54525850e-03 2.54525850e-03
      2.54525850e-03 1.90894387e-03 3.18157300e-03 3.18157300e-03
      2.54525850e-03 2.54525850e-03 2.54525850e-03 2.54525850e-03
      2.54525850e-03 3.18157300e-03 3.18157300e-03 3.18157300e-03
      3.18157300e-03 3.18157300e-03 3.18157300e-03 3.18157300e-03
      3.81788774e-03 3.18157300e-03 2.54525850e-03 3.18157300e-03
      3.18157300e-03 2.54525850e-03 3.18157300e-03 3.18157300e-03
      3.18157300e-03 3.18157300e-03 3.81788774e-03 3.81788774e-03
      3.18157300e-03 2.54525850e-03 3.18157300e-03 1.90894387e-03
      3.18157300e-03 3.18157300e-03 3.18157300e-03 3.18157300e-03
      2.54525850e-03 2.54525850e-03 3.18157300e-03 3.18157300e-03
      3.18157300e-03 2.54525850e-03 2.54525850e-03 3.18157300e-03
      3.18157300e-03 2.54525850e-03 3.18157300e-03 3.18157300e-03
      3.18157300e-03 3.81788774e-03 2.54525850e-03 2.54525850e-03
      3.18157300e-03 3.81788774e-03 3.81788774e-03 3.81788774e-03
      3.18157300e-03 3.18157300e-03 3.18157300e-03 2.54525850e-03
      2.54525850e-03 2.54525850e-03 3.18157300e-03 3.81788774e-03
      3.18157300e-03 3.81788774e-03 3.81788774e-03 2.54525850e-03
      2.54525850e-03 2.54525850e-03 3.18157300e-03 3.18157300e-03
      3.81788774e-03 3.18157300e-03 3.18157300e-03 3.18157300e-03
      3.18157300e-03 3.81788774e-03 3.18157300e-03 3.81788774e-03
      2.54525850e-03 2.54525850e-03 3.18157300e-03 3.81788774e-03
      3.81788774e-03 3.18157300e-03 3.18157300e-03 3.18157300e-03
      2.54525850e-03 3.18157300e-03 2.54525850e-03 2.54525850e-03
      3.18157300e-03 3.18157300e-03 3.18157300e-03 3.18157300e-03
      2.54525850e-03 2.54525850e-03 2.54525850e-03 2.54525850e-03
      2.54525850e-03 2.54525850e-03 3.18157300e-03 3.18157300e-03
      3.18157300e-03 2.54525850e-03 2.54525850e-03 3.18157300e-03
      2.54525850e-03 3.18157300e-03 3.81788774e-03 3.18157300e-03
      3.18157300e-03 2.54525850e-03 3.18157300e-03 3.18157300e-03
      3.18157300e-03 3.81788774e-03 2.54525850e-03 3.18157300e-03
      3.18157300e-03 2.54525850e-03 3.18157300e-03 3.18157300e-03
      2.54525850e-03 2.54525850e-03 3.18157300e-03 3.18157300e-03
      3.18157300e-03 3.18157300e-03 2.54525850e-03 1.90894387e-03
      3.18157300e-03 3.18157300e-03 3.18157300e-03 2.54525850e-03
      3.18157300e-03 3.81788774e-03 2.54525850e-03 2.54525850e-03
      3.18157300e-03 3.81788774e-03 3.18157300e-03 3.18157300e-03
      3.18157300e-03 3.18157300e-03 3.18157300e-03 3.18157300e-03
      2.54525850e-03 2.54525850e-03 3.18157300e-03 3.18157300e-03
      3.18157300e-03 2.54525850e-03 3.18157300e-03 3.81788774e-03
      3.18157300e-03 3.18157300e-03 3.18157300e-03 3.81788774e-03
      2.54525850e-03 3.18157300e-03 3.81788774e-03 3.18157300e-03
      3.18157300e-03 3.18157300e-03 3.18157300e-03 3.81788774e-03
      3.18157300e-03 3.18157300e-03 3.81788774e-03 3.18157300e-03
      3.81788774e-03 4.45420248e-03 4.45420248e-03 3.81788774e-03
      3.81788774e-03 3.81788774e-03 3.18157300e-03 2.54525850e-03
      3.18157300e-03 3.81788774e-03 4.45420248e-03 3.81788774e-03
      3.81788774e-03 3.81788774e-03 3.81788774e-03 3.18157300e-03
      3.18157300e-03 3.18157300e-03 3.18157300e-03 3.18157300e-03
      3.18157300e-03 3.18157300e-03 2.54525850e-03 2.54525850e-03
      3.18157300e-03 3.81788774e-03 3.81788774e-03 3.81788774e-03
      3.81788774e-03 3.81788774e-03 2.54525850e-03 3.81788774e-03
      3.81788774e-03 3.18157300e-03 3.81788774e-03 4.45420248e-03
      3.18157300e-03 3.18157300e-03 3.18157300e-03 4.45420248e-03
      4.45420248e-03 4.45420248e-03 4.45420248e-03 4.45420248e-03
      3.81788774e-03 3.81788774e-03 3.81788774e-03 3.81788774e-03
      3.18157300e-03 3.81788774e-03 3.18157300e-03 3.18157300e-03
      3.18157300e-03 2.54525850e-03 3.18157300e-03 3.81788774e-03
      3.81788774e-03 3.18157300e-03 2.54525850e-03 2.54525850e-03
      2.54525850e-03 3.18157300e-03 3.81788774e-03 3.81788774e-03
      3.81788774e-03 4.45420248e-03 3.18157300e-03 3.81788774e-03
      3.81788774e-03 3.81788774e-03 5.09051699e-03 6.99946098e-03
      1.08173490e-02 5.72683150e-03 3.18157300e-03 3.81788774e-03
      3.81788774e-03 3.81788774e-03 3.81788774e-03 5.09051699e-03
      5.09051699e-03 3.81788774e-03 3.18157300e-03 1.90894387e-03
      3.18157300e-03 3.18157300e-03 3.18157300e-03 3.18157300e-03
      3.18157300e-03 3.18157300e-03 2.54525850e-03 2.54525850e-03
      3.18157300e-03 3.18157300e-03 3.81788774e-03 4.45420248e-03
      4.45420248e-03 4.45420248e-03 5.09051699e-03 4.45420248e-03
      8.90840497e-03 1.97257530e-02 3.30883600e-02 1.08173490e-02
      3.18157300e-03 4.45420248e-03 4.45420248e-03 3.81788774e-03
      7.63577549e-03 1.14536630e-02 7.63577549e-03 5.09051699e-03
      3.81788774e-03 3.18157300e-03 3.18157300e-03 3.18157300e-03
      2.54525850e-03 2.54525850e-03 3.18157300e-03 2.54525850e-03
      3.18157300e-03 3.18157300e-03 3.81788774e-03 3.81788774e-03
      3.81788774e-03 3.81788774e-03 3.18157300e-03 8.27209000e-03
      1.90894380e-02 3.30883600e-02 4.13604490e-02 5.09051681e-02
      5.59956878e-02 3.37246768e-02 3.11794169e-02 4.00878228e-02
      4.13604490e-02 4.32693958e-02 4.51783389e-02 3.94515060e-02
      1.08173490e-02 4.45420248e-03 3.81788774e-03 3.18157300e-03
      2.54525850e-03 3.18157300e-03 3.18157300e-03 2.54525850e-03
      3.18157300e-03 3.18157300e-03 3.18157300e-03 3.18157300e-03
      3.81788774e-03 3.81788774e-03 3.81788774e-03 3.81788774e-03
      2.16346979e-02 2.92704720e-02 4.13604490e-02 5.85409440e-02
      6.80856630e-02 7.76303858e-02 7.50851259e-02 6.61767200e-02
      6.87219799e-02 8.20845887e-02 8.33572149e-02 7.69940689e-02
      6.93582967e-02 5.15414849e-02 1.14536630e-02 4.45420248e-03
      3.81788774e-03 3.18157300e-03 3.18157300e-03 3.18157300e-03
      3.18157300e-03 3.18157300e-03 2.54525850e-03 2.54525850e-03
      3.18157300e-03 3.81788774e-03 3.81788774e-03 3.81788774e-03
      3.81788774e-03 3.18157300e-03 6.74493536e-02 7.19035491e-02
      7.63577521e-02 8.20845887e-02 8.71751010e-02 1.06900856e-01
      1.10082433e-01 1.13264002e-01 1.09446116e-01 1.01810336e-01
      9.03566778e-02 8.01756456e-02 6.10862039e-02 3.75425629e-02
      9.54471901e-03 3.81788774e-03 2.54525850e-03 2.54525850e-03
      3.18157300e-03 3.18157300e-03 2.54525850e-03 3.18157300e-03
      3.18157300e-03 3.81788774e-03 3.18157300e-03 3.81788774e-03
      3.18157300e-03 4.45420248e-03 4.45420248e-03 4.45420248e-03
      8.59024748e-02 9.54471901e-02 1.03719287e-01 1.15172945e-01
      1.27899244e-01 1.33626074e-01 1.27262920e-01 1.17081888e-01
      1.07537173e-01 9.35382470e-02 7.50851259e-02 3.75425629e-02
      1.90894380e-02 1.27262920e-02 5.09051699e-03 4.45420248e-03
      3.18157300e-03 2.54525850e-03 3.18157300e-03 3.18157300e-03
      3.18157300e-03 2.54525850e-03 3.18157300e-03 3.18157300e-03
      3.18157300e-03 3.18157300e-03 3.18157300e-03 3.18157300e-03
      3.81788774e-03 4.45420248e-03 9.73561406e-02 1.08173490e-01
      1.17718205e-01 1.24717668e-01 1.30444497e-01 1.31080806e-01
      1.18990831e-01 9.48108807e-02 8.65387917e-02 7.25398660e-02
      5.47230579e-02 2.54525840e-02 1.14536630e-02 8.90840497e-03
      5.72683150e-03 4.45420248e-03 3.81788774e-03 3.81788774e-03
      3.81788774e-03 3.18157300e-03 3.18157300e-03 3.18157300e-03
      3.18157300e-03 3.18157300e-03 3.18157300e-03 3.18157300e-03
      3.18157300e-03 3.81788774e-03 3.81788774e-03 4.45420248e-03
      9.86287668e-02 1.08173490e-01 1.08173490e-01 1.06900856e-01
      1.04355596e-01 9.54471901e-02 8.33572149e-02 6.61767200e-02
      6.61767200e-02 6.55404031e-02 5.28141148e-02 3.88151929e-02
      2.92704720e-02 2.09983829e-02 6.99946098e-03 3.81788774e-03
      3.81788774e-03 3.81788774e-03 3.18157300e-03 3.18157300e-03
      3.18157300e-03 3.18157300e-03 3.18157300e-03 3.18157300e-03
      2.54525850e-03 3.18157300e-03 3.18157300e-03 3.81788774e-03
      3.81788774e-03 4.45420248e-03 9.03566778e-02 9.09929946e-02
      9.03566778e-02 8.71751010e-02 8.78114179e-02 8.39935318e-02
      7.44488090e-02 6.80856630e-02 7.38124996e-02 7.44488090e-02
      6.80856630e-02 6.29951507e-02 5.79046309e-02 4.51783389e-02
      1.01810340e-02 3.81788774e-03 3.18157300e-03 3.18157300e-03
      2.54525850e-03 2.54525850e-03 3.18157300e-03 3.18157300e-03
      3.18157300e-03 3.18157300e-03 3.18157300e-03 3.81788774e-03
      3.81788774e-03 3.81788774e-03 3.81788774e-03 3.81788774e-03
      8.14482719e-02 8.52661580e-02 8.27208981e-02 8.46298486e-02
      8.71751010e-02 8.71751010e-02 8.27208981e-02 8.71751010e-02
      8.84477347e-02 8.52661580e-02 7.82666951e-02 7.31761828e-02
      6.80856630e-02 5.47230579e-02 1.46352360e-02 5.72683150e-03
      4.45420248e-03 4.45420248e-03 3.81788774e-03 3.81788774e-03
      3.18157300e-03 3.18157300e-03 3.18157300e-03 3.18157300e-03
      3.81788774e-03 3.81788774e-03 3.81788774e-03 3.18157300e-03
      3.81788774e-03 4.45420248e-03 7.69940689e-02 8.46298486e-02
      8.84477347e-02 9.16293040e-02 9.73561406e-02 9.86287668e-02
      9.60835069e-02 9.73561406e-02 9.48108807e-02 8.33572149e-02
      7.44488090e-02 7.25398660e-02 6.55404031e-02 4.77235951e-02
      1.65441800e-02 6.36314601e-03 3.81788774e-03 3.81788774e-03
      3.81788774e-03 3.81788774e-03 3.18157300e-03 3.18157300e-03
      3.18157300e-03 2.54525850e-03 3.81788774e-03 3.81788774e-03
      3.81788774e-03 3.81788774e-03 4.45420248e-03 5.09051699e-03
      7.89030120e-02 8.46298486e-02 9.29019377e-02 1.01174027e-01
      1.08173490e-01 1.04355596e-01 9.48108807e-02 9.03566778e-02
      7.95393288e-02 7.25398660e-02 6.61767200e-02 6.36314601e-02
      4.64509688e-02 2.09983829e-02 8.27209000e-03 3.81788774e-03
      3.18157300e-03 3.18157300e-03 3.18157300e-03 3.18157300e-03
      3.18157300e-03 3.81788774e-03 2.54525850e-03 3.18157300e-03
      3.81788774e-03 3.81788774e-03 3.81788774e-03 3.18157300e-03
      4.45420248e-03 5.72683150e-03 7.57214427e-02 7.95393288e-02
      8.33572149e-02 9.16293040e-02 8.97203609e-02 8.39935318e-02
      7.57214427e-02 7.12672397e-02 6.23588338e-02 4.77235951e-02
      3.30883600e-02 2.79978439e-02 1.97257530e-02 8.90840497e-03
      5.09051699e-03 3.81788774e-03 3.18157300e-03 3.18157300e-03
      3.18157300e-03 2.54525850e-03 3.18157300e-03 3.18157300e-03
      3.18157300e-03 3.18157300e-03 3.81788774e-03 3.81788774e-03
      3.81788774e-03 3.81788774e-03 5.09051699e-03 5.72683150e-03
      5.09051681e-02 5.15414849e-02 4.96325418e-02 5.40867448e-02
      5.40867448e-02 5.02688549e-02 4.64509688e-02 4.39057089e-02
      3.75425629e-02 2.48162709e-02 9.54471901e-03 5.72683150e-03
      4.45420248e-03 4.45420248e-03 3.81788774e-03 3.81788774e-03
      3.18157300e-03 3.18157300e-03 2.54525850e-03 2.54525850e-03
      3.18157300e-03 2.54525850e-03 3.18157300e-03 3.18157300e-03
      3.81788774e-03 4.45420248e-03 4.45420248e-03 4.45420248e-03
      5.72683150e-03 5.72683150e-03 5.09051699e-03 3.81788774e-03
      5.72683150e-03 1.46352360e-02 1.59078650e-02 1.08173490e-02
      5.09051699e-03 3.81788774e-03 3.81788774e-03 4.45420248e-03
      5.09051699e-03 3.81788774e-03 3.81788774e-03 3.18157300e-03
      3.18157300e-03 3.81788774e-03 3.81788774e-03 3.81788774e-03
      3.18157300e-03 3.18157300e-03 2.54525850e-03 2.54525850e-03
      3.18157300e-03 3.81788774e-03 4.45420248e-03 4.45420248e-03
      4.45420248e-03 4.45420248e-03 5.09051699e-03 5.72683150e-03
      3.81788774e-03 3.81788774e-03 4.45420248e-03 6.99946098e-03
      7.63577549e-03 6.36314601e-03 3.81788774e-03 3.81788774e-03
      3.81788774e-03 4.45420248e-03 3.81788774e-03 3.81788774e-03
      3.81788774e-03 3.18157300e-03 2.54525850e-03 3.18157300e-03
      3.18157300e-03 3.18157300e-03 3.18157300e-03 3.18157300e-03
      3.18157300e-03 3.18157300e-03 3.18157300e-03 3.18157300e-03
      3.81788774e-03 3.18157300e-03 3.18157300e-03 3.81788774e-03
      3.81788774e-03 4.45420248e-03 3.81788774e-03 3.81788774e-03
      3.81788774e-03 3.81788774e-03 4.45420248e-03 5.09051699e-03
      3.18157300e-03 3.81788774e-03 3.81788774e-03 3.81788774e-03
      3.81788774e-03 3.18157300e-03 3.81788774e-03 3.18157300e-03
      3.18157300e-03 3.18157300e-03 3.18157300e-03 3.18157300e-03
      3.18157300e-03 3.18157300e-03 3.18157300e-03 3.18157300e-03
      3.18157300e-03 3.18157300e-03 3.18157300e-03 3.81788774e-03
      3.18157300e-03 3.18157300e-03 3.81788774e-03 4.45420248e-03</_>
    <_>
      2.48508225e-03 2.71099899e-03 2.71099899e-03 2.71099899e-03
      2.71099899e-03 2.93691549e-03 2.93691549e-03 3.38874874e-03
      4.06649848e-03 5.42199798e-03 7.45524699e-03 9.71441250e-03
      1.35549949e-02 1.71696600e-02 2.01065745e-02 2.28175744e-02
      2.55285725e-02 2.98209880e-02 3.59207354e-02 4.81202304e-02
      5.46718128e-02 5.71568944e-02 5.76087274e-02 5.76087274e-02
      5.76087274e-02 5.76087274e-02 5.67050613e-02 5.60273118e-02
      5.30903973e-02 4.38278168e-02 2.93691549e-03 2.93691549e-03
      2.93691549e-03 2.93691549e-03 3.16283200e-03 3.16283200e-03
      3.16283200e-03 4.06649848e-03 5.19608147e-03 7.00341398e-03
      1.01662464e-02 1.37809115e-02 1.73955765e-02 2.05584094e-02
      2.21398249e-02 2.34953240e-02 2.50767395e-02 2.77877394e-02
      3.56948189e-02 4.97016460e-02 5.51236458e-02 5.60273118e-02
      5.62532283e-02 5.62532283e-02 5.62532283e-02 5.30903973e-02
      5.12830615e-02 4.83461469e-02 4.24723178e-02 3.45652364e-02
      2.71099899e-03 2.93691549e-03 2.93691549e-03 3.16283200e-03
      3.38874874e-03 3.38874874e-03 3.61466524e-03 4.74424800e-03
      5.64791448e-03 8.35891347e-03 1.26513280e-02 1.69437435e-02
      1.98806580e-02 2.28175744e-02 2.34953240e-02 2.39471570e-02
      2.43989900e-02 2.59804055e-02 3.09505705e-02 4.29241508e-02
      5.12830615e-02 5.33163138e-02 5.26385643e-02 5.42199798e-02
      4.92498130e-02 4.49573994e-02 4.20204848e-02 3.81799005e-02
      3.25319879e-02 2.66581569e-02 2.71099899e-03 2.93691549e-03
      3.16283200e-03 3.38874874e-03 3.61466524e-03 3.84058175e-03
      4.29241499e-03 5.42199798e-03 6.55158097e-03 9.48849600e-03
      1.49104940e-02 1.98806580e-02 2.21398249e-02 2.41730735e-02
      2.41730735e-02 2.39471570e-02 2.39471570e-02 2.48508230e-02
      2.66581569e-02 3.32097374e-02 4.15686518e-02 4.40537333e-02
      4.24723178e-02 4.49573994e-02 3.75021510e-02 3.52429859e-02
      3.23060714e-02 2.93691549e-02 2.57544890e-02 2.05584094e-02
      2.93691549e-03 3.38874874e-03 3.38874874e-03 3.61466524e-03
      3.84058175e-03 4.29241499e-03 4.97016450e-03 6.55158097e-03
      8.13299697e-03 1.15217455e-02 1.71696600e-02 2.25916579e-02
      2.48508230e-02 2.57544890e-02 2.53026560e-02 2.41730735e-02
      2.37212405e-02 2.41730735e-02 2.48508230e-02 2.62063239e-02
      3.02728210e-02 3.16283219e-02 3.04987375e-02 3.14024054e-02
      2.68840734e-02 2.68840734e-02 2.50767395e-02 2.32694075e-02
      2.10102424e-02 1.58141609e-02 3.16283200e-03 3.61466524e-03
      3.61466524e-03 3.61466524e-03 3.84058175e-03 4.51833149e-03
      5.42199798e-03 8.13299697e-03 1.12958290e-02 1.49104940e-02
      1.94288250e-02 2.43989900e-02 3.00469045e-02 2.98209880e-02
      2.91432384e-02 2.68840734e-02 2.43989900e-02 2.43989900e-02
      2.37212405e-02 2.48508230e-02 2.62063239e-02 2.66581569e-02
      2.59804055e-02 2.48508230e-02 2.43989900e-02 2.30434909e-02
      2.12361589e-02 1.94288250e-02 1.67178269e-02 1.28772445e-02
      2.93691549e-03 3.38874874e-03 3.38874874e-03 3.61466524e-03
      3.84058175e-03 4.97016450e-03 5.87383099e-03 1.01662464e-02
      1.49104940e-02 1.92029085e-02 2.48508230e-02 3.56948189e-02
      4.22464013e-02 4.08909023e-02 3.81799005e-02 3.45652364e-02
      3.00469045e-02 2.62063239e-02 2.53026560e-02 2.53026560e-02
      2.55285725e-02 2.50767395e-02 2.43989900e-02 2.41730735e-02
      2.43989900e-02 2.30434909e-02 1.98806580e-02 1.60400774e-02
      1.26513280e-02 9.26257949e-03 3.38874874e-03 3.61466524e-03
      3.61466524e-03 4.06649848e-03 4.74424800e-03 6.09974749e-03
      7.22933048e-03 1.12958290e-02 1.62659939e-02 2.48508230e-02
      3.72762345e-02 5.01534790e-02 5.12830615e-02 5.17348945e-02
      4.76683974e-02 4.22464013e-02 3.63725685e-02 3.04987375e-02
      2.62063239e-02 2.62063239e-02 2.55285725e-02 2.46249065e-02
      2.37212405e-02 2.25916579e-02 2.25916579e-02 2.16879919e-02
      1.80733260e-02 1.35549949e-02 9.71441250e-03 7.45524699e-03
      3.61466524e-03 3.84058175e-03 4.06649848e-03 4.29241499e-03
      5.19608147e-03 7.22933048e-03 8.58482998e-03 1.19735785e-02
      2.12361589e-02 3.54689024e-02 4.94757295e-02 5.53495623e-02
      5.55754788e-02 5.60273118e-02 5.39940633e-02 4.92498130e-02
      4.24723178e-02 3.61466520e-02 3.18542384e-02 2.98209880e-02
      2.89173219e-02 2.71099899e-02 2.43989900e-02 2.32694075e-02
      2.14620754e-02 2.01065745e-02 1.64919104e-02 1.15217455e-02
      7.45524699e-03 5.42199798e-03 3.61466524e-03 3.84058175e-03
      4.06649848e-03 4.51833149e-03 5.64791448e-03 8.58482998e-03
      1.10699125e-02 1.58141609e-02 2.75618229e-02 4.29241508e-02
      5.46718128e-02 5.64791448e-02 5.71568944e-02 5.69309779e-02
      5.67050613e-02 5.44458963e-02 4.90238965e-02 4.29241508e-02
      4.02131490e-02 3.75021510e-02 3.72762345e-02 3.45652364e-02
      2.93691549e-02 2.55285725e-02 2.21398249e-02 1.98806580e-02
      1.58141609e-02 1.03921629e-02 6.09974749e-03 4.51833149e-03
      3.38874874e-03 3.61466524e-03 3.84058175e-03 4.51833149e-03
      6.09974749e-03 1.06180795e-02 1.55882435e-02 2.25916579e-02
      3.36615704e-02 4.58610654e-02 5.48977293e-02 5.73828109e-02
      5.76087274e-02 5.76087274e-02 5.76087274e-02 5.69309779e-02
      5.44458963e-02 4.99275625e-02 4.83461469e-02 4.74424809e-02
      4.74424809e-02 4.54092324e-02 3.88576500e-02 2.95950714e-02
      2.39471570e-02 2.07843259e-02 1.58141609e-02 1.01662464e-02
      5.87383099e-03 4.74424800e-03 3.38874874e-03 3.61466524e-03
      4.06649848e-03 4.51833149e-03 6.55158097e-03 1.31031619e-02
      2.19139084e-02 2.93691549e-02 4.02131490e-02 5.10571450e-02
      5.73828109e-02 5.73828109e-02 5.76087274e-02 5.76087274e-02
      5.76087274e-02 5.71568944e-02 5.64791448e-02 5.55754788e-02
      5.42199798e-02 5.53495623e-02 5.42199798e-02 5.35422303e-02
      4.94757295e-02 3.56948189e-02 2.57544890e-02 2.19139084e-02
      1.64919104e-02 1.01662464e-02 5.42199798e-03 4.74424800e-03
      3.16283200e-03 3.38874874e-03 4.29241499e-03 5.19608147e-03
      7.45524699e-03 1.35549949e-02 2.14620754e-02 3.54689024e-02
      4.83461469e-02 5.58013953e-02 5.76087274e-02 5.76087274e-02
      5.76087274e-02 5.76087274e-02 5.76087274e-02 5.76087274e-02
      5.76087274e-02 5.73828109e-02 5.73828109e-02 5.73828109e-02
      5.67050613e-02 5.44458963e-02 4.87979800e-02 3.79539840e-02
      2.71099899e-02 2.01065745e-02 1.42327445e-02 8.58482998e-03
      4.51833149e-03 4.06649848e-03 3.16283200e-03 3.61466524e-03
      4.51833149e-03 5.64791448e-03 7.68116349e-03 1.33290784e-02
      2.66581569e-02 4.49573994e-02 5.35422303e-02 5.64791448e-02
      5.76087274e-02 5.76087274e-02 5.76087274e-02 5.76087274e-02
      5.76087274e-02 5.76087274e-02 5.76087274e-02 5.76087274e-02
      5.76087274e-02 5.76087274e-02 5.69309779e-02 5.58013953e-02
      5.06053120e-02 3.75021510e-02 2.55285725e-02 1.92029085e-02
      1.35549949e-02 7.90708046e-03 3.84058175e-03 3.38874874e-03
      3.16283200e-03 3.61466524e-03 5.19608147e-03 6.77749747e-03
      9.48849600e-03 1.49104940e-02 2.68840734e-02 4.42796499e-02
      5.33163138e-02 5.67050613e-02 5.76087274e-02 5.76087274e-02
      5.76087274e-02 5.76087274e-02 5.76087274e-02 5.76087274e-02
      5.76087274e-02 5.76087274e-02 5.76087274e-02 5.76087274e-02
      5.69309779e-02 5.48977293e-02 4.83461469e-02 3.45652364e-02
      2.32694075e-02 1.67178269e-02 1.12958290e-02 6.77749747e-03
      3.38874874e-03 2.93691549e-03 3.38874874e-03 3.84058175e-03
      5.87383099e-03 8.35891347e-03 1.12958290e-02 1.64919104e-02
      2.71099899e-02 4.33759838e-02 5.24126478e-02 5.62532283e-02
      5.76087274e-02 5.76087274e-02 5.76087274e-02 5.76087274e-02
      5.76087274e-02 5.76087274e-02 5.76087274e-02 5.76087274e-02
      5.76087274e-02 5.76087274e-02 5.69309779e-02 5.44458963e-02
      4.74424809e-02 3.20801549e-02 2.01065745e-02 1.35549949e-02
      9.03666299e-03 5.42199798e-03 2.93691549e-03 2.71099899e-03
      3.61466524e-03 4.06649848e-03 6.55158097e-03 9.71441250e-03
      1.28772445e-02 1.73955765e-02 2.80136559e-02 4.33759838e-02
      5.19608110e-02 5.60273118e-02 5.76087274e-02 5.76087274e-02
      5.76087274e-02 5.76087274e-02 5.76087274e-02 5.76087274e-02
      5.76087274e-02 5.76087274e-02 5.76087274e-02 5.76087274e-02
      5.64791448e-02 5.35422303e-02 4.56351489e-02 2.89173219e-02
      1.67178269e-02 1.10699125e-02 7.22933048e-03 4.74424800e-03
      2.93691549e-03 2.71099899e-03 3.61466524e-03 4.29241499e-03
      7.22933048e-03 1.12958290e-02 1.49104940e-02 1.92029085e-02
      2.48508230e-02 3.75021510e-02 4.92498130e-02 5.60273118e-02
      5.76087274e-02 5.76087274e-02 5.76087274e-02 5.76087274e-02
      5.76087274e-02 5.76087274e-02 5.76087274e-02 5.76087274e-02
      5.76087274e-02 5.76087274e-02 5.55754788e-02 4.81202304e-02
      3.50170694e-02 2.21398249e-02 1.51364105e-02 9.26257949e-03
      6.32566400e-03 4.74424800e-03 3.61466524e-03 3.16283200e-03
      3.84058175e-03 4.51833149e-03 8.13299697e-03 1.31031619e-02
      1.73955765e-02 2.07843259e-02 2.68840734e-02 3.56948189e-02
      4.54092324e-02 5.33163138e-02 5.76087274e-02 5.76087274e-02
      5.76087274e-02 5.76087274e-02 5.76087274e-02 5.76087274e-02
      5.76087274e-02 5.76087274e-02 5.71568944e-02 5.64791448e-02
      4.99275625e-02 3.93094830e-02 2.89173219e-02 2.19139084e-02
      1.33290784e-02 7.22933048e-03 4.97016450e-03 4.29241499e-03
      3.84058175e-03 3.38874874e-03 4.51833149e-03 5.19608147e-03
      9.26257949e-03 1.49104940e-02 1.92029085e-02 2.19139084e-02
      2.50767395e-02 3.29838209e-02 4.31500673e-02 5.19608110e-02
      5.67050613e-02 5.76087274e-02 5.76087274e-02 5.76087274e-02
      5.76087274e-02 5.76087274e-02 5.76087274e-02 5.76087274e-02
      5.64791448e-02 5.10571450e-02 4.26982343e-02 3.29838209e-02
      2.32694075e-02 1.62659939e-02 1.10699125e-02 6.32566400e-03
      4.51833149e-03 4.06649848e-03 3.61466524e-03 3.38874874e-03
      4.74424800e-03 6.09974749e-03 1.06180795e-02 1.67178269e-02
      2.14620754e-02 2.28175744e-02 2.50767395e-02 2.95950714e-02
      3.88576500e-02 4.92498130e-02 5.62532283e-02 5.69309779e-02
      5.71568944e-02 5.71568944e-02 5.69309779e-02 5.67050613e-02
      5.62532283e-02 5.58013953e-02 5.03793955e-02 4.31500673e-02
      3.54689024e-02 2.66581569e-02 1.80733260e-02 1.24254115e-02
      8.81074648e-03 5.42199798e-03 4.06649848e-03 3.61466524e-03
      3.38874874e-03 3.16283200e-03 6.55158097e-03 9.26257949e-03
      1.35549949e-02 1.89769920e-02 2.32694075e-02 2.39471570e-02
      2.50767395e-02 2.75618229e-02 3.45652364e-02 4.40537333e-02
      5.28644808e-02 5.60273118e-02 5.53495623e-02 5.60273118e-02
      5.46718128e-02 5.37681468e-02 5.28644808e-02 4.87979800e-02
      4.08909023e-02 3.41134034e-02 2.73359064e-02 2.05584094e-02
      1.40068280e-02 9.94032901e-03 7.22933048e-03 4.97016450e-03
      3.84058175e-03 3.38874874e-03 3.38874874e-03 3.38874874e-03
      9.71441250e-03 1.42327445e-02 1.80733260e-02 2.16879919e-02
      2.46249065e-02 2.50767395e-02 2.50767395e-02 2.73359064e-02
      3.14024054e-02 3.77280675e-02 4.54092324e-02 5.17348945e-02
      4.99275625e-02 5.12830615e-02 4.83461469e-02 4.65388149e-02
      4.51833159e-02 3.70503180e-02 3.16283219e-02 2.55285725e-02
      1.98806580e-02 1.51364105e-02 1.15217455e-02 7.45524699e-03
      5.64791448e-03 4.06649848e-03 3.38874874e-03 3.38874874e-03
      3.38874874e-03 3.38874874e-03 1.28772445e-02 1.92029085e-02
      2.25916579e-02 2.41730735e-02 2.57544890e-02 2.64322404e-02
      2.64322404e-02 2.68840734e-02 2.93691549e-02 3.29838209e-02
      3.68244015e-02 3.99872325e-02 3.97613160e-02 3.86317335e-02
      3.52429859e-02 3.32097374e-02 3.18542384e-02 2.62063239e-02
      2.48508230e-02 1.87510755e-02 1.53623270e-02 1.24254115e-02
      8.58482998e-03 4.97016450e-03 4.29241499e-03 3.38874874e-03
      3.16283200e-03 3.38874874e-03 3.61466524e-03 3.38874874e-03
      1.69437435e-02 2.12361589e-02 2.53026560e-02 2.73359064e-02
      2.75618229e-02 2.84654889e-02 2.73359064e-02 2.75618229e-02
      2.77877394e-02 2.91432384e-02 3.11764870e-02 3.20801549e-02
      3.14024054e-02 2.89173219e-02 2.80136559e-02 2.73359064e-02
      2.53026560e-02 2.25916579e-02 2.01065745e-02 1.58141609e-02
      1.19735785e-02 9.03666299e-03 6.32566400e-03 3.84058175e-03
      3.84058175e-03 3.38874874e-03 3.38874874e-03 3.61466524e-03
      3.84058175e-03 3.61466524e-03 2.19139084e-02 2.93691549e-02
      3.43393199e-02 3.61466520e-02 3.54689024e-02 3.34356539e-02
      3.11764870e-02 2.91432384e-02 2.82395724e-02 2.80136559e-02
      2.82395724e-02 2.86914054e-02 2.71099899e-02 2.64322404e-02
      2.59804055e-02 2.50767395e-02 2.30434909e-02 1.96547415e-02
      1.76214930e-02 1.28772445e-02 8.13299697e-03 5.42199798e-03
      4.51833149e-03 3.61466524e-03 3.61466524e-03 3.84058175e-03
      3.84058175e-03 3.84058175e-03 3.61466524e-03 3.38874874e-03
      3.16283219e-02 4.22464013e-02 4.58610654e-02 4.67647314e-02
      4.60869819e-02 4.06649858e-02 3.56948189e-02 3.25319879e-02
      3.00469045e-02 2.84654889e-02 2.82395724e-02 2.80136559e-02
      2.64322404e-02 2.62063239e-02 2.53026560e-02 2.39471570e-02
      2.14620754e-02 1.71696600e-02 1.40068280e-02 1.01662464e-02
      6.09974749e-03 4.06649848e-03 3.84058175e-03 3.61466524e-03
      3.61466524e-03 3.84058175e-03 3.61466524e-03 3.38874874e-03
      3.38874874e-03 3.16283200e-03 4.45055664e-02 5.17348945e-02
      5.35422303e-02 5.37681468e-02 5.33163138e-02 4.87979800e-02
      4.20204848e-02 3.79539840e-02 3.43393199e-02 3.14024054e-02
      2.98209880e-02 2.93691549e-02 2.68840734e-02 2.64322404e-02
      2.53026560e-02 2.34953240e-02 2.03324929e-02 1.51364105e-02
      1.01662464e-02 7.45524699e-03 4.97016450e-03 3.84058175e-03
      3.84058175e-03 3.84058175e-03 3.61466524e-03 3.61466524e-03
      3.38874874e-03 3.16283200e-03 2.93691549e-03 2.93691549e-03
      5.37681468e-02 5.51236458e-02 5.60273118e-02 5.62532283e-02
      5.60273118e-02 5.51236458e-02 4.97016460e-02 4.45055664e-02
      4.08909023e-02 3.70503180e-02 3.36615704e-02 3.25319879e-02
      2.91432384e-02 2.73359064e-02 2.55285725e-02 2.34953240e-02
      1.98806580e-02 1.33290784e-02 7.22933048e-03 5.42199798e-03
      4.29241499e-03 3.61466524e-03 3.84058175e-03 3.84058175e-03
      3.61466524e-03 3.38874874e-03 2.93691549e-03 2.93691549e-03
      2.71099899e-03 2.71099899e-03 5.17348945e-02 5.53495623e-02
      5.71568944e-02 5.73828109e-02 5.71568944e-02 5.69309779e-02
      5.53495623e-02 5.01534790e-02 4.74424809e-02 4.45055664e-02
      4.08909023e-02 3.77280675e-02 3.50170694e-02 3.00469045e-02
      2.64322404e-02 2.32694075e-02 1.92029085e-02 1.28772445e-02
      6.32566400e-03 4.97016450e-03 4.29241499e-03 3.61466524e-03
      3.61466524e-03 3.61466524e-03 3.16283200e-03 2.93691549e-03
      2.93691549e-03 2.71099899e-03 2.71099899e-03 2.48508225e-03</_>
    <_>
      4.02397197e-03 3.62157472e-03 3.21917748e-03 3.01797898e-03
      3.01797898e-03 3.21917748e-03 3.62157472e-03 3.62157472e-03
      3.62157472e-03 3.62157472e-03 4.02397197e-03 4.02397197e-03
      4.22517024e-03 4.22517024e-03 4.42636898e-03 4.62756772e-03
      4.42636898e-03 3.62157472e-03 3.21917748e-03 4.02397197e-03
      6.43835496e-03 1.02611287e-02 1.71018802e-02 2.45462283e-02
      3.40025611e-02 4.62756753e-02 5.05008474e-02 5.11044413e-02
      5.13056405e-02 5.13056405e-02 3.82277323e-03 3.82277323e-03
      3.62157472e-03 3.21917748e-03 3.01797898e-03 3.01797898e-03
      3.21917748e-03 3.62157472e-03 3.62157472e-03 3.62157472e-03
      3.82277323e-03 4.02397197e-03 4.22517024e-03 4.02397197e-03
      4.02397197e-03 4.02397197e-03 4.42636898e-03 4.62756772e-03
      6.23715622e-03 8.24914221e-03 1.16695184e-02 1.52910929e-02
      1.93150640e-02 2.93749943e-02 4.40624915e-02 5.05008474e-02
      5.13056405e-02 5.13056405e-02 5.13056405e-02 5.13056405e-02
      4.22517024e-03 4.02397197e-03 3.62157472e-03 3.21917748e-03
      3.42037599e-03 3.21917748e-03 3.21917748e-03 3.21917748e-03
      3.42037599e-03 3.42037599e-03 3.82277323e-03 4.02397197e-03
      4.22517024e-03 4.42636898e-03 4.42636898e-03 4.82876599e-03
      5.83475921e-03 7.24314945e-03 9.65753198e-03 1.26755117e-02
      1.69006810e-02 1.97174624e-02 2.31378376e-02 3.46061587e-02
      4.56720814e-02 5.02996482e-02 5.13056405e-02 5.13056405e-02
      5.13056405e-02 5.13056405e-02 4.62756772e-03 4.22517024e-03
      4.02397197e-03 3.82277323e-03 4.02397197e-03 3.62157472e-03
      3.42037599e-03 3.42037599e-03 3.62157472e-03 3.62157472e-03
      3.62157472e-03 3.62157472e-03 4.42636898e-03 5.02996473e-03
      8.04794393e-03 1.12671209e-02 1.30779082e-02 1.46874972e-02
      1.58946887e-02 1.81078725e-02 2.01198589e-02 2.19306462e-02
      2.29366403e-02 3.03809866e-02 4.30564992e-02 5.00984490e-02
      5.11044413e-02 5.13056405e-02 5.13056405e-02 5.13056405e-02
      4.22517024e-03 4.22517024e-03 4.22517024e-03 4.02397197e-03
      4.02397197e-03 4.02397197e-03 3.82277323e-03 3.82277323e-03
      3.82277323e-03 3.82277323e-03 4.02397197e-03 5.02996473e-03
      6.43835496e-03 7.44434772e-03 1.18707167e-02 1.64982844e-02
      1.91138666e-02 2.07234547e-02 2.11258531e-02 2.23330446e-02
      2.31378376e-02 2.37414334e-02 2.47474276e-02 2.89725978e-02
      3.68193425e-02 4.58732806e-02 5.00984490e-02 5.13056405e-02
      5.13056405e-02 5.13056405e-02 4.02397197e-03 4.22517024e-03
      4.22517024e-03 4.02397197e-03 4.22517024e-03 4.42636898e-03
      4.82876599e-03 4.22517024e-03 4.02397197e-03 3.82277323e-03
      6.03595795e-03 1.02611287e-02 1.24743124e-02 1.52910929e-02
      1.81078725e-02 2.19306462e-02 2.29366403e-02 2.47474276e-02
      2.43450291e-02 2.49486249e-02 2.49486249e-02 2.53510233e-02
      2.55522206e-02 2.73630079e-02 3.23929749e-02 3.90325263e-02
      4.64768745e-02 5.07020466e-02 5.13056405e-02 5.13056405e-02
      4.02397197e-03 4.02397197e-03 4.22517024e-03 4.42636898e-03
      4.62756772e-03 5.02996473e-03 5.43236220e-03 5.23116346e-03
      5.63356047e-03 6.63955370e-03 1.00599295e-02 1.48886954e-02
      1.99186616e-02 2.65582148e-02 2.87713986e-02 3.50085534e-02
      3.31977680e-02 3.60145494e-02 3.17893773e-02 3.07833850e-02
      2.83690020e-02 2.63570156e-02 2.61558164e-02 2.65582148e-02
      2.87713986e-02 3.29965688e-02 4.00385186e-02 4.82876636e-02
      5.09032421e-02 5.13056405e-02 3.82277323e-03 4.02397197e-03
      4.22517024e-03 4.82876599e-03 5.23116346e-03 5.43236220e-03
      5.83475921e-03 6.63955370e-03 9.45633370e-03 1.40839014e-02
      1.77054759e-02 2.37414334e-02 3.19905765e-02 3.76241356e-02
      4.30564992e-02 4.62756753e-02 4.58732806e-02 4.68792729e-02
      4.36600931e-02 4.04409170e-02 3.72217409e-02 3.15881781e-02
      2.89725978e-02 2.77654063e-02 2.69606113e-02 2.83690020e-02
      3.54109518e-02 4.72816676e-02 5.07020466e-02 5.13056405e-02
      3.62157472e-03 3.82277323e-03 4.02397197e-03 4.62756772e-03
      5.63356047e-03 6.43835496e-03 8.04794393e-03 9.85873118e-03
      1.40839014e-02 2.03210581e-02 2.79666036e-02 3.98373231e-02
      4.50684838e-02 4.76840660e-02 5.02996482e-02 5.02996482e-02
      5.07020466e-02 5.05008474e-02 5.02996482e-02 4.86900583e-02
      4.74828668e-02 4.24529016e-02 3.68193425e-02 3.31977680e-02
      2.89725978e-02 2.73630079e-02 3.17893773e-02 4.52696830e-02
      5.02996482e-02 5.13056405e-02 3.21917748e-03 3.21917748e-03
      3.42037599e-03 3.82277323e-03 5.43236220e-03 8.65153968e-03
      1.18707167e-02 1.60958879e-02 2.15282496e-02 2.91737951e-02
      4.12457101e-02 4.90924567e-02 5.05008474e-02 5.11044413e-02
      5.13056405e-02 5.13056405e-02 5.13056405e-02 5.13056405e-02
      5.13056405e-02 5.11044413e-02 5.09032421e-02 4.94948551e-02
      4.58732806e-02 4.32576984e-02 3.54109518e-02 2.89725978e-02
      3.17893773e-02 4.52696830e-02 5.00984490e-02 5.13056405e-02
      3.42037599e-03 3.21917748e-03 3.82277323e-03 4.62756772e-03
      7.04195071e-03 1.18707167e-02 1.62970852e-02 2.11258531e-02
      2.99785901e-02 4.20505069e-02 4.94948551e-02 5.11044413e-02
      5.13056405e-02 5.13056405e-02 5.13056405e-02 5.13056405e-02
      5.13056405e-02 5.13056405e-02 5.13056405e-02 5.13056405e-02
      5.13056405e-02 5.11044413e-02 5.00984490e-02 4.68792729e-02
      3.50085534e-02 2.79666036e-02 2.91737951e-02 4.06421162e-02
      4.92936559e-02 5.13056405e-02 4.02397197e-03 3.82277323e-03
      4.62756772e-03 6.84075197e-03 1.02611287e-02 1.62970852e-02
      2.13270504e-02 2.73630079e-02 4.02397178e-02 4.90924567e-02
      5.11044413e-02 5.13056405e-02 5.13056405e-02 5.13056405e-02
      5.13056405e-02 5.13056405e-02 5.13056405e-02 5.13056405e-02
      5.13056405e-02 5.13056405e-02 5.13056405e-02 5.13056405e-02
      5.07020466e-02 4.88912575e-02 3.72217409e-02 2.71618105e-02
      2.73630079e-02 3.48073579e-02 4.30564992e-02 5.00984490e-02
      7.04195071e-03 7.84674473e-03 9.65753198e-03 1.18707167e-02
      1.46874972e-02 1.85102709e-02 2.33390369e-02 3.07833850e-02
      4.20505069e-02 4.96960506e-02 5.11044413e-02 5.13056405e-02
      5.13056405e-02 5.13056405e-02 5.13056405e-02 5.13056405e-02
      5.13056405e-02 5.13056405e-02 5.13056405e-02 5.13056405e-02
      5.13056405e-02 5.13056405e-02 5.07020466e-02 4.70804721e-02
      3.40025611e-02 2.59546191e-02 2.53510233e-02 2.93749943e-02
      3.50085534e-02 4.02397178e-02 1.10659227e-02 1.26755117e-02
      1.50898946e-02 1.75042767e-02 1.99186616e-02 2.15282496e-02
      2.63570156e-02 3.40025611e-02 4.46660891e-02 5.05008474e-02
      5.11044413e-02 5.13056405e-02 5.13056405e-02 5.13056405e-02
      5.13056405e-02 5.13056405e-02 5.13056405e-02 5.13056405e-02
      5.13056405e-02 5.13056405e-02 5.13056405e-02 5.13056405e-02
      5.07020466e-02 4.88912575e-02 3.74229364e-02 2.71618105e-02
      2.43450291e-02 2.43450291e-02 2.61558164e-02 2.55522206e-02
      1.62970852e-02 1.77054759e-02 1.89126674e-02 2.05222573e-02
      2.15282496e-02 2.25342419e-02 2.53510233e-02 3.19905765e-02
      4.14469093e-02 4.88912575e-02 5.11044413e-02 5.13056405e-02
      5.13056405e-02 5.13056405e-02 5.13056405e-02 5.13056405e-02
      5.13056405e-02 5.13056405e-02 5.13056405e-02 5.13056405e-02
      5.13056405e-02 5.13056405e-02 5.05008474e-02 4.40624915e-02
      3.07833850e-02 2.41438318e-02 2.23330446e-02 2.13270504e-02
      1.97174624e-02 2.01198589e-02 2.19306462e-02 2.27354411e-02
      2.31378376e-02 2.43450291e-02 2.39426326e-02 2.45462283e-02
      2.51498241e-02 2.99785901e-02 4.02397178e-02 4.76840660e-02
      5.05008474e-02 5.13056405e-02 5.13056405e-02 5.13056405e-02
      5.13056405e-02 5.13056405e-02 5.13056405e-02 5.13056405e-02
      5.13056405e-02 5.13056405e-02 5.13056405e-02 5.13056405e-02
      4.70804721e-02 3.74229364e-02 2.83690020e-02 2.27354411e-02
      2.07234547e-02 1.99186616e-02 1.81078725e-02 1.75042767e-02
      2.61558164e-02 2.67594121e-02 2.45462283e-02 2.55522206e-02
      2.53510233e-02 2.55522206e-02 2.53510233e-02 2.69606113e-02
      3.25941704e-02 4.34588976e-02 4.96960506e-02 5.11044413e-02
      5.13056405e-02 5.13056405e-02 5.13056405e-02 5.13056405e-02
      5.13056405e-02 5.13056405e-02 5.13056405e-02 5.13056405e-02
      5.13056405e-02 5.00984490e-02 4.32576984e-02 3.21917757e-02
      2.37414334e-02 1.89126674e-02 1.50898946e-02 1.28767099e-02
      1.08647244e-02 1.06635252e-02 3.88313271e-02 3.76241356e-02
      3.62157449e-02 3.17893773e-02 3.09845824e-02 2.83690020e-02
      2.63570156e-02 2.67594121e-02 2.79666036e-02 3.44049595e-02
      4.52696830e-02 4.98972498e-02 5.11044413e-02 5.13056405e-02
      5.13056405e-02 5.13056405e-02 5.13056405e-02 5.13056405e-02
      5.13056405e-02 5.13056405e-02 5.11044413e-02 4.96960506e-02
      4.10445146e-02 2.79666036e-02 2.15282496e-02 1.66994836e-02
      1.14683202e-02 7.84674473e-03 5.43236220e-03 4.82876599e-03
      5.09032421e-02 4.84888591e-02 4.88912575e-02 4.28553000e-02
      3.92337255e-02 3.44049595e-02 2.89725978e-02 2.77654063e-02
      2.73630079e-02 2.99785901e-02 4.10445146e-02 4.88912575e-02
      5.11044413e-02 5.13056405e-02 5.13056405e-02 5.13056405e-02
      5.13056405e-02 5.13056405e-02 5.13056405e-02 5.11044413e-02
      4.98972498e-02 4.40624915e-02 3.23929749e-02 2.19306462e-02
      1.64982844e-02 1.24743124e-02 8.24914221e-03 6.43835496e-03
      5.23116346e-03 5.02996473e-03 5.11044413e-02 5.11044413e-02
      5.07020466e-02 4.98972498e-02 4.80864644e-02 4.58732806e-02
      3.88313271e-02 3.13869789e-02 2.73630079e-02 2.91737951e-02
      4.14469093e-02 4.90924567e-02 5.11044413e-02 5.13056405e-02
      5.13056405e-02 5.13056405e-02 5.13056405e-02 5.13056405e-02
      5.11044413e-02 4.98972498e-02 4.40624915e-02 3.48073579e-02
      2.61558164e-02 1.75042767e-02 1.20719159e-02 8.85273796e-03
      6.03595795e-03 5.43236220e-03 5.23116346e-03 5.23116346e-03
      5.13056405e-02 5.13056405e-02 5.13056405e-02 5.13056405e-02
      5.11044413e-02 5.07020466e-02 4.70804721e-02 3.66181433e-02
      2.81678028e-02 2.69606113e-02 3.80265340e-02 4.76840660e-02
      5.09032421e-02 5.13056405e-02 5.13056405e-02 5.13056405e-02
      5.13056405e-02 5.09032421e-02 4.96960506e-02 4.32576984e-02
      3.33989672e-02 2.49486249e-02 1.75042767e-02 1.24743124e-02
      9.05393623e-03 6.63955370e-03 5.23116346e-03 4.82876599e-03
      5.23116346e-03 5.23116346e-03 5.13056405e-02 5.13056405e-02
      5.13056405e-02 5.13056405e-02 5.13056405e-02 5.09032421e-02
      4.92936559e-02 4.02397178e-02 2.97773909e-02 2.81678028e-02
      3.68193425e-02 4.54708822e-02 4.92936559e-02 5.09032421e-02
      5.05008474e-02 5.11044413e-02 4.96960506e-02 4.92936559e-02
      4.14469093e-02 3.07833850e-02 2.29366403e-02 1.71018802e-02
      1.18707167e-02 8.85273796e-03 6.23715622e-03 5.23116346e-03
      4.62756772e-03 4.22517024e-03 4.62756772e-03 4.82876599e-03
      5.13056405e-02 5.13056405e-02 5.13056405e-02 5.13056405e-02
      5.13056405e-02 5.11044413e-02 4.94948551e-02 4.04409170e-02
      2.97773909e-02 2.65582148e-02 3.01797893e-02 3.90325263e-02
      4.54708822e-02 4.70804721e-02 4.62756753e-02 4.50684838e-02
      4.06421162e-02 3.84289324e-02 2.75642071e-02 2.13270504e-02
      1.46874972e-02 1.02611287e-02 7.24314945e-03 5.63356047e-03
      4.82876599e-03 4.42636898e-03 4.22517024e-03 4.02397197e-03
      4.02397197e-03 4.22517024e-03 5.13056405e-02 5.13056405e-02
      5.13056405e-02 5.13056405e-02 5.13056405e-02 5.11044413e-02
      4.92936559e-02 3.96361239e-02 2.89725978e-02 2.57534198e-02
      2.59546191e-02 2.93749943e-02 3.62157449e-02 3.90325263e-02
      3.68193425e-02 3.27953696e-02 2.73630079e-02 2.23330446e-02
      1.69006810e-02 1.40839014e-02 9.65753198e-03 6.63955370e-03
      4.82876599e-03 3.82277323e-03 3.62157472e-03 3.62157472e-03
      3.42037599e-03 3.42037599e-03 3.62157472e-03 3.82277323e-03
      5.13056405e-02 5.13056405e-02 5.13056405e-02 5.13056405e-02
      5.13056405e-02 5.11044413e-02 4.94948551e-02 3.96361239e-02
      2.73630079e-02 2.35402361e-02 2.29366403e-02 2.37414334e-02
      2.55522206e-02 2.87713986e-02 2.53510233e-02 2.37414334e-02
      1.81078725e-02 1.50898946e-02 1.08647244e-02 7.44434772e-03
      5.83475921e-03 4.62756772e-03 4.22517024e-03 3.62157472e-03
      3.42037599e-03 3.01797898e-03 2.81678024e-03 2.81678024e-03
      3.21917748e-03 3.42037599e-03 5.13056405e-02 5.13056405e-02
      5.13056405e-02 5.13056405e-02 5.13056405e-02 5.09032421e-02
      4.76840660e-02 3.62157449e-02 2.51498241e-02 2.17294488e-02
      2.03210581e-02 1.97174624e-02 1.93150640e-02 1.93150640e-02
      1.69006810e-02 1.50898946e-02 1.22731142e-02 1.06635252e-02
      7.44434772e-03 4.82876599e-03 4.22517024e-03 3.42037599e-03
      3.42037599e-03 3.21917748e-03 3.01797898e-03 2.61558173e-03
      2.61558173e-03 2.61558173e-03 2.61558173e-03 2.81678024e-03
      5.13056405e-02 5.13056405e-02 5.13056405e-02 5.13056405e-02
      5.13056405e-02 4.98972498e-02 4.42636907e-02 3.38013619e-02
      2.39426326e-02 2.07234547e-02 1.83090717e-02 1.62970852e-02
      1.48886954e-02 1.40839014e-02 1.12671209e-02 8.04794393e-03
      6.84075197e-03 6.03595795e-03 5.02996473e-03 4.02397197e-03
      3.62157472e-03 3.21917748e-03 2.81678024e-03 2.61558173e-03
      2.61558173e-03 2.61558173e-03 2.41438299e-03 2.41438299e-03
      2.61558173e-03 2.61558173e-03 5.13056405e-02 5.13056405e-02
      5.13056405e-02 5.13056405e-02 5.09032421e-02 4.78852652e-02
      3.96361239e-02 2.81678028e-02 2.07234547e-02 1.79066751e-02
      1.46874972e-02 1.14683202e-02 1.00599295e-02 9.45633370e-03
      7.84674473e-03 6.23715622e-03 5.43236220e-03 4.82876599e-03
      4.22517024e-03 3.62157472e-03 3.42037599e-03 3.21917748e-03
      3.21917748e-03 3.01797898e-03 2.81678024e-03 2.61558173e-03
      2.61558173e-03 2.61558173e-03 2.81678024e-03 2.81678024e-03
      5.13056405e-02 5.13056405e-02 5.13056405e-02 5.11044413e-02
      5.05008474e-02 4.52696830e-02 3.27953696e-02 2.45462283e-02
      1.87114682e-02 1.44862989e-02 1.04623269e-02 6.63955370e-03
      5.63356047e-03 4.82876599e-03 4.82876599e-03 5.02996473e-03
      5.02996473e-03 4.82876599e-03 4.42636898e-03 3.82277323e-03
      3.82277323e-03 3.62157472e-03 3.42037599e-03 3.21917748e-03
      3.01797898e-03 3.01797898e-03 3.01797898e-03 2.81678024e-03
      3.01797898e-03 3.01797898e-03 5.13056405e-02 5.13056405e-02
      5.13056405e-02 5.11044413e-02 4.64768745e-02 3.29965688e-02
      2.19306462e-02 1.66994836e-02 1.24743124e-02 8.85273796e-03
      6.23715622e-03 4.22517024e-03 3.62157472e-03 2.81678024e-03
      3.21917748e-03 3.62157472e-03 3.62157472e-03 3.42037599e-03
      3.42037599e-03 3.42037599e-03 3.62157472e-03 3.82277323e-03
      3.62157472e-03 3.42037599e-03 3.21917748e-03 3.21917748e-03
      3.21917748e-03 3.01797898e-03 3.01797898e-03 3.01797898e-03</_>
    <_>
      3.42034847e-02 3.15409377e-02 3.80949005e-02 4.32151817e-02
      4.60825413e-02 4.87450883e-02 5.03835790e-02 5.01787663e-02
      5.18172570e-02 5.22268787e-02 5.22268787e-02 5.22268787e-02
      5.22268787e-02 5.22268787e-02 5.22268787e-02 5.22268787e-02
      5.22268787e-02 5.20220697e-02 5.09980135e-02 5.16124479e-02
      4.83354665e-02 4.95643318e-02 4.42392379e-02 4.30103727e-02
      3.58419754e-02 3.15409377e-02 2.72399019e-02 2.39629224e-02
      1.92522611e-02 1.74089596e-02 5.03835790e-02 4.66969758e-02
      5.03835790e-02 5.01787663e-02 5.14076352e-02 5.18172570e-02
      5.20220697e-02 5.22268787e-02 5.22268787e-02 5.22268787e-02
      5.22268787e-02 5.22268787e-02 5.20220697e-02 5.20220697e-02
      5.09980135e-02 4.93595228e-02 4.91547100e-02 4.64921631e-02
      4.46488634e-02 3.93237695e-02 3.52275409e-02 3.09265051e-02
      2.56014112e-02 2.41677333e-02 2.08907519e-02 1.82282049e-02
      1.76137704e-02 1.49512244e-02 1.18790548e-02 9.42131970e-03
      5.22268787e-02 5.22268787e-02 5.22268787e-02 5.22268787e-02
      5.22268787e-02 5.22268787e-02 5.22268787e-02 5.20220697e-02
      5.18172570e-02 5.20220697e-02 5.14076352e-02 5.18172570e-02
      5.01787663e-02 4.89499010e-02 4.52632979e-02 4.05526347e-02
      3.80949005e-02 3.52275409e-02 3.07216942e-02 2.62158457e-02
      2.10955627e-02 1.55656580e-02 1.33127337e-02 1.08549986e-02
      1.02405651e-02 9.01169702e-03 9.42131970e-03 7.98764080e-03
      6.14433875e-03 5.52990474e-03 5.18172570e-02 5.22268787e-02
      5.20220697e-02 5.20220697e-02 5.18172570e-02 5.14076352e-02
      5.12028225e-02 4.99739572e-02 4.97691445e-02 4.83354665e-02
      4.56729196e-02 4.58777286e-02 4.05526347e-02 3.72756571e-02
      3.11313160e-02 2.72399019e-02 2.56014112e-02 2.49869786e-02
      2.08907519e-02 2.06859410e-02 1.35175455e-02 1.02405651e-02
      7.78282899e-03 6.14433875e-03 4.30103717e-03 3.27698071e-03
      3.27698071e-03 2.66254693e-03 2.04811292e-03 2.66254693e-03
      4.91547100e-02 5.05883880e-02 5.01787663e-02 4.79258448e-02
      4.64921631e-02 4.40344289e-02 4.40344289e-02 4.03478257e-02
      4.17815037e-02 3.52275409e-02 3.44082974e-02 3.11313160e-02
      3.01072598e-02 2.68302802e-02 2.51917895e-02 2.37581097e-02
      2.31436770e-02 2.25292426e-02 2.17099972e-02 2.00715065e-02
      1.37223564e-02 8.19245167e-03 6.55396143e-03 5.32509387e-03
      4.30103717e-03 3.68660339e-03 3.48179205e-03 3.07216938e-03
      2.25292426e-03 2.86735804e-03 3.95285785e-02 4.19863164e-02
      4.05526347e-02 3.50227319e-02 3.17457505e-02 2.80591473e-02
      2.74447128e-02 2.53966004e-02 2.62158457e-02 2.31436770e-02
      2.47821659e-02 2.60110348e-02 3.15409377e-02 3.11313160e-02
      3.05168834e-02 2.45773550e-02 2.39629224e-02 2.35532988e-02
      2.31436770e-02 2.04811301e-02 1.35175455e-02 7.16839544e-03
      5.52990474e-03 4.30103717e-03 4.30103717e-03 4.30103717e-03
      3.89141450e-03 3.48179205e-03 2.86735804e-03 3.27698071e-03
      2.51917895e-02 2.86735818e-02 2.51917895e-02 2.27340534e-02
      1.90474503e-02 1.84330158e-02 1.96618848e-02 2.10955627e-02
      2.15051863e-02 2.27340534e-02 2.62158457e-02 3.66612226e-02
      4.21911255e-02 4.52632979e-02 4.03478257e-02 3.09265051e-02
      2.78543364e-02 2.60110348e-02 2.43725441e-02 2.13003755e-02
      1.37223564e-02 7.57801812e-03 5.52990474e-03 4.09622584e-03
      4.30103717e-03 4.30103717e-03 4.09622584e-03 3.68660339e-03
      3.27698071e-03 3.68660339e-03 1.45416018e-02 1.65897142e-02
      1.45416018e-02 1.43367909e-02 1.24934893e-02 1.39271682e-02
      1.80233940e-02 2.08907519e-02 2.21196190e-02 2.51917895e-02
      3.17457505e-02 4.48536724e-02 4.95643318e-02 5.12028225e-02
      4.77210321e-02 4.34199944e-02 3.78900878e-02 3.21553722e-02
      2.80591473e-02 2.29388643e-02 1.55656580e-02 9.42131970e-03
      6.75877277e-03 4.71065985e-03 4.50584851e-03 4.30103717e-03
      3.89141450e-03 3.68660339e-03 3.48179205e-03 3.68660339e-03
      7.16839544e-03 7.37320678e-03 7.16839544e-03 7.37320678e-03
      8.19245167e-03 1.16742440e-02 1.78185832e-02 2.17099972e-02
      2.41677333e-02 2.94928271e-02 3.80949005e-02 4.95643318e-02
      5.20220697e-02 5.22268787e-02 5.16124479e-02 5.09980135e-02
      4.81306538e-02 4.11670692e-02 3.52275409e-02 2.80591473e-02
      1.94570739e-02 1.37223564e-02 8.60207435e-03 5.12028253e-03
      4.30103717e-03 3.89141450e-03 3.68660339e-03 3.48179205e-03
      3.48179205e-03 3.48179205e-03 4.09622584e-03 4.30103717e-03
      4.30103717e-03 4.71065985e-03 6.14433875e-03 1.04453759e-02
      1.76137704e-02 2.19148081e-02 2.56014112e-02 3.60467881e-02
      4.75162193e-02 5.22268787e-02 5.22268787e-02 5.22268787e-02
      5.22268787e-02 5.20220697e-02 5.18172570e-02 4.93595228e-02
      4.40344289e-02 3.70708443e-02 2.58062240e-02 1.63849033e-02
      1.00357533e-02 5.73471608e-03 4.50584851e-03 3.89141450e-03
      3.68660339e-03 3.48179205e-03 3.07216938e-03 3.07216938e-03
      3.89141450e-03 3.89141450e-03 4.09622584e-03 4.50584851e-03
      5.73471608e-03 1.00357533e-02 1.69993378e-02 2.15051863e-02
      2.84687690e-02 4.46488634e-02 5.05883880e-02 5.22268787e-02
      5.22268787e-02 5.22268787e-02 5.22268787e-02 5.22268787e-02
      5.22268787e-02 5.20220697e-02 5.01787663e-02 4.46488634e-02
      3.66612226e-02 2.25292426e-02 1.12646213e-02 6.34915009e-03
      4.91547119e-03 3.89141450e-03 3.68660339e-03 3.07216938e-03
      2.66254693e-03 2.66254693e-03 3.89141450e-03 3.89141450e-03
      4.09622584e-03 4.50584851e-03 5.73471608e-03 9.62613057e-03
      1.61800925e-02 2.08907519e-02 2.76495256e-02 4.46488634e-02
      5.09980135e-02 5.22268787e-02 5.22268787e-02 5.22268787e-02
      5.22268787e-02 5.22268787e-02 5.22268787e-02 5.22268787e-02
      5.20220697e-02 5.07932007e-02 4.32151817e-02 2.70350911e-02
      1.59752816e-02 8.80688522e-03 5.52990474e-03 3.48179205e-03
      3.48179205e-03 3.27698071e-03 2.86735804e-03 2.66254693e-03
      3.89141450e-03 3.89141450e-03 3.89141450e-03 4.71065985e-03
      5.73471608e-03 9.62613057e-03 1.65897142e-02 2.10955627e-02
      3.23601849e-02 4.87450883e-02 5.14076352e-02 5.22268787e-02
      5.22268787e-02 5.22268787e-02 5.22268787e-02 5.22268787e-02
      5.22268787e-02 5.22268787e-02 5.22268787e-02 5.22268787e-02
      5.03835790e-02 3.70708443e-02 2.47821659e-02 1.39271682e-02
      6.34915009e-03 3.27698071e-03 3.48179205e-03 3.07216938e-03
      2.86735804e-03 2.45773559e-03 3.48179205e-03 4.09622584e-03
      3.89141450e-03 4.09622584e-03 4.91547119e-03 8.80688522e-03
      1.59752816e-02 2.64206566e-02 3.97333913e-02 4.87450883e-02
      5.14076352e-02 5.22268787e-02 5.22268787e-02 5.22268787e-02
      5.22268787e-02 5.22268787e-02 5.22268787e-02 5.22268787e-02
      5.22268787e-02 5.22268787e-02 5.20220697e-02 4.77210321e-02
      3.13361287e-02 1.43367909e-02 6.75877277e-03 3.68660339e-03
      3.48179205e-03 3.07216938e-03 2.86735804e-03 2.66254693e-03
      3.48179205e-03 3.89141450e-03 3.68660339e-03 3.89141450e-03
      4.09622584e-03 7.57801812e-03 1.84330158e-02 3.37938629e-02
      4.44440506e-02 5.09980135e-02 5.18172570e-02 5.22268787e-02
      5.22268787e-02 5.22268787e-02 5.22268787e-02 5.22268787e-02
      5.22268787e-02 5.22268787e-02 5.22268787e-02 5.22268787e-02
      5.22268787e-02 5.12028225e-02 4.42392379e-02 2.00715065e-02
      6.75877277e-03 3.68660339e-03 3.48179205e-03 3.27698071e-03
      2.86735804e-03 3.07216938e-03 3.27698071e-03 3.68660339e-03
      3.68660339e-03 4.09622584e-03 4.71065985e-03 8.19245167e-03
      1.65897142e-02 3.52275409e-02 4.95643318e-02 5.22268787e-02
      5.22268787e-02 5.22268787e-02 5.22268787e-02 5.22268787e-02
      5.22268787e-02 5.22268787e-02 5.22268787e-02 5.22268787e-02
      5.22268787e-02 5.22268787e-02 5.22268787e-02 5.09980135e-02
      3.91189568e-02 1.69993378e-02 7.98764080e-03 4.71065985e-03
      4.30103717e-03 3.68660339e-03 3.07216938e-03 3.48179205e-03
      3.07216938e-03 3.48179205e-03 3.89141450e-03 4.30103717e-03
      4.91547119e-03 7.98764080e-03 2.08907519e-02 4.42392379e-02
      5.14076352e-02 5.22268787e-02 5.22268787e-02 5.22268787e-02
      5.22268787e-02 5.22268787e-02 5.22268787e-02 5.22268787e-02
      5.22268787e-02 5.22268787e-02 5.22268787e-02 5.22268787e-02
      5.22268787e-02 5.20220697e-02 4.54681069e-02 2.17099972e-02
      7.98764080e-03 5.32509387e-03 4.71065985e-03 4.09622584e-03
      3.68660339e-03 3.68660339e-03 3.27698071e-03 3.48179205e-03
      3.89141450e-03 4.30103717e-03 4.91547119e-03 8.39726347e-03
      1.82282049e-02 3.97333913e-02 5.07932007e-02 5.22268787e-02
      5.22268787e-02 5.22268787e-02 5.22268787e-02 5.20220697e-02
      5.20220697e-02 5.20220697e-02 5.22268787e-02 5.22268787e-02
      5.22268787e-02 5.22268787e-02 5.22268787e-02 5.12028225e-02
      4.11670692e-02 2.06859410e-02 9.42131970e-03 5.93952741e-03
      4.91547119e-03 4.50584851e-03 4.09622584e-03 3.89141450e-03
      3.27698071e-03 3.68660339e-03 4.09622584e-03 4.30103717e-03
      4.50584851e-03 7.37320678e-03 1.96618848e-02 4.28055599e-02
      5.09980135e-02 5.22268787e-02 5.22268787e-02 5.22268787e-02
      5.18172570e-02 5.07932007e-02 4.99739572e-02 5.07932007e-02
      5.09980135e-02 5.16124479e-02 5.20220697e-02 5.22268787e-02
      5.20220697e-02 5.09980135e-02 4.28055599e-02 2.21196190e-02
      9.42131970e-03 6.14433875e-03 5.32509387e-03 4.71065985e-03
      4.30103717e-03 4.30103717e-03 3.48179205e-03 3.68660339e-03
      4.09622584e-03 4.30103717e-03 4.30103717e-03 7.37320678e-03
      1.69993378e-02 3.66612226e-02 4.95643318e-02 5.22268787e-02
      5.22268787e-02 5.22268787e-02 5.12028225e-02 4.85402755e-02
      4.42392379e-02 4.50584851e-02 4.52632979e-02 4.77210321e-02
      4.91547100e-02 5.03835790e-02 5.01787663e-02 4.62873541e-02
      3.33842412e-02 1.90474503e-02 9.42131970e-03 5.32509387e-03
      4.71065985e-03 4.71065985e-03 4.30103717e-03 4.09622584e-03
      3.48179205e-03 3.68660339e-03 4.09622584e-03 4.30103717e-03
      3.89141450e-03 6.75877277e-03 1.65897142e-02 3.42034847e-02
      4.79258448e-02 5.18172570e-02 5.22268787e-02 5.20220697e-02
      5.03835790e-02 4.42392379e-02 3.56371664e-02 3.37938629e-02
      3.46131101e-02 3.74804661e-02 4.13718820e-02 4.34199944e-02
      4.32151817e-02 3.58419754e-02 2.68302802e-02 1.67945269e-02
      8.19245167e-03 4.71065985e-03 4.30103717e-03 4.50584851e-03
      4.30103717e-03 3.89141450e-03 3.68660339e-03 3.68660339e-03
      4.09622584e-03 4.30103717e-03 4.50584851e-03 6.96358411e-03
      1.22886775e-02 2.27340534e-02 4.11670692e-02 4.97691445e-02
      5.07932007e-02 5.12028225e-02 4.73114103e-02 3.99382040e-02
      3.19505632e-02 2.90832035e-02 2.94928271e-02 3.13361287e-02
      3.27698067e-02 3.58419754e-02 3.31794284e-02 2.82639582e-02
      1.98666956e-02 1.24934893e-02 7.16839544e-03 4.30103717e-03
      3.89141450e-03 3.89141450e-03 3.89141450e-03 3.68660339e-03
      3.68660339e-03 3.89141450e-03 3.89141450e-03 4.30103717e-03
      4.50584851e-03 6.55396143e-03 1.02405651e-02 1.57704689e-02
      2.76495256e-02 4.03478257e-02 4.64921631e-02 4.52632979e-02
      4.26007509e-02 4.01430130e-02 3.50227319e-02 3.37938629e-02
      3.39986756e-02 3.33842412e-02 3.15409377e-02 3.09265051e-02
      2.86735818e-02 2.49869786e-02 1.76137704e-02 1.18790548e-02
      6.96358411e-03 4.30103717e-03 3.68660339e-03 3.48179205e-03
      3.68660339e-03 3.68660339e-03 3.48179205e-03 3.89141450e-03
      3.89141450e-03 4.09622584e-03 4.30103717e-03 5.12028253e-03
      6.75877277e-03 1.18790548e-02 2.04811301e-02 2.66254675e-02
      3.60467881e-02 3.48179191e-02 3.85045223e-02 4.19863164e-02
      4.23959382e-02 4.32151817e-02 4.48536724e-02 4.21911255e-02
      3.93237695e-02 3.50227319e-02 2.99024489e-02 2.58062240e-02
      1.86378285e-02 1.35175455e-02 7.78282899e-03 4.71065985e-03
      4.09622584e-03 3.89141450e-03 3.89141450e-03 3.68660339e-03
      3.89141450e-03 4.30103717e-03 4.30103717e-03 4.50584851e-03
      4.71065985e-03 5.12028253e-03 5.52990474e-03 9.62613057e-03
      1.57704689e-02 1.94570739e-02 2.64206566e-02 2.92880144e-02
      3.60467881e-02 4.56729196e-02 4.95643318e-02 4.99739572e-02
      5.12028225e-02 5.01787663e-02 4.81306538e-02 4.64921631e-02
      3.72756571e-02 3.05168834e-02 2.21196190e-02 1.55656580e-02
      1.04453759e-02 6.96358411e-03 4.91547119e-03 4.50584851e-03
      4.50584851e-03 4.09622584e-03 4.50584851e-03 4.91547119e-03
      5.12028253e-03 5.32509387e-03 5.73471608e-03 5.73471608e-03
      5.52990474e-03 8.19245167e-03 1.12646213e-02 1.59752816e-02
      2.39629224e-02 2.96976380e-02 3.93237695e-02 5.01787663e-02
      5.16124479e-02 5.20220697e-02 5.22268787e-02 5.22268787e-02
      5.18172570e-02 5.14076352e-02 4.75162193e-02 3.87093350e-02
      2.94928271e-02 2.02763174e-02 1.39271682e-02 1.00357533e-02
      6.34915009e-03 5.12028253e-03 4.91547119e-03 4.71065985e-03
      4.50584851e-03 4.91547119e-03 5.12028253e-03 5.52990474e-03
      6.14433875e-03 6.14433875e-03 6.14433875e-03 7.57801812e-03
      9.42131970e-03 1.49512244e-02 2.31436770e-02 3.05168834e-02
      4.11670692e-02 5.07932007e-02 5.22268787e-02 5.22268787e-02
      5.22268787e-02 5.22268787e-02 5.22268787e-02 5.20220697e-02
      5.18172570e-02 4.81306538e-02 3.68660316e-02 2.47821659e-02
      1.78185832e-02 1.26983002e-02 8.19245167e-03 6.34915009e-03
      5.12028253e-03 4.91547119e-03 4.50584851e-03 5.32509387e-03
      5.52990474e-03 5.93952741e-03 6.34915009e-03 6.55396143e-03
      6.55396143e-03 7.57801812e-03 9.01169702e-03 1.37223564e-02
      2.37581097e-02 3.21553722e-02 4.36248071e-02 5.18172570e-02
      5.22268787e-02 5.22268787e-02 5.22268787e-02 5.22268787e-02
      5.22268787e-02 5.22268787e-02 5.22268787e-02 5.16124479e-02
      4.71065976e-02 3.44082974e-02 2.47821659e-02 1.63849033e-02
      1.00357533e-02 7.78282899e-03 5.52990474e-03 5.12028253e-03
      4.71065985e-03 5.52990474e-03 5.73471608e-03 6.14433875e-03
      6.14433875e-03 6.34915009e-03 6.55396143e-03 7.78282899e-03
      9.21650790e-03 1.45416018e-02 2.33484879e-02 3.42034847e-02
      4.56729196e-02 5.14076352e-02 5.22268787e-02 5.22268787e-02
      5.22268787e-02 5.22268787e-02 5.22268787e-02 5.22268787e-02
      5.22268787e-02 5.22268787e-02 5.16124479e-02 4.56729196e-02
      3.11313160e-02 1.84330158e-02 1.16742440e-02 8.39726347e-03
      6.14433875e-03 5.52990474e-03 4.91547119e-03 4.91547119e-03
      5.32509387e-03 5.73471608e-03 6.14433875e-03 6.34915009e-03
      5.93952741e-03 7.37320678e-03 9.21650790e-03 1.39271682e-02
      2.74447128e-02 3.80949005e-02 4.77210321e-02 5.22268787e-02
      5.22268787e-02 5.22268787e-02 5.22268787e-02 5.22268787e-02
      5.22268787e-02 5.22268787e-02 5.22268787e-02 5.22268787e-02
      5.20220697e-02 5.12028225e-02 4.17815037e-02 2.27340534e-02
      1.29031120e-02 9.21650790e-03 6.55396143e-03 6.14433875e-03</_>
    <_>
      3.43493745e-03 3.63699254e-03 4.04110271e-03 6.86987489e-03
      1.31335845e-02 2.66712792e-02 4.10171933e-02 4.90994006e-02
      5.15240617e-02 5.15240617e-02 5.15240617e-02 5.15240617e-02
      5.15240617e-02 5.15240617e-02 5.15240617e-02 5.13220057e-02
      5.09178974e-02 4.86952923e-02 4.90994006e-02 4.18254137e-02
      2.50548385e-02 1.31335845e-02 7.88015034e-03 4.84932354e-03
      2.82877218e-03 2.62671686e-03 2.62671686e-03 2.62671686e-03
      2.42466177e-03 2.42466177e-03 3.03082727e-03 3.63699254e-03
      4.24315827e-03 5.85959945e-03 7.88015034e-03 1.91952381e-02
      3.87945883e-02 5.01096770e-02 5.15240617e-02 5.15240617e-02
      5.15240617e-02 5.15240617e-02 5.15240617e-02 5.15240617e-02
      5.15240617e-02 5.13220057e-02 4.95035127e-02 4.36439104e-02
      4.26336378e-02 4.08151411e-02 2.68733352e-02 1.31335845e-02
      7.07192998e-03 4.44521336e-03 2.82877218e-03 2.62671686e-03
      2.62671686e-03 2.42466177e-03 2.22260668e-03 2.22260668e-03
      3.43493745e-03 3.83904786e-03 4.44521336e-03 5.65754436e-03
      7.07192998e-03 1.23253642e-02 2.74794996e-02 4.38459665e-02
      5.05137853e-02 5.11199534e-02 5.15240617e-02 5.15240617e-02
      5.15240617e-02 5.15240617e-02 5.15240617e-02 5.13220057e-02
      5.09178974e-02 4.32398021e-02 3.94007526e-02 3.35411541e-02
      2.02055145e-02 1.07089225e-02 7.07192998e-03 4.64726845e-03
      2.82877218e-03 2.42466177e-03 2.42466177e-03 2.22260668e-03
      2.22260668e-03 2.22260668e-03 3.23288236e-03 3.63699254e-03
      4.04110271e-03 5.05137863e-03 6.06165454e-03 1.11130327e-02
      2.18219552e-02 3.49555388e-02 4.54624072e-02 5.07158414e-02
      5.15240617e-02 5.15240617e-02 5.15240617e-02 5.15240617e-02
      5.15240617e-02 5.11199534e-02 4.80891243e-02 3.81884240e-02
      3.57637629e-02 2.97021065e-02 1.95993502e-02 1.13150887e-02
      7.07192998e-03 4.64726845e-03 3.03082727e-03 2.62671686e-03
      2.42466177e-03 2.42466177e-03 2.62671686e-03 2.42466177e-03
      3.23288236e-03 3.43493745e-03 4.04110271e-03 4.44521336e-03
      5.05137863e-03 8.48631654e-03 1.89931840e-02 3.17226574e-02
      4.08151411e-02 4.70788479e-02 5.05137853e-02 5.09178974e-02
      5.15240617e-02 5.15240617e-02 5.15240617e-02 5.05137853e-02
      4.93014567e-02 4.10171933e-02 4.12192494e-02 3.49555388e-02
      2.02055145e-02 1.05068674e-02 6.86987489e-03 4.64726845e-03
      3.23288236e-03 3.03082727e-03 2.82877218e-03 2.62671686e-03
      2.62671686e-03 2.22260668e-03 3.03082727e-03 3.43493745e-03
      3.83904786e-03 4.64726845e-03 5.45548880e-03 9.49659199e-03
      1.83870178e-02 3.01062167e-02 3.89966443e-02 4.32398021e-02
      4.72809039e-02 5.03117330e-02 5.13220057e-02 5.15240617e-02
      5.15240617e-02 5.01096770e-02 4.34418581e-02 3.49555388e-02
      4.04110290e-02 4.18254137e-02 2.82877199e-02 1.43459151e-02
      7.88015034e-03 5.05137863e-03 3.23288236e-03 3.23288236e-03
      3.03082727e-03 2.82877218e-03 2.62671686e-03 2.62671686e-03
      3.23288236e-03 3.43493745e-03 4.04110271e-03 4.84932354e-03
      5.85959945e-03 9.29453690e-03 2.02055145e-02 3.65719832e-02
      4.50582989e-02 4.38459665e-02 4.46541868e-02 4.84932363e-02
      5.03117330e-02 5.05137853e-02 5.05137853e-02 4.70788479e-02
      3.77843119e-02 3.67740355e-02 4.52603549e-02 4.40480225e-02
      3.07123829e-02 1.79829076e-02 1.05068674e-02 5.85959945e-03
      3.23288236e-03 3.03082727e-03 3.03082727e-03 3.03082727e-03
      2.62671686e-03 2.62671686e-03 3.23288236e-03 3.63699254e-03
      3.83904786e-03 5.05137863e-03 6.46576472e-03 1.07089225e-02
      2.10137349e-02 3.61678712e-02 4.62706275e-02 4.70788479e-02
      4.62706275e-02 4.78870682e-02 4.86952923e-02 4.93014567e-02
      4.97055650e-02 4.78870682e-02 4.02089730e-02 3.65719832e-02
      4.48562428e-02 4.74829599e-02 3.73802036e-02 2.18219552e-02
      1.13150887e-02 6.26370963e-03 3.43493745e-03 3.23288236e-03
      3.23288236e-03 3.03082727e-03 2.82877218e-03 2.62671686e-03
      3.23288236e-03 3.63699254e-03 4.24315827e-03 5.25343372e-03
      6.46576472e-03 9.69864707e-03 2.12157909e-02 3.85925323e-02
      4.88973446e-02 4.95035127e-02 4.90994006e-02 4.88973446e-02
      4.88973446e-02 4.95035127e-02 4.97055650e-02 4.84932363e-02
      4.52603549e-02 4.16233614e-02 4.76850159e-02 4.97055650e-02
      4.66747396e-02 3.17226574e-02 1.55582465e-02 6.66781981e-03
      3.23288236e-03 3.43493745e-03 3.23288236e-03 3.23288236e-03
      3.03082727e-03 2.82877218e-03 3.43493745e-03 3.83904786e-03
      4.24315827e-03 5.25343372e-03 6.66781981e-03 1.03048123e-02
      2.12157909e-02 3.75822559e-02 4.86952923e-02 5.09178974e-02
      5.09178974e-02 5.01096770e-02 4.99076210e-02 5.01096770e-02
      5.01096770e-02 4.90994006e-02 4.62706275e-02 4.14213054e-02
      4.72809039e-02 5.01096770e-02 4.68767956e-02 3.09144370e-02
      1.49520813e-02 7.07192998e-03 3.63699254e-03 3.63699254e-03
      3.43493745e-03 3.23288236e-03 3.03082727e-03 2.82877218e-03
      3.43493745e-03 3.83904786e-03 4.24315827e-03 5.05137863e-03
      6.06165454e-03 9.29453690e-03 2.10137349e-02 3.89966443e-02
      5.01096770e-02 5.15240617e-02 5.13220057e-02 5.09178974e-02
      5.05137853e-02 5.07158414e-02 5.07158414e-02 5.01096770e-02
      4.84932363e-02 4.54624072e-02 4.90994006e-02 5.07158414e-02
      4.90994006e-02 3.43493745e-02 1.65685229e-02 6.86987489e-03
      3.83904786e-03 4.04110271e-03 3.63699254e-03 3.03082727e-03
      2.62671686e-03 2.62671686e-03 3.43493745e-03 3.83904786e-03
      4.04110271e-03 5.25343372e-03 6.06165454e-03 9.49659199e-03
      1.98014043e-02 3.69760916e-02 4.93014567e-02 5.15240617e-02
      5.15240617e-02 5.13220057e-02 5.13220057e-02 5.13220057e-02
      5.13220057e-02 5.09178974e-02 5.03117330e-02 4.99076210e-02
      5.09178974e-02 5.13220057e-02 4.86952923e-02 3.45514305e-02
      1.77808534e-02 8.08220543e-03 4.84932354e-03 4.24315827e-03
      3.43493745e-03 3.03082727e-03 2.62671686e-03 2.62671686e-03
      3.23288236e-03 3.83904786e-03 4.24315827e-03 5.25343372e-03
      5.85959945e-03 9.09248181e-03 1.98014043e-02 3.77843119e-02
      5.01096770e-02 5.15240617e-02 5.15240617e-02 5.15240617e-02
      5.15240617e-02 5.15240617e-02 5.15240617e-02 5.13220057e-02
      5.11199534e-02 5.09178974e-02 5.11199534e-02 5.13220057e-02
      4.97055650e-02 3.65719832e-02 1.89931840e-02 8.68837163e-03
      5.45548880e-03 4.44521336e-03 3.43493745e-03 3.03082727e-03
      3.03082727e-03 2.62671686e-03 3.23288236e-03 3.63699254e-03
      4.24315827e-03 5.05137863e-03 5.85959945e-03 9.09248181e-03
      1.81849636e-02 3.57637629e-02 4.93014567e-02 5.15240617e-02
      5.15240617e-02 5.15240617e-02 5.15240617e-02 5.15240617e-02
      5.15240617e-02 5.15240617e-02 5.13220057e-02 5.11199534e-02
      5.11199534e-02 5.13220057e-02 4.97055650e-02 3.81884240e-02
      2.10137349e-02 9.69864707e-03 5.85959945e-03 4.24315827e-03
      3.03082727e-03 3.03082727e-03 2.82877218e-03 2.62671686e-03
      3.23288236e-03 3.23288236e-03 3.63699254e-03 4.64726845e-03
      5.65754436e-03 8.68837163e-03 1.79829076e-02 3.57637629e-02
      4.95035127e-02 5.15240617e-02 5.15240617e-02 5.15240617e-02
      5.15240617e-02 5.15240617e-02 5.15240617e-02 5.15240617e-02
      5.15240617e-02 5.11199534e-02 5.07158414e-02 5.09178974e-02
      4.97055650e-02 3.87945883e-02 2.16199011e-02 9.49659199e-03
      5.65754436e-03 4.24315827e-03 3.03082727e-03 2.82877218e-03
      2.62671686e-03 2.62671686e-03 3.03082727e-03 3.03082727e-03
      3.43493745e-03 4.44521336e-03 5.25343372e-03 8.28426145e-03
      1.63664669e-02 3.41473185e-02 4.86952923e-02 5.13220057e-02
      5.15240617e-02 5.15240617e-02 5.15240617e-02 5.15240617e-02
      5.15240617e-02 5.15240617e-02 5.15240617e-02 5.09178974e-02
      5.03117330e-02 5.03117330e-02 4.95035127e-02 3.98048647e-02
      2.26301774e-02 9.90070216e-03 5.85959945e-03 4.24315827e-03
      3.03082727e-03 2.82877218e-03 2.62671686e-03 2.42466177e-03
      3.03082727e-03 3.23288236e-03 3.63699254e-03 4.24315827e-03
      4.84932354e-03 7.67809572e-03 1.45479701e-02 3.17226574e-02
      4.72809039e-02 5.09178974e-02 5.15240617e-02 5.15240617e-02
      5.15240617e-02 5.15240617e-02 5.15240617e-02 5.15240617e-02
      5.15240617e-02 5.07158414e-02 4.99076210e-02 4.97055650e-02
      4.86952923e-02 3.96028087e-02 2.32363418e-02 1.05068674e-02
      6.26370963e-03 4.44521336e-03 3.23288236e-03 2.82877218e-03
      2.42466177e-03 2.42466177e-03 3.03082727e-03 3.43493745e-03
      3.83904786e-03 4.24315827e-03 4.44521336e-03 6.86987489e-03
      1.35376947e-02 2.90959403e-02 4.48562428e-02 5.05137853e-02
      5.15240617e-02 5.15240617e-02 5.15240617e-02 5.15240617e-02
      5.15240617e-02 5.15240617e-02 5.15240617e-02 5.09178974e-02
      4.99076210e-02 4.93014567e-02 4.82911803e-02 3.94007526e-02
      2.32363418e-02 1.09109776e-02 6.46576472e-03 4.64726845e-03
      3.23288236e-03 2.82877218e-03 2.22260668e-03 2.22260668e-03
      3.03082727e-03 3.23288236e-03 3.43493745e-03 3.83904786e-03
      4.64726845e-03 6.66781981e-03 9.90070216e-03 1.95993502e-02
      3.57637629e-02 4.80891243e-02 5.13220057e-02 5.15240617e-02
      5.15240617e-02 5.15240617e-02 5.15240617e-02 5.15240617e-02
      5.15240617e-02 5.09178974e-02 4.99076210e-02 4.78870682e-02
      4.64726835e-02 3.81884240e-02 2.32363418e-02 1.15171438e-02
      6.66781981e-03 4.44521336e-03 3.03082727e-03 2.62671686e-03
      2.42466177e-03 2.22260668e-03 3.23288236e-03 3.23288236e-03
      3.43493745e-03 3.83904786e-03 4.44521336e-03 6.26370963e-03
      8.89042672e-03 1.53561914e-02 2.92979963e-02 4.42500785e-02
      5.03117330e-02 5.13220057e-02 5.15240617e-02 5.15240617e-02
      5.15240617e-02 5.15240617e-02 5.15240617e-02 5.07158414e-02
      4.90994006e-02 4.38459665e-02 4.30377461e-02 3.57637629e-02
      2.16199011e-02 1.07089225e-02 6.46576472e-03 4.24315827e-03
      2.82877218e-03 2.82877218e-03 2.42466177e-03 2.22260668e-03
      3.43493745e-03 3.63699254e-03 3.63699254e-03 4.04110271e-03
      4.44521336e-03 5.85959945e-03 6.66781981e-03 1.15171438e-02
      2.52568927e-02 4.14213054e-02 4.90994006e-02 5.07158414e-02
      5.13220057e-02 5.13220057e-02 5.15240617e-02 5.15240617e-02
      5.15240617e-02 5.05137853e-02 4.78870682e-02 3.96028087e-02
      3.63699272e-02 3.11164930e-02 2.00034603e-02 1.03048123e-02
      6.06165454e-03 4.44521336e-03 3.03082727e-03 3.03082727e-03
      2.62671686e-03 2.62671686e-03 3.63699254e-03 3.83904786e-03
      4.04110271e-03 4.24315827e-03 4.44521336e-03 5.45548880e-03
      5.85959945e-03 8.48631654e-03 1.91952381e-02 3.61678712e-02
      4.76850159e-02 4.93014567e-02 5.03117330e-02 5.09178974e-02
      5.15240617e-02 5.15240617e-02 5.15240617e-02 5.03117330e-02
      4.76850159e-02 4.00069207e-02 3.71781476e-02 3.27329338e-02
      2.06096247e-02 9.49659199e-03 5.85959945e-03 4.44521336e-03
      3.43493745e-03 3.23288236e-03 2.82877218e-03 2.62671686e-03
      3.63699254e-03 3.83904786e-03 4.04110271e-03 4.24315827e-03
      4.44521336e-03 5.25343372e-03 6.06165454e-03 9.09248181e-03
      1.77808534e-02 3.19247134e-02 4.46541868e-02 4.80891243e-02
      4.90994006e-02 5.03117330e-02 5.11199534e-02 5.11199534e-02
      5.13220057e-02 4.95035127e-02 4.40480225e-02 3.69760916e-02
      3.85925323e-02 3.69760916e-02 2.52568927e-02 1.27294743e-02
      6.86987489e-03 4.64726845e-03 3.03082727e-03 2.82877218e-03
      2.62671686e-03 2.62671686e-03 3.43493745e-03 3.63699254e-03
      4.04110271e-03 4.24315827e-03 4.24315827e-03 5.25343372e-03
      5.85959945e-03 8.68837163e-03 1.93972941e-02 3.65719832e-02
      4.76850159e-02 4.82911803e-02 4.80891243e-02 4.88973446e-02
      4.99076210e-02 4.99076210e-02 5.01096770e-02 4.80891243e-02
      4.26336378e-02 3.94007526e-02 4.48562428e-02 4.36439104e-02
      2.97021065e-02 1.49520813e-02 8.08220543e-03 5.25343372e-03
      2.82877218e-03 2.42466177e-03 2.62671686e-03 2.82877218e-03
      3.03082727e-03 3.43493745e-03 3.83904786e-03 4.04110271e-03
      4.24315827e-03 5.05137863e-03 6.06165454e-03 1.01027573e-02
      2.14178450e-02 3.67740355e-02 4.68767956e-02 4.86952923e-02
      4.80891243e-02 4.78870682e-02 4.84932363e-02 4.90994006e-02
      4.90994006e-02 4.78870682e-02 4.10171933e-02 3.69760916e-02
      4.30377461e-02 4.74829599e-02 3.81884240e-02 2.08116807e-02
      9.49659199e-03 5.85959945e-03 3.03082727e-03 2.82877218e-03
      2.82877218e-03 3.03082727e-03 3.03082727e-03 3.23288236e-03
      3.63699254e-03 4.04110271e-03 4.44521336e-03 5.25343372e-03
      6.06165454e-03 8.48631654e-03 1.95993502e-02 3.79863679e-02
      4.97055650e-02 5.01096770e-02 4.99076210e-02 4.93014567e-02
      4.90994006e-02 4.93014567e-02 4.93014567e-02 4.66747396e-02
      3.96028087e-02 3.91987003e-02 4.62706275e-02 4.80891243e-02
      4.04110290e-02 2.68733352e-02 1.41438600e-02 7.07192998e-03
      3.23288236e-03 3.23288236e-03 3.43493745e-03 3.43493745e-03
      3.03082727e-03 3.23288236e-03 3.63699254e-03 4.04110271e-03
      4.24315827e-03 5.05137863e-03 6.26370963e-03 9.90070216e-03
      2.02055145e-02 3.59658152e-02 4.82911803e-02 5.13220057e-02
      5.13220057e-02 5.03117330e-02 4.95035127e-02 4.95035127e-02
      4.97055650e-02 4.90994006e-02 4.46541868e-02 4.08151411e-02
      4.50582989e-02 4.93014567e-02 4.42500785e-02 2.88938861e-02
      1.35376947e-02 7.07192998e-03 3.03082727e-03 3.23288236e-03
      3.63699254e-03 3.23288236e-03 2.82877218e-03 3.23288236e-03
      3.63699254e-03 4.04110271e-03 4.04110271e-03 4.84932354e-03
      5.85959945e-03 8.28426145e-03 1.85890738e-02 3.73802036e-02
      5.11199534e-02 5.15240617e-02 5.15240617e-02 5.09178974e-02
      5.05137853e-02 5.05137853e-02 5.07158414e-02 4.99076210e-02
      4.90994006e-02 4.66747396e-02 4.90994006e-02 5.05137853e-02
      4.97055650e-02 3.85925323e-02 1.89931840e-02 7.27398507e-03
      2.82877218e-03 3.23288236e-03 3.63699254e-03 3.23288236e-03
      2.82877218e-03 3.03082727e-03 3.43493745e-03 3.63699254e-03
      3.63699254e-03 4.84932354e-03 6.66781981e-03 9.69864707e-03
      1.71746872e-02 3.17226574e-02 4.72809039e-02 5.15240617e-02
      5.15240617e-02 5.15240617e-02 5.15240617e-02 5.15240617e-02
      5.15240617e-02 5.09178974e-02 4.90994006e-02 4.62706275e-02
      4.82911803e-02 5.05137853e-02 4.70788479e-02 3.27329338e-02
      1.55582465e-02 7.67809572e-03 3.23288236e-03 3.23288236e-03
      3.03082727e-03 3.03082727e-03 2.82877218e-03 2.82877218e-03
      3.03082727e-03 3.03082727e-03 3.43493745e-03 5.05137863e-03
      6.66781981e-03 8.89042672e-03 1.81849636e-02 3.65719832e-02
      5.15240617e-02 5.15240617e-02 5.15240617e-02 5.15240617e-02
      5.15240617e-02 5.15240617e-02 5.15240617e-02 5.11199534e-02
      5.07158414e-02 4.99076210e-02 5.07158414e-02 5.13220057e-02
      5.09178974e-02 4.06130850e-02 2.06096247e-02 7.27398507e-03
      3.23288236e-03 3.43493745e-03 3.23288236e-03 2.82877218e-03</_>
    <_>
      7.99321476e-03 8.38312693e-03 8.57808348e-03 8.96799657e-03
      9.35790967e-03 9.16295312e-03 9.74782277e-03 9.94277839e-03
      1.03326915e-02 1.05276480e-02 1.13074742e-02 1.26721691e-02
      1.44267771e-02 1.94956455e-02 3.50921601e-02 4.81542423e-02
      4.97138947e-02 4.97138947e-02 4.97138947e-02 4.97138947e-02
      4.97138947e-02 4.97138947e-02 4.97138947e-02 4.97138947e-02
      4.97138947e-02 4.97138947e-02 4.97138947e-02 4.67895456e-02
      3.11930310e-02 1.83259062e-02 8.18817038e-03 8.38312693e-03
      8.57808348e-03 8.96799657e-03 9.74782277e-03 9.74782277e-03
      1.01377349e-02 1.03326915e-02 1.01377349e-02 1.03326915e-02
      1.13074742e-02 1.26721691e-02 1.44267771e-02 2.24199910e-02
      3.45072895e-02 4.48399819e-02 4.95189391e-02 4.97138947e-02
      4.97138947e-02 4.97138947e-02 4.97138947e-02 4.97138947e-02
      4.97138947e-02 4.97138947e-02 4.97138947e-02 4.97138947e-02
      4.93239798e-02 4.67895456e-02 3.23627703e-02 1.61813851e-02
      8.57808348e-03 8.57808348e-03 8.96799657e-03 9.35790967e-03
      9.55286622e-03 9.35790967e-03 9.74782277e-03 9.74782277e-03
      9.94277839e-03 1.09175611e-02 1.18923429e-02 1.34519944e-02
      1.63763408e-02 2.28099041e-02 3.15829441e-02 4.28904183e-02
      4.91290241e-02 4.97138947e-02 4.97138947e-02 4.97138947e-02
      4.97138947e-02 4.97138947e-02 4.97138947e-02 4.97138947e-02
      4.97138947e-02 4.95189391e-02 4.77643311e-02 3.84064205e-02
      2.43695565e-02 1.59864295e-02 8.57808348e-03 8.77304003e-03
      9.35790967e-03 9.35790967e-03 9.55286622e-03 9.55286622e-03
      9.55286622e-03 9.94277839e-03 1.05276480e-02 1.24772126e-02
      1.46217337e-02 1.54015590e-02 1.83259062e-02 2.45645121e-02
      3.08031179e-02 3.87963317e-02 4.77643311e-02 4.95189391e-02
      4.97138947e-02 4.97138947e-02 4.97138947e-02 4.97138947e-02
      4.97138947e-02 4.97138947e-02 4.91290241e-02 4.81542423e-02
      3.95761579e-02 2.74888594e-02 1.98855568e-02 1.46217337e-02
      9.16295312e-03 9.16295312e-03 9.35790967e-03 9.16295312e-03
      9.55286622e-03 9.55286622e-03 1.01377349e-02 1.05276480e-02
      1.22822560e-02 1.55965155e-02 1.89107750e-02 1.96906012e-02
      2.43695565e-02 2.84636412e-02 3.21678147e-02 3.72366831e-02
      4.52298969e-02 4.85441536e-02 4.95189391e-02 4.97138947e-02
      4.97138947e-02 4.95189391e-02 4.93239798e-02 4.75693718e-02
      4.50349376e-02 3.89912911e-02 2.74888594e-02 2.04704273e-02
      1.40368640e-02 1.20872995e-02 1.01377349e-02 9.55286622e-03
      9.16295312e-03 8.96799657e-03 9.55286622e-03 9.74782277e-03
      1.01377349e-02 1.18923429e-02 1.57914720e-02 1.81309488e-02
      2.04704273e-02 3.29476409e-02 3.91862467e-02 3.66518125e-02
      3.66518125e-02 3.62618975e-02 4.23055477e-02 4.58147638e-02
      4.83491980e-02 4.89340685e-02 4.95189391e-02 4.83491980e-02
      4.67895456e-02 4.21105921e-02 3.48972045e-02 2.49544252e-02
      1.91057324e-02 1.54015590e-02 1.20872995e-02 1.11125177e-02
      9.94277839e-03 9.55286622e-03 9.74782277e-03 9.94277839e-03
      9.94277839e-03 9.94277839e-03 1.05276480e-02 1.34519944e-02
      1.96906012e-02 2.12502535e-02 3.31425965e-02 4.63996343e-02
      4.75693718e-02 4.54248525e-02 4.46450263e-02 3.93812023e-02
      3.78215499e-02 3.95761579e-02 4.17206809e-02 4.38652001e-02
      4.34752889e-02 4.11358103e-02 3.84064205e-02 3.27526815e-02
      2.43695565e-02 2.02754699e-02 1.40368640e-02 1.22822560e-02
      1.11125177e-02 1.09175611e-02 9.74782277e-03 9.94277839e-03
      1.01377349e-02 1.01377349e-02 1.03326915e-02 1.05276480e-02
      1.22822560e-02 1.55965155e-02 2.12502535e-02 3.23627703e-02
      4.62046787e-02 4.93239798e-02 4.97138947e-02 4.93239798e-02
      4.75693718e-02 4.38652001e-02 3.95761579e-02 3.74316387e-02
      3.66518125e-02 3.86013761e-02 3.70417237e-02 3.56770307e-02
      3.19728591e-02 2.53443383e-02 2.00805143e-02 1.63763408e-02
      1.36469509e-02 1.22822560e-02 1.05276480e-02 1.05276480e-02
      9.55286622e-03 9.94277839e-03 9.94277839e-03 9.94277839e-03
      1.05276480e-02 1.15024308e-02 1.48166902e-02 1.81309488e-02
      2.69039888e-02 4.50349376e-02 4.85441536e-02 4.97138947e-02
      4.97138947e-02 4.95189391e-02 4.93239798e-02 4.73744161e-02
      4.56198081e-02 4.25005071e-02 4.21105921e-02 4.15257215e-02
      4.11358103e-02 3.62618975e-02 3.09980754e-02 2.43695565e-02
      1.77410375e-02 1.32570388e-02 1.18923429e-02 1.13074742e-02
      1.07226046e-02 1.09175611e-02 7.79825775e-03 8.38312693e-03
      9.35790967e-03 1.03326915e-02 1.07226046e-02 1.15024308e-02
      1.65712982e-02 2.18351223e-02 2.94384230e-02 4.46450263e-02
      4.97138947e-02 4.97138947e-02 4.97138947e-02 4.97138947e-02
      4.97138947e-02 4.91290241e-02 4.85441536e-02 4.79592867e-02
      4.81542423e-02 4.75693718e-02 4.77643311e-02 4.19156365e-02
      3.27526815e-02 2.28099041e-02 1.59864295e-02 1.11125177e-02
      1.11125177e-02 1.07226046e-02 1.05276480e-02 1.05276480e-02
      7.21338857e-03 7.79825775e-03 8.18817038e-03 9.35790967e-03
      1.01377349e-02 1.11125177e-02 1.75460801e-02 2.65140776e-02
      3.91862467e-02 4.89340685e-02 4.97138947e-02 4.97138947e-02
      4.97138947e-02 4.97138947e-02 4.97138947e-02 4.95189391e-02
      4.95189391e-02 4.93239798e-02 4.93239798e-02 4.93239798e-02
      4.91290241e-02 4.69845049e-02 3.66518125e-02 2.37846859e-02
      1.48166902e-02 1.01377349e-02 1.01377349e-02 9.94277839e-03
      9.94277839e-03 1.01377349e-02 1.94956455e-02 1.18923429e-02
      9.16295312e-03 7.01843202e-03 8.18817038e-03 9.74782277e-03
      1.65712982e-02 3.08031179e-02 4.48399819e-02 4.95189391e-02
      4.97138947e-02 4.97138947e-02 4.97138947e-02 4.97138947e-02
      4.97138947e-02 4.97138947e-02 4.97138947e-02 4.97138947e-02
      4.97138947e-02 4.97138947e-02 4.97138947e-02 4.83491980e-02
      4.15257215e-02 2.63191201e-02 1.44267771e-02 9.94277839e-03
      1.05276480e-02 9.94277839e-03 9.74782277e-03 1.01377349e-02
      4.07458991e-02 2.65140776e-02 1.91057324e-02 1.09175611e-02
      9.74782277e-03 9.94277839e-03 1.57914720e-02 2.90485099e-02
      4.46450263e-02 4.95189391e-02 4.97138947e-02 4.97138947e-02
      4.97138947e-02 4.97138947e-02 4.97138947e-02 4.97138947e-02
      4.97138947e-02 4.97138947e-02 4.97138947e-02 4.97138947e-02
      4.97138947e-02 4.87391129e-02 4.15257215e-02 2.49544252e-02
      1.40368640e-02 9.74782277e-03 1.05276480e-02 1.03326915e-02
      1.03326915e-02 1.03326915e-02 4.85441536e-02 4.36702445e-02
      3.80165055e-02 3.00232936e-02 1.73511244e-02 1.71561670e-02
      1.61813851e-02 2.63191201e-02 4.03559841e-02 4.91290241e-02
      4.97138947e-02 4.97138947e-02 4.97138947e-02 4.97138947e-02
      4.97138947e-02 4.97138947e-02 4.97138947e-02 4.97138947e-02
      4.97138947e-02 4.97138947e-02 4.97138947e-02 4.75693718e-02
      3.76265943e-02 2.51493808e-02 1.46217337e-02 9.16295312e-03
      1.01377349e-02 1.01377349e-02 1.01377349e-02 1.03326915e-02
      4.97138947e-02 4.95189391e-02 4.83491980e-02 4.77643311e-02
      3.74316387e-02 3.25577259e-02 2.43695565e-02 2.43695565e-02
      3.89912911e-02 4.79592867e-02 4.97138947e-02 4.97138947e-02
      4.97138947e-02 4.97138947e-02 4.97138947e-02 4.97138947e-02
      4.97138947e-02 4.97138947e-02 4.97138947e-02 4.97138947e-02
      4.95189391e-02 4.40601557e-02 3.15829441e-02 2.06653830e-02
      1.38419075e-02 9.74782277e-03 1.03326915e-02 1.03326915e-02
      1.01377349e-02 1.03326915e-02 4.93239798e-02 4.95189391e-02
      4.97138947e-02 4.95189391e-02 4.89340685e-02 4.58147638e-02
      4.46450263e-02 3.64568569e-02 4.15257215e-02 4.91290241e-02
      4.97138947e-02 4.97138947e-02 4.97138947e-02 4.97138947e-02
      4.97138947e-02 4.97138947e-02 4.97138947e-02 4.97138947e-02
      4.97138947e-02 4.97138947e-02 4.91290241e-02 4.34752889e-02
      2.63191201e-02 1.65712982e-02 1.24772126e-02 1.01377349e-02
      1.05276480e-02 1.07226046e-02 1.07226046e-02 1.03326915e-02
      4.56198081e-02 4.69845049e-02 4.89340685e-02 4.95189391e-02
      4.97138947e-02 4.97138947e-02 4.97138947e-02 4.81542423e-02
      4.87391129e-02 4.97138947e-02 4.97138947e-02 4.97138947e-02
      4.97138947e-02 4.97138947e-02 4.97138947e-02 4.97138947e-02
      4.97138947e-02 4.97138947e-02 4.97138947e-02 4.95189391e-02
      4.63996343e-02 3.39224227e-02 2.06653830e-02 1.38419075e-02
      1.18923429e-02 1.07226046e-02 1.05276480e-02 1.07226046e-02
      1.05276480e-02 1.03326915e-02 2.86585968e-02 3.70417237e-02
      4.26954627e-02 4.79592867e-02 4.91290241e-02 4.97138947e-02
      4.97138947e-02 4.97138947e-02 4.97138947e-02 4.97138947e-02
      4.97138947e-02 4.97138947e-02 4.97138947e-02 4.97138947e-02
      4.97138947e-02 4.97138947e-02 4.97138947e-02 4.97138947e-02
      4.95189391e-02 4.65945899e-02 3.74316387e-02 2.69039888e-02
      1.73511244e-02 1.20872995e-02 1.15024308e-02 1.11125177e-02
      1.07226046e-02 1.07226046e-02 1.07226046e-02 1.05276480e-02
      1.65712982e-02 2.31998172e-02 3.02182492e-02 3.87963317e-02
      4.48399819e-02 4.71794605e-02 4.93239798e-02 4.95189391e-02
      4.97138947e-02 4.97138947e-02 4.97138947e-02 4.97138947e-02
      4.97138947e-02 4.97138947e-02 4.97138947e-02 4.97138947e-02
      4.95189391e-02 4.91290241e-02 4.52298969e-02 3.60669419e-02
      2.78787725e-02 1.75460801e-02 1.26721691e-02 1.11125177e-02
      1.09175611e-02 1.07226046e-02 1.07226046e-02 1.09175611e-02
      1.07226046e-02 1.03326915e-02 1.11125177e-02 1.30620822e-02
      1.73511244e-02 2.35897303e-02 3.21678147e-02 3.91862467e-02
      4.50349376e-02 4.89340685e-02 4.95189391e-02 4.97138947e-02
      4.97138947e-02 4.97138947e-02 4.97138947e-02 4.97138947e-02
      4.97138947e-02 4.97138947e-02 4.91290241e-02 4.48399819e-02
      3.29476409e-02 2.47594696e-02 1.83259062e-02 1.20872995e-02
      9.94277839e-03 1.03326915e-02 1.07226046e-02 1.03326915e-02
      1.07226046e-02 1.09175611e-02 1.09175611e-02 1.05276480e-02
      5.26382402e-03 6.62851939e-03 9.94277839e-03 1.59864295e-02
      1.89107750e-02 2.67090332e-02 3.11930310e-02 4.07458991e-02
      4.48399819e-02 4.85441536e-02 4.93239798e-02 4.97138947e-02
      4.97138947e-02 4.97138947e-02 4.97138947e-02 4.97138947e-02
      4.83491980e-02 4.07458991e-02 3.11930310e-02 2.02754699e-02
      1.59864295e-02 9.16295312e-03 7.21338857e-03 8.96799657e-03
      1.03326915e-02 1.01377349e-02 1.05276480e-02 1.07226046e-02
      1.07226046e-02 1.05276480e-02 3.31425969e-03 4.28904174e-03
      6.62851939e-03 1.01377349e-02 1.15024308e-02 1.40368640e-02
      1.96906012e-02 2.63191201e-02 3.39224227e-02 3.99660729e-02
      4.85441536e-02 4.81542423e-02 4.97138947e-02 4.97138947e-02
      4.97138947e-02 4.97138947e-02 4.95189391e-02 4.69845049e-02
      4.56198081e-02 3.35325077e-02 2.18351223e-02 1.54015590e-02
      9.74782277e-03 8.96799657e-03 9.16295312e-03 8.96799657e-03
      9.35790967e-03 9.94277839e-03 1.05276480e-02 1.05276480e-02
      2.72939028e-03 3.11930315e-03 3.50921601e-03 3.31425969e-03
      5.26382402e-03 8.18817038e-03 1.42318206e-02 1.75460801e-02
      2.12502535e-02 2.39796434e-02 3.31425965e-02 3.87963317e-02
      4.48399819e-02 4.87391129e-02 4.97138947e-02 4.97138947e-02
      4.97138947e-02 4.97138947e-02 4.91290241e-02 4.81542423e-02
      3.91862467e-02 3.45072895e-02 2.35897303e-02 1.63763408e-02
      9.94277839e-03 7.21338857e-03 6.82347547e-03 8.38312693e-03
      9.94277839e-03 1.03326915e-02 3.31425969e-03 3.31425969e-03
      3.11930315e-03 2.72939028e-03 3.70417256e-03 5.06886747e-03
      8.18817038e-03 1.05276480e-02 1.13074742e-02 1.54015590e-02
      1.96906012e-02 2.57342514e-02 3.23627703e-02 4.26954627e-02
      4.56198081e-02 4.85441536e-02 4.95189391e-02 4.97138947e-02
      4.97138947e-02 4.97138947e-02 4.95189391e-02 4.77643311e-02
      4.32803296e-02 3.29476409e-02 2.65140776e-02 1.38419075e-02
      1.01377349e-02 8.96799657e-03 1.13074742e-02 1.11125177e-02
      3.11930315e-03 3.31425969e-03 3.31425969e-03 2.72939028e-03
      2.72939028e-03 2.92434660e-03 3.50921601e-03 5.06886747e-03
      6.82347547e-03 1.01377349e-02 1.46217337e-02 1.57914720e-02
      1.93006881e-02 2.51493808e-02 3.19728591e-02 3.74316387e-02
      4.58147638e-02 4.87391129e-02 4.93239798e-02 4.97138947e-02
      4.97138947e-02 4.95189391e-02 4.91290241e-02 4.63996343e-02
      4.63996343e-02 3.54820751e-02 2.10552961e-02 1.59864295e-02
      1.38419075e-02 1.18923429e-02 2.92434660e-03 3.31425969e-03
      3.31425969e-03 3.11930315e-03 3.31425969e-03 3.11930315e-03
      3.11930315e-03 3.70417256e-03 4.48399829e-03 5.84869320e-03
      7.40834512e-03 8.38312693e-03 1.07226046e-02 1.42318206e-02
      1.87158193e-02 2.45645121e-02 3.21678147e-02 4.05509397e-02
      4.38652001e-02 4.85441536e-02 4.85441536e-02 4.95189391e-02
      4.97138947e-02 4.97138947e-02 4.95189391e-02 4.79592867e-02
      3.89912911e-02 3.39224227e-02 2.65140776e-02 1.77410375e-02
      2.53443373e-03 2.92434660e-03 3.11930315e-03 2.92434660e-03
      3.31425969e-03 3.11930315e-03 3.31425969e-03 3.31425969e-03
      3.31425969e-03 3.11930315e-03 3.31425969e-03 4.48399829e-03
      6.62851939e-03 9.55286622e-03 1.11125177e-02 1.46217337e-02
      1.65712982e-02 2.26149485e-02 2.90485099e-02 3.84064205e-02
      4.30853739e-02 4.60097231e-02 4.91290241e-02 4.95189391e-02
      4.97138947e-02 4.95189391e-02 4.85441536e-02 4.79592867e-02
      4.38652001e-02 3.21678147e-02 2.14452087e-03 2.53443373e-03
      2.72939028e-03 2.72939028e-03 3.11930315e-03 3.31425969e-03
      3.50921601e-03 3.31425969e-03 3.31425969e-03 2.92434660e-03
      2.53443373e-03 2.92434660e-03 3.70417256e-03 4.67895484e-03
      5.06886747e-03 6.23860629e-03 7.99321476e-03 1.15024308e-02
      1.85208619e-02 2.18351223e-02 2.96333805e-02 3.29476409e-02
      4.19156365e-02 4.54248525e-02 4.85441536e-02 4.91290241e-02
      4.95189391e-02 4.97138947e-02 4.91290241e-02 4.58147638e-02
      2.33947742e-03 2.33947742e-03 2.33947742e-03 2.53443373e-03
      2.72939028e-03 2.92434660e-03 2.92434660e-03 3.11930315e-03
      3.31425969e-03 3.11930315e-03 2.72939028e-03 2.72939028e-03
      2.92434660e-03 2.92434660e-03 3.11930315e-03 3.50921601e-03
      4.67895484e-03 7.01843202e-03 1.11125177e-02 1.20872995e-02
      1.38419075e-02 1.91057324e-02 2.63191201e-02 3.41173783e-02
      3.97711135e-02 4.81542423e-02 4.75693718e-02 4.95189391e-02
      4.97138947e-02 4.95189391e-02 2.14452087e-03 2.33947742e-03
      2.14452087e-03 2.14452087e-03 2.14452087e-03 2.53443373e-03
      2.53443373e-03 2.72939028e-03 3.31425969e-03 3.31425969e-03
      3.31425969e-03 3.50921601e-03 3.31425969e-03 2.92434660e-03
      2.53443373e-03 2.72939028e-03 2.53443373e-03 2.92434660e-03
      4.09408519e-03 5.06886747e-03 6.23860629e-03 1.18923429e-02
      1.54015590e-02 2.04704273e-02 2.20300779e-02 3.29476409e-02
      3.78215499e-02 4.46450263e-02 4.89340685e-02 4.97138947e-02</_>
    <_>
      1.54740480e-03 1.54740480e-03 1.74083037e-03 1.74083037e-03
      1.74083037e-03 1.74083037e-03 1.74083037e-03 1.74083037e-03
      1.93425594e-03 2.32110731e-03 2.12768163e-03 1.93425594e-03
      1.54740480e-03 1.93425594e-03 3.48166074e-03 8.12387560e-03
      2.03096885e-02 3.15283723e-02 3.75245661e-02 4.44878861e-02
      4.60352935e-02 4.54550162e-02 3.96522470e-02 3.75245661e-02
      3.65574397e-02 2.99809687e-02 1.47003457e-02 3.48166074e-03
      1.54740480e-03 2.12768163e-03 1.54740480e-03 1.54740480e-03
      1.54740480e-03 1.54740480e-03 1.54740480e-03 1.54740480e-03
      1.74083037e-03 1.74083037e-03 1.93425594e-03 2.32110731e-03
      2.32110731e-03 1.93425594e-03 2.51453277e-03 4.25536325e-03
      8.70415196e-03 1.76017303e-02 2.92072650e-02 3.75245661e-02
      4.21667807e-02 4.52615917e-02 4.62287180e-02 4.35207598e-02
      3.57837342e-02 3.09480950e-02 2.64993068e-02 1.66346021e-02
      8.70415196e-03 3.09480960e-03 1.93425594e-03 2.32110731e-03
      1.74083037e-03 1.74083037e-03 1.74083037e-03 1.74083037e-03
      1.74083037e-03 1.93425594e-03 1.93425594e-03 2.12768163e-03
      2.12768163e-03 2.32110731e-03 2.51453277e-03 2.70795845e-03
      4.25536325e-03 7.35017285e-03 1.76017303e-02 2.95941159e-02
      3.75245661e-02 4.41010371e-02 4.52615917e-02 4.66155708e-02
      4.64221425e-02 4.37141843e-02 3.11415214e-02 2.14702412e-02
      1.60543248e-02 8.12387560e-03 4.25536325e-03 2.70795845e-03
      2.32110731e-03 2.51453277e-03 1.54740480e-03 1.74083037e-03
      1.93425594e-03 1.93425594e-03 2.12768163e-03 2.12768163e-03
      2.32110731e-03 2.12768163e-03 2.51453277e-03 2.51453277e-03
      3.86851188e-03 5.22249099e-03 9.28442925e-03 1.66346021e-02
      2.76598614e-02 3.67508642e-02 4.33273353e-02 4.58418690e-02
      4.62287180e-02 4.64221425e-02 4.52615917e-02 3.94588225e-02
      2.74664350e-02 1.50871966e-02 8.89757741e-03 5.02906553e-03
      3.09480960e-03 2.51453277e-03 2.51453277e-03 2.32110731e-03
      1.74083037e-03 1.93425594e-03 1.93425594e-03 1.93425594e-03
      2.12768163e-03 2.51453277e-03 2.51453277e-03 2.51453277e-03
      2.70795845e-03 3.09480960e-03 5.60934236e-03 8.70415196e-03
      1.76017303e-02 2.95941159e-02 3.75245661e-02 4.35207598e-02
      4.60352935e-02 4.66155708e-02 4.58418690e-02 4.44878861e-02
      4.04259488e-02 3.38494815e-02 2.03096885e-02 9.86470561e-03
      5.60934236e-03 3.48166074e-03 2.51453277e-03 2.70795845e-03
      2.51453277e-03 2.32110731e-03 1.54740480e-03 1.93425594e-03
      2.12768163e-03 2.12768163e-03 2.12768163e-03 2.51453277e-03
      2.70795845e-03 2.51453277e-03 3.09480960e-03 3.67508642e-03
      8.31730105e-03 1.74083039e-02 2.86269896e-02 3.77179906e-02
      4.39076126e-02 4.64221425e-02 4.68089953e-02 4.66155708e-02
      4.41010371e-02 3.92653979e-02 3.26889269e-02 2.08899640e-02
      1.21858129e-02 6.96332147e-03 3.86851188e-03 3.28823528e-03
      2.90138391e-03 2.70795845e-03 2.70795845e-03 2.32110731e-03
      1.74083037e-03 2.12768163e-03 2.51453277e-03 2.51453277e-03
      2.32110731e-03 2.51453277e-03 2.70795845e-03 3.09480960e-03
      4.64221463e-03 6.38304465e-03 1.48937711e-02 2.88204141e-02
      3.81048433e-02 4.42944616e-02 4.68089953e-02 4.70024198e-02
      4.70024198e-02 4.60352935e-02 4.13930789e-02 3.26889269e-02
      2.24373695e-02 1.27660893e-02 8.12387560e-03 4.64221463e-03
      2.90138391e-03 3.48166074e-03 3.48166074e-03 3.09480960e-03
      2.70795845e-03 2.51453277e-03 1.93425594e-03 2.32110731e-03
      2.70795845e-03 2.70795845e-03 2.70795845e-03 2.51453277e-03
      2.90138391e-03 3.48166074e-03 7.35017285e-03 1.62477512e-02
      2.70795841e-02 3.69442888e-02 4.42944616e-02 4.70024198e-02
      4.73892726e-02 4.73892726e-02 4.71958481e-02 4.62287180e-02
      3.92653979e-02 2.49519031e-02 1.83754321e-02 9.28442925e-03
      4.44878871e-03 3.48166074e-03 3.09480960e-03 3.67508642e-03
      3.48166074e-03 3.28823528e-03 2.90138391e-03 2.70795845e-03
      1.93425594e-03 2.32110731e-03 2.70795845e-03 2.70795845e-03
      2.70795845e-03 2.70795845e-03 4.25536325e-03 6.57647057e-03
      1.47003457e-02 2.72730105e-02 3.69442888e-02 4.41010371e-02
      4.70024198e-02 4.73892726e-02 4.75826971e-02 4.79695499e-02
      4.77761216e-02 4.66155708e-02 4.00390998e-02 2.80467123e-02
      2.30176467e-02 1.25726638e-02 5.99619374e-03 4.83564008e-03
      3.67508642e-03 3.67508642e-03 3.48166074e-03 3.48166074e-03
      3.09480960e-03 2.70795845e-03 1.93425594e-03 2.51453277e-03
      2.90138391e-03 2.70795845e-03 2.70795845e-03 2.90138391e-03
      6.38304465e-03 1.66346021e-02 2.90138405e-02 3.67508642e-02
      4.42944616e-02 4.70024198e-02 4.73892726e-02 4.77761216e-02
      4.81629744e-02 4.83563989e-02 4.83563989e-02 4.73892726e-02
      4.46813144e-02 4.17799279e-02 3.26889269e-02 2.37913486e-02
      1.52806221e-02 7.73702376e-03 4.64221463e-03 3.86851188e-03
      3.48166074e-03 3.48166074e-03 3.28823528e-03 2.90138391e-03
      2.12768163e-03 2.70795845e-03 2.90138391e-03 2.70795845e-03
      3.28823528e-03 5.80276782e-03 1.29595147e-02 2.72730105e-02
      3.84916961e-02 4.48747389e-02 4.73892726e-02 4.73892726e-02
      4.75826971e-02 4.79695499e-02 4.85498272e-02 4.89366762e-02
      4.91301008e-02 4.89366762e-02 4.81629744e-02 4.79695499e-02
      4.39076126e-02 3.38494815e-02 2.32110713e-02 1.39266429e-02
      8.12387560e-03 4.83564008e-03 3.67508642e-03 3.86851188e-03
      3.48166074e-03 2.90138391e-03 2.12768163e-03 2.90138391e-03
      3.28823528e-03 2.90138391e-03 4.83564008e-03 1.14121102e-02
      2.16636676e-02 3.48166078e-02 4.48747389e-02 4.73892726e-02
      4.77761216e-02 4.79695499e-02 4.81629744e-02 4.85498272e-02
      4.89366762e-02 4.91301008e-02 4.93235290e-02 4.93235290e-02
      4.91301008e-02 4.87432517e-02 4.77761216e-02 4.35207598e-02
      3.28823514e-02 2.41781995e-02 1.52806221e-02 6.76989602e-03
      3.86851188e-03 3.86851188e-03 3.28823528e-03 2.90138391e-03
      2.70795845e-03 3.09480960e-03 3.48166074e-03 4.25536325e-03
      7.54359830e-03 1.43134948e-02 2.78532859e-02 4.27470580e-02
      4.75826971e-02 4.79695499e-02 4.81629744e-02 4.83563989e-02
      4.87432517e-02 4.91301008e-02 4.93235290e-02 4.93235290e-02
      4.93235290e-02 4.93235290e-02 4.93235290e-02 4.93235290e-02
      4.87432517e-02 4.77761216e-02 4.29404825e-02 3.23020741e-02
      2.05031130e-02 9.09100287e-03 4.64221463e-03 3.67508642e-03
      3.48166074e-03 3.28823528e-03 3.09480960e-03 3.09480960e-03
      3.67508642e-03 6.18961919e-03 1.10252593e-02 2.39847749e-02
      4.08128016e-02 4.70024198e-02 4.83563989e-02 4.83563989e-02
      4.81629744e-02 4.85498272e-02 4.87432517e-02 4.91301008e-02
      4.93235290e-02 4.93235290e-02 4.93235290e-02 4.93235290e-02
      4.93235290e-02 4.93235290e-02 4.89366762e-02 4.85498272e-02
      4.60352935e-02 3.82982679e-02 2.14702412e-02 1.00581311e-02
      5.60934236e-03 3.86851188e-03 3.67508642e-03 3.67508642e-03
      2.90138391e-03 3.09480960e-03 4.25536325e-03 8.89757741e-03
      1.95359848e-02 3.84916961e-02 4.71958481e-02 4.81629744e-02
      4.89366762e-02 4.85498272e-02 4.81629744e-02 4.83563989e-02
      4.87432517e-02 4.91301008e-02 4.93235290e-02 4.93235290e-02
      4.93235290e-02 4.93235290e-02 4.93235290e-02 4.93235290e-02
      4.93235290e-02 4.89366762e-02 4.46813144e-02 3.15283723e-02
      1.89557094e-02 1.27660893e-02 8.70415196e-03 5.41591691e-03
      4.25536325e-03 3.48166074e-03 2.70795845e-03 3.09480960e-03
      5.22249099e-03 1.66346021e-02 3.63640115e-02 4.66155708e-02
      4.77761216e-02 4.85498272e-02 4.89366762e-02 4.81629744e-02
      4.73892726e-02 4.81629744e-02 4.87432517e-02 4.91301008e-02
      4.93235290e-02 4.93235290e-02 4.93235290e-02 4.93235290e-02
      4.93235290e-02 4.93235290e-02 4.91301008e-02 4.81629744e-02
      4.19733562e-02 3.01743932e-02 1.93425603e-02 1.50871966e-02
      1.23792384e-02 7.93044921e-03 5.60934236e-03 3.28823528e-03
      2.12768163e-03 6.96332147e-03 1.31529411e-02 2.47584768e-02
      3.90719697e-02 4.62287180e-02 4.83563989e-02 4.87432517e-02
      4.87432517e-02 4.75826971e-02 4.58418690e-02 4.75826971e-02
      4.89366762e-02 4.91301008e-02 4.93235290e-02 4.93235290e-02
      4.93235290e-02 4.93235290e-02 4.93235290e-02 4.93235290e-02
      4.89366762e-02 4.83563989e-02 4.33273353e-02 2.78532859e-02
      1.76017303e-02 1.62477512e-02 1.50871966e-02 1.31529411e-02
      1.08318338e-02 9.09100287e-03 3.48166074e-03 1.23792384e-02
      2.20505185e-02 2.86269896e-02 4.13930789e-02 4.73892726e-02
      4.83563989e-02 4.85498272e-02 4.81629744e-02 4.52615917e-02
      4.11996543e-02 4.23602052e-02 4.83563989e-02 4.91301008e-02
      4.93235290e-02 4.93235290e-02 4.93235290e-02 4.93235290e-02
      4.93235290e-02 4.93235290e-02 4.89366762e-02 4.79695499e-02
      4.21667807e-02 3.15283723e-02 2.30176467e-02 2.22439431e-02
      2.22439431e-02 2.35979240e-02 1.81820057e-02 1.47003457e-02
      1.31529411e-02 2.22439431e-02 2.92072650e-02 3.55903096e-02
      4.35207598e-02 4.71958481e-02 4.83563989e-02 4.81629744e-02
      4.66155708e-02 4.08128016e-02 3.05612441e-02 3.46231833e-02
      4.68089953e-02 4.91301008e-02 4.93235290e-02 4.93235290e-02
      4.93235290e-02 4.93235290e-02 4.91301008e-02 4.89366762e-02
      4.83563989e-02 4.77761216e-02 4.50681634e-02 3.75245661e-02
      3.32692042e-02 3.55903096e-02 3.67508642e-02 3.77179906e-02
      3.32692042e-02 2.18570922e-02 2.47584768e-02 3.30757760e-02
      3.79114188e-02 4.00390998e-02 4.48747389e-02 4.75826971e-02
      4.79695499e-02 4.71958481e-02 4.21667807e-02 2.76598614e-02
      2.03096885e-02 3.34626287e-02 4.77761216e-02 4.91301008e-02
      4.93235290e-02 4.93235290e-02 4.93235290e-02 4.93235290e-02
      4.85498272e-02 4.64221425e-02 4.58418690e-02 4.44878861e-02
      4.46813144e-02 4.52615917e-02 4.50681634e-02 4.60352935e-02
      4.70024198e-02 4.62287180e-02 4.66155708e-02 3.90719697e-02
      3.17217968e-02 4.13930789e-02 4.41010371e-02 4.29404825e-02
      4.56484407e-02 4.71958481e-02 4.73892726e-02 4.25536335e-02
      2.82401368e-02 1.70214530e-02 1.91491339e-02 3.13349478e-02
      4.66155708e-02 4.91301008e-02 4.93235290e-02 4.93235290e-02
      4.91301008e-02 4.89366762e-02 4.56484407e-02 3.92653979e-02
