<?xml version="1.0"?>
<opencv_storage>
<opencv_ml_ann_mlp>
  <format>3</format>
  <layer_sizes>
    900 16 32 64 128 64 32 16 1</layer_sizes>
  <activation_function>SIGMOID_SYM</activation_function>
  <f_param1>6.6666666666666663e-01</f_param1>
  <f_param2>1.7159000000000000e+00</f_param2>
  <min_val>-9.4999999999999996e-01</min_val>
  <max_val>9.4999999999999996e-01</max_val>
  <min_val1>-9.7999999999999998e-01</min_val1>
  <max_val1>9.7999999999999998e-01</max_val1>
  <training_params>
    <train_method>RPROP</train_method>
    <dw0>1.0000000000000001e-01</dw0>
    <dw_plus>1.2000000000000000e+00</dw_plus>
    <dw_minus>5.0000000000000000e-01</dw_minus>
    <dw_min>1.1920928955078125e-07</dw_min>
    <dw_max>50.</dw_max>
    <term_criteria>
      <iterations>10000</iterations></term_criteria></training_params>
  <input_scale>
    1.2858342793047152e+01 -1.3005102061737388e+00
    1.2339547835334267e+01 -1.2712948514690132e+00
    1.1584150731272453e+01 -1.2308626505825133e+00
    1.0954941600913159e+01 -1.2003948819607513e+00
    1.0172779984070427e+01 -1.1638113228336222e+00
    9.3261933338733609e+00 -1.1203714429270830e+00
    9.6206743956781597e+00 -1.1377848569056299e+00
    8.9392075296249676e+00 -1.1072635921456162e+00
    8.4781064713729926e+00 -1.0852075809600146e+00
    8.2211949913996616e+00 -1.0658922726099411e+00
    8.6017435123540800e+00 -1.0901835421449428e+00
    9.3592077627666512e+00 -1.1302811810583457e+00
    9.3374338556220025e+00 -1.1200548760577012e+00
    8.9726078708968693e+00 -1.1075407260142303e+00
    8.0097028919193836e+00 -1.0504032925610667e+00
    9.4114660145992382e+00 -1.1195430838955505e+00
    8.9021991803932625e+00 -1.0899137080260848e+00
    8.7987515498564548e+00 -1.0775059109787495e+00
    9.0266900272896056e+00 -1.0853690319547702e+00
    9.4373625568573054e+00 -1.0993685379072382e+00
    8.0837585191946904e+00 -1.0168928457625535e+00
    8.1285070469019907e+00 -1.0075590439228275e+00
    8.3584786304958563e+00 -1.0031642336866071e+00
    8.5636106412322697e+00 -1.0190120542169323e+00
    8.8652549256771795e+00 -1.0225787791782337e+00
    9.6918182179011136e+00 -1.0380485118163087e+00
    1.0566237694862515e+01 -1.0671374719814468e+00
    1.0997360603689279e+01 -1.0688392011557966e+00
    1.1592040625856859e+01 -1.0781921106402297e+00
    1.3328227865126701e+01 -1.1271070637361569e+00
    1.2139946589105167e+01 -1.2719765187871899e+00
    1.1419254928048018e+01 -1.2284471788610938e+00
    1.0906461383616648e+01 -1.2120950490422697e+00
    1.0108150219375208e+01 -1.1650848969980032e+00
    8.7859297629741064e+00 -1.0992826028130194e+00
    8.9634283864444786e+00 -1.1118376437997834e+00
    9.0923163534568143e+00 -1.1312044595432527e+00
    8.1974488779554502e+00 -1.0782392417094238e+00
    8.1308562009262584e+00 -1.0873265526759368e+00
    7.2962441139926364e+00 -1.0322146428976242e+00
    7.6672707904495745e+00 -1.0591021042039406e+00
    7.9471951246862584e+00 -1.0768368242342317e+00
    9.5025758951396231e+00 -1.1647260655496210e+00
    9.0941489060733609e+00 -1.1477470971228214e+00
    9.3475491894740053e+00 -1.1675272580991121e+00
    9.6327465417287819e+00 -1.1831336050089332e+00
    8.7892067389487316e+00 -1.1367065707794042e+00
    8.9640552032240688e+00 -1.1539417848932605e+00
    8.9958866528845061e+00 -1.1561175826578034e+00
    7.9188293879181701e+00 -1.0808263790386547e+00
    7.3863778428806963e+00 -1.0330337087417543e+00
    7.2563219575503011e+00 -1.0014658887144237e+00
    7.0382773635323748e+00 -9.7668716456595939e-01
    8.4603317972773109e+00 -1.0321753647610390e+00
    9.1470760162241973e+00 -1.0411658962206927e+00
    9.6381618175030894e+00 -1.0464330662803176e+00
    9.5638529669974677e+00 -1.0338589829814162e+00
    9.2733705587457269e+00 -9.9925524458392767e-01
    9.8235097998799343e+00 -1.0065288665934329e+00
    1.1442126889704763e+01 -1.0672621562890294e+00
    1.1723105529860572e+01 -1.2515967819374629e+00
    1.1294131009837637e+01 -1.2301249060818475e+00
    1.0682620902432159e+01 -1.2066328467577268e+00
    1.0049820267323410e+01 -1.1848906117199842e+00
    8.2355332422794056e+00 -1.0894668358389517e+00
    8.2137940616201597e+00 -1.0959417834756224e+00
    8.8560395041767848e+00 -1.1584643370627634e+00
    8.3291972574570927e+00 -1.1457826371900066e+00
    7.4435509591156395e+00 -1.0924832659904913e+00
    7.0778681742228127e+00 -1.0716642444489273e+00
    7.0945386792849892e+00 -1.0764306837901416e+00
    7.2942550152714185e+00 -1.0876914937007196e+00
    8.5605907301711124e+00 -1.1911422218525667e+00
    8.7157527637956935e+00 -1.1982693726844218e+00
    8.2408822057055886e+00 -1.1800596318287639e+00
    9.0334718250145531e+00 -1.2542699694533788e+00
    8.0120776609872237e+00 -1.2012723758259582e+00
    8.0271543332401958e+00 -1.1932669390618262e+00
    7.7827742718306467e+00 -1.1838608916295799e+00
    7.3838638782177615e+00 -1.1426297273763855e+00
    7.3700651522955329e+00 -1.1275099885608084e+00
    7.2136972752250550e+00 -1.0776634811875470e+00
    6.8975407317591522e+00 -1.0330162506677623e+00
    7.7704659098946225e+00 -1.0253058386779026e+00
    8.6182380354941710e+00 -1.0261428901910683e+00
    9.0746721675973596e+00 -1.0457517650009369e+00
    9.6799031206704811e+00 -1.0520981448587361e+00
    9.0321300601554544e+00 -1.0048740674137142e+00
    9.6734581620114906e+00 -1.0280986857114773e+00
    1.0943713454034487e+01 -1.0666037508259461e+00
    1.1005017339177710e+01 -1.2151574772164306e+00
    1.1129324008670812e+01 -1.2210011828923517e+00
    1.0563984939274736e+01 -1.2077321644359900e+00
    9.0321893772543582e+00 -1.1409846800678118e+00
    8.0764391151265063e+00 -1.1100672259096631e+00
    8.2436218166296360e+00 -1.1547584623323517e+00
    7.9902011986635673e+00 -1.1711245373264620e+00
    7.6153547283786516e+00 -1.1930945495562284e+00
    7.2267830726780486e+00 -1.1645759149055110e+00
    6.8045102696678708e+00 -1.1552533214033396e+00
    7.1435888127240670e+00 -1.1894483237062816e+00
    7.3830492923717026e+00 -1.2239181575953009e+00
    7.3630694547463795e+00 -1.2277385214157504e+00
    7.6246240289041260e+00 -1.2507105940419865e+00
    7.7167974062426890e+00 -1.2734183912200001e+00
    7.8852103422453297e+00 -1.3178247461525043e+00
    7.6514704652937722e+00 -1.3177458042771888e+00
    7.3102092009267201e+00 -1.2643217739974628e+00
    7.3012965775513159e+00 -1.2947248159304834e+00
    7.2926933647511660e+00 -1.2881410791520231e+00
    7.5555174041811011e+00 -1.2904744325416850e+00
    7.6099621470707763e+00 -1.2501317313273375e+00
    7.5694887436962652e+00 -1.1925766289018378e+00
    7.9193094241353545e+00 -1.1120407184565073e+00
    8.5971834240543252e+00 -1.0900081605389054e+00
    8.5275756355405630e+00 -1.0417019180421119e+00
    8.8936214631393238e+00 -1.0305357337874645e+00
    9.0071211302488887e+00 -1.0123983428584014e+00
    9.8520993168833311e+00 -1.0444897995460376e+00
    1.0372074466881037e+01 -1.0571806434183115e+00
    1.0615829726723955e+01 -1.1884323675341073e+00
    1.0703490659144075e+01 -1.2046673975710724e+00
    1.0467596805458264e+01 -1.2182175366070720e+00
    9.2109813589403089e+00 -1.1909311304321237e+00
    8.2419515269625538e+00 -1.1894508742718140e+00
    8.0284645352113948e+00 -1.2353309538553301e+00
    7.9850793237068007e+00 -1.2926154091954991e+00
    7.7434652552789291e+00 -1.3389600745971497e+00
    7.3962623937167065e+00 -1.3502454256315488e+00
    6.8147293812646543e+00 -1.3206654702077329e+00
    6.6637981286690380e+00 -1.3229697052262641e+00
    7.1018477933052360e+00 -1.3871361889945355e+00
    7.4212417607152412e+00 -1.4175506064428647e+00
    7.2888803527724289e+00 -1.4078823691208189e+00
    7.3268673250825627e+00 -1.4290715245582930e+00
    7.5745566801537088e+00 -1.4790003972467731e+00
    7.3310845052711224e+00 -1.4612608900904249e+00
    6.8385457093432578e+00 -1.3982494578207982e+00
    6.7564507522303368e+00 -1.4105895435237099e+00
    7.1365656796322687e+00 -1.4711517613354603e+00
    7.8181737754535172e+00 -1.5161811868452995e+00
    7.9266539823608513e+00 -1.4720332542212691e+00
    7.7867738765297725e+00 -1.3569769719336040e+00
    7.7650537874740655e+00 -1.2278420527090554e+00
    7.7884982145280421e+00 -1.1239416307672301e+00
    8.5190281278267168e+00 -1.0851103041930421e+00
    9.5791007135263122e+00 -1.0976018256861673e+00
    8.7105854941942908e+00 -1.0163624676996696e+00
    9.3719701111595128e+00 -1.0321509884408102e+00
    1.0682702031642121e+01 -1.0867469154370637e+00
    1.0677116590627554e+01 -1.1871066460972846e+00
    1.0165260143079019e+01 -1.1875534891973578e+00
    9.7587875339831012e+00 -1.2123801630315012e+00
    9.9370498629531721e+00 -1.2962077794244571e+00
    8.9637451648164284e+00 -1.3350917718983815e+00
    8.4626649600538162e+00 -1.4090077581795535e+00
    7.7894115985872538e+00 -1.4402091318251313e+00
    7.8271484468893311e+00 -1.5334751751771400e+00
    7.3653866175643046e+00 -1.5626389101271458e+00
    6.8653826416988792e+00 -1.5404014254579339e+00
    6.4554096262026910e+00 -1.5128367015435575e+00
    6.3638106115396180e+00 -1.5193621357956282e+00
    5.9375519026955432e+00 -1.4698959971955092e+00
    5.9816955249729569e+00 -1.4812968043603532e+00
    5.8407672065398524e+00 -1.4712682535553654e+00
    6.1150926370294254e+00 -1.5064030728292086e+00
    6.2551395326156927e+00 -1.5322986964519278e+00
    6.0227933020029889e+00 -1.5082893936260109e+00
    6.2917175960737222e+00 -1.5619921502179979e+00
    6.6306067086027971e+00 -1.6087129276855088e+00
    7.6450187292273508e+00 -1.7356676383280036e+00
    8.0537004935114034e+00 -1.7122540095435641e+00
    8.1902652437827381e+00 -1.5991031736468513e+00
    8.8030026001230581e+00 -1.5137712586018246e+00
    8.2816068834681964e+00 -1.2876844682357238e+00
    9.0944364961552253e+00 -1.2028769947546889e+00
    9.4094025123561789e+00 -1.1291558757351270e+00
    9.1790163063255399e+00 -1.0728731186335958e+00
    1.0621949362694485e+01 -1.1169056267640369e+00
    1.0355366317416802e+01 -1.0944201324834963e+00
    1.0038474232389481e+01 -1.1619012567230316e+00
    9.8333100243817348e+00 -1.1851196295548376e+00
    9.4699199885993419e+00 -1.2319210650857746e+00
    8.6443289570190540e+00 -1.2754243639136851e+00
    8.9223967234413362e+00 -1.4160682300481600e+00
    7.8319540721533434e+00 -1.4625607352865535e+00
    7.9575011874737829e+00 -1.6334186347597621e+00
    8.1574605586906266e+00 -1.8055991510269083e+00
    7.4107889152026676e+00 -1.8136371799494124e+00
    6.5783811120244300e+00 -1.7414324655998605e+00
    5.9772670319673376e+00 -1.6654832097514374e+00
    5.4789918634877761e+00 -1.5803292163555640e+00
    4.5579817300675618e+00 -1.4317558942038109e+00
    4.0509850869954835e+00 -1.3430136373219423e+00
    3.6658219125075866e+00 -1.2784138582408551e+00
    3.3982719285113419e+00 -1.2288975075125725e+00
    3.5989201359829823e+00 -1.2466567056277729e+00
    3.8401493089183893e+00 -1.2921984812148950e+00
    5.1074160222682323e+00 -1.5213284310684749e+00
    6.1656336937993723e+00 -1.7315561152906249e+00
    7.0002648130668490e+00 -1.8782302854379531e+00
    7.3665498803244516e+00 -1.8541414500019675e+00
    7.6543348942582972e+00 -1.7617963083635408e+00
    8.2322378291891400e+00 -1.6713346527074164e+00
    8.4087483248118122e+00 -1.4640376711341236e+00
    8.2686149243180260e+00 -1.2529480607088956e+00
    8.6348752693739872e+00 -1.1459341500608997e+00
    9.2882105987640724e+00 -1.1153735963918183e+00
    9.2039554215024193e+00 -1.0815523388302515e+00
    1.0108309338718097e+01 -1.1067667298506643e+00
    8.3120245160424560e+00 -1.0976883825277450e+00
    8.2473373510886638e+00 -1.1300083592944949e+00
    8.9472845847422953e+00 -1.2252307762701844e+00
    9.0073838757738063e+00 -1.3379801030755196e+00
    8.5625741743243786e+00 -1.4570910663763585e+00
    7.8231614771624072e+00 -1.5706307779501041e+00
    7.9291666725766614e+00 -1.7865106789990752e+00
    7.6678655779010123e+00 -1.9513674782962245e+00
    7.1878182786940314e+00 -2.0013562108382632e+00
    6.1709468438965995e+00 -1.8913040581562364e+00
    4.9254841526432571e+00 -1.6737277211423336e+00
    3.5260909603246509e+00 -1.4079597928838090e+00
    3.1090096225482315e+00 -1.2975315879461042e+00
    2.9955189762981140e+00 -1.2295566812701209e+00
    2.8391426735812764e+00 -1.1776916914527045e+00
    2.7683459534255626e+00 -1.1536638397044472e+00
    2.7386896447779638e+00 -1.1607491822813929e+00
    2.8234555933453871e+00 -1.2036497987331258e+00
    3.3856790743199348e+00 -1.3268057473108705e+00
    4.4274199792055562e+00 -1.5585114845346277e+00
    5.7709934334529720e+00 -1.8288324220762595e+00
    6.6333645657807665e+00 -1.9392060298482694e+00
    7.4552451102091783e+00 -1.9786836091014803e+00
    8.0104995413089277e+00 -1.8738755448802698e+00
    8.3242408454127688e+00 -1.6482094751137624e+00
    8.1958271957589677e+00 -1.3861669862941324e+00
    8.3351058962962679e+00 -1.2098710153049916e+00
    8.4866983317980242e+00 -1.1337205973116906e+00
    8.9706475969984023e+00 -1.1228930345395964e+00
    9.6645648055385625e+00 -1.1277871526701322e+00
    7.7442663477988685e+00 -1.0634144982522047e+00
    8.1542560167774631e+00 -1.1061342909673710e+00
    8.3985214796137289e+00 -1.1899011938634831e+00
    8.1313815186758678e+00 -1.2951432655199031e+00
    8.0838222023139217e+00 -1.4579979335001287e+00
    7.7011271471013991e+00 -1.6214287460676602e+00
    7.6763100963136370e+00 -1.8444261792774945e+00
    7.2849251604908032e+00 -2.0126391551490146e+00
    5.9084692334225606e+00 -1.9201747333539507e+00
    4.2698905233319753e+00 -1.6541483895517217e+00
    3.2829522413707997e+00 -1.4702284397606806e+00
    3.0339694141332543e+00 -1.3901742149553289e+00
    2.7898516315221151e+00 -1.3193214211704034e+00
    2.6958660864956423e+00 -1.2583943261978998e+00
    2.5939004281947349e+00 -1.2013850754578543e+00
    2.4892636424825603e+00 -1.1575986672255894e+00
    2.4280804539997436e+00 -1.1393289749204105e+00
    2.4954074691788968e+00 -1.1732577887374958e+00
    2.6935259938678047e+00 -1.2543459811952968e+00
    2.9558879764519568e+00 -1.3577275114885106e+00
    3.7430282831747661e+00 -1.5377526073047547e+00
    5.1917497185321198e+00 -1.7979529821616587e+00
    6.9012519201537694e+00 -2.0366267254882335e+00
    7.4880181449208649e+00 -1.9552559019266451e+00
    7.5345469973784551e+00 -1.7049862165265264e+00
    7.8856879400749058e+00 -1.4730567013581373e+00
    7.8845940655930935e+00 -1.2636348813193190e+00
    7.7427766641265583e+00 -1.1445804756965441e+00
    8.2451340181866328e+00 -1.1270763059676614e+00
    8.9575678567637382e+00 -1.1326854035218279e+00
    6.1602425038074200e+00 -1.0124648155670681e+00
    6.5769550175516525e+00 -1.0439208149598942e+00
    7.1324717250454297e+00 -1.1114716606246129e+00
    6.8287514704823025e+00 -1.2045742016103183e+00
    6.9089434649942243e+00 -1.3622770757395781e+00
    7.0631141661846293e+00 -1.5801366966935322e+00
    7.1957972252756388e+00 -1.8236513306098525e+00
    6.7926428548859556e+00 -1.9809589292855265e+00
    4.6308777478237175e+00 -1.7056050387466353e+00
    3.3655659161596807e+00 -1.5210742979373348e+00
    2.8516083190021857e+00 -1.4546373866855966e+00
    2.7215785736369718e+00 -1.4096614271000443e+00
    2.5827264460485306e+00 -1.3372960019888815e+00
    2.4944594331182368e+00 -1.2679402333210756e+00
    2.4313755647232616e+00 -1.2060747133289815e+00
    2.3823679853357618e+00 -1.1571810495627286e+00
    2.3603555151351983e+00 -1.1352916356349882e+00
    2.3917326200921716e+00 -1.1636895708278319e+00
    2.5026340292285867e+00 -1.2451794534910496e+00
    2.6536442063960526e+00 -1.3391467625388425e+00
    2.9765001468430370e+00 -1.4379797370377623e+00
    3.6925740877301285e+00 -1.5719970210367518e+00
    5.3064138810649180e+00 -1.8360316943878623e+00
    6.7075039979420978e+00 -1.9408379983689155e+00
    6.8474207621519874e+00 -1.7136186759667069e+00
    6.8769389886406689e+00 -1.4603181212105958e+00
    6.6516373125504691e+00 -1.2301928025284614e+00
    6.9246026735951620e+00 -1.1369966874377639e+00
    7.5501724802841670e+00 -1.1215884354269725e+00
    7.9825788918985729e+00 -1.1176545313484139e+00
    6.1524915808441447e+00 -9.9282526943062221e-01
    6.3061891409460493e+00 -1.0194544663670131e+00
    5.9985532959826067e+00 -1.0545305937930034e+00
    6.1321701408103575e+00 -1.1342451178675832e+00
    6.2149150297017846e+00 -1.2731754762535763e+00
    6.4375589466092844e+00 -1.4858572048989056e+00
    6.6653314003259068e+00 -1.7488448819974720e+00
    5.2520763441708151e+00 -1.7164160903783674e+00
    3.4155462300058956e+00 -1.4822791214244957e+00
    2.8189050895246437e+00 -1.4613016096921685e+00
    2.6861053917358610e+00 -1.4507799253102103e+00
    2.6497338957807686e+00 -1.4307787732380819e+00
    2.5931791643481223e+00 -1.3726015351788925e+00
    2.5244088168362637e+00 -1.3024013946387454e+00
    2.4585436139977022e+00 -1.2360567324348606e+00
    2.4107235015640165e+00 -1.1882461160219493e+00
    2.3874818937669597e+00 -1.1650799931385143e+00
    2.4126809823800377e+00 -1.1901641688883600e+00
    2.4870103082240491e+00 -1.2658642344975670e+00
    2.5728207082241945e+00 -1.3477454439765373e+00
    2.6514656668651537e+00 -1.4003494566027119e+00
    2.9155400785359884e+00 -1.4447495372969716e+00
    3.8844779701894248e+00 -1.5893506293067425e+00
    5.4554667106286541e+00 -1.7752379934166316e+00
    6.5256827938344788e+00 -1.7280550678924578e+00
    6.4828180858388258e+00 -1.4641455305180209e+00
    6.1456371326842572e+00 -1.2256922219736079e+00
    6.7051254989353275e+00 -1.1444238622989718e+00
    7.1493314517793083e+00 -1.1200828837374044e+00
    7.1884949876115964e+00 -1.1055598482085209e+00
    5.6470208089716065e+00 -9.7708170311517928e-01
    5.7202115026510505e+00 -9.9747968713513835e-01
    5.6470373083502787e+00 -1.0289440911503687e+00
    5.5530073119015375e+00 -1.0800006209786186e+00
    5.7043826856373911e+00 -1.1934296626022900e+00
    5.7326784931892822e+00 -1.3715815129241180e+00
    4.8356013291674653e+00 -1.4748938450445785e+00
    3.2367722007097179e+00 -1.3872557697058014e+00
    2.6641027677302551e+00 -1.3840859928015383e+00
    2.6718022883120582e+00 -1.4447045810964385e+00
    2.6937374032059456e+00 -1.4742792652444681e+00
    2.6860968954302264e+00 -1.4682817380481950e+00
    2.6414655666018070e+00 -1.4215058265117690e+00
    2.5762509798620741e+00 -1.3545259696070866e+00
    2.5048492757795908e+00 -1.2824505805893827e+00
    2.4533369721731826e+00 -1.2308040568739895e+00
    2.4341484758252454e+00 -1.2116389066756430e+00
    2.4575649214238262e+00 -1.2351978845044576e+00
    2.5222241937677938e+00 -1.3016433665183877e+00
    2.5830569268976760e+00 -1.3663668228752581e+00
    2.6127904406479088e+00 -1.3989936934449863e+00
    2.6246758942001303e+00 -1.3865847223779906e+00
    2.8777418495502358e+00 -1.3992798832249087e+00
    4.4528682813760714e+00 -1.5992925857920652e+00
    5.9206856969991009e+00 -1.6515022706860882e+00
    6.1580952556151543e+00 -1.4366185839026531e+00
    5.9378450016434883e+00 -1.2148688573060669e+00
    5.8480387456405856e+00 -1.1090222921438351e+00
    6.1513498483410221e+00 -1.0772153355004344e+00
    6.0150232458957618e+00 -1.0602952944121984e+00
    5.3234749776575994e+00 -9.5978344993932896e-01
    5.3166071347905932e+00 -9.8603848071534372e-01
    5.3085454516951041e+00 -1.0127561430263952e+00
    5.3186330395643235e+00 -1.0579674918925528e+00
    5.2661975564233625e+00 -1.1415951308480397e+00
    4.8397432703267054e+00 -1.2546507191457057e+00
    3.3429796467566577e+00 -1.2575258567424199e+00
    2.5766806728528482e+00 -1.2801736915918658e+00
    2.6141526927318162e+00 -1.3876889628211879e+00
    2.6888202010262345e+00 -1.4656391596496934e+00
    2.7168901978736888e+00 -1.4990602837411739e+00
    2.7202561868468975e+00 -1.5027087014860814e+00
    2.6934744384169038e+00 -1.4740801663081022e+00
    2.6331271365503537e+00 -1.4120327357983196e+00
    2.5598284136909841e+00 -1.3377631871083786e+00
    2.5095387195956009e+00 -1.2871796503850477e+00
    2.4936969937312510e+00 -1.2713913855615648e+00
    2.5174256366934622e+00 -1.2957116869326066e+00
    2.5657084663208249e+00 -1.3460095613611389e+00
    2.6024257375791233e+00 -1.3855232512878679e+00
    2.6075183346339066e+00 -1.3920805690030649e+00
    2.5829813234052450e+00 -1.3655179959023602e+00
    2.6332274950739767e+00 -1.3388308903638428e+00
    3.1613176129612830e+00 -1.3527886129414182e+00
    4.9064267814750453e+00 -1.4937392296798766e+00
    5.6190694601746927e+00 -1.3704642525570327e+00
    5.6967281685221076e+00 -1.1944123563279625e+00
    5.5228189343371819e+00 -1.0956257896875448e+00
    5.3424215117262825e+00 -1.0505198960002042e+00
    5.4767328293894515e+00 -1.0404189737629681e+00
    5.1376386566247172e+00 -9.4786953651964356e-01
    5.0945175782191106e+00 -9.7486137049222776e-01
    5.0264959748797766e+00 -1.0019158452201959e+00
    5.0098118017182145e+00 -1.0446857861032126e+00
    4.9224399941328993e+00 -1.1257362501005135e+00
    4.4816914648389439e+00 -1.2230414593601657e+00
    2.7017670483432563e+00 -1.1699750522834536e+00
    2.5072319070970139e+00 -1.2607847209842349e+00
    2.6074539531187635e+00 -1.3869945838426958e+00
    2.6902072282129681e+00 -1.4720559025557081e+00
    2.7264451585872380e+00 -1.5088723754597406e+00
    2.7360276606659997e+00 -1.5183792643341985e+00
    2.7219357968496887e+00 -1.5026009799613640e+00
    2.6813639266556288e+00 -1.4605861061470771e+00
    2.6223398187182720e+00 -1.4006456528820956e+00
    2.5791587871801465e+00 -1.3571492819433815e+00
    2.5688500572615331e+00 -1.3471389550084605e+00
    2.5830444861662682e+00 -1.3623310791750587e+00
    2.6076180911775757e+00 -1.3888370942055164e+00
    2.6156591150730892e+00 -1.3983480656110874e+00
    2.5990279724385892e+00 -1.3820409340578799e+00
    2.5614450387817613e+00 -1.3433681098471595e+00
    2.5572806045186129e+00 -1.3014664891294476e+00
    2.8720183291199639e+00 -1.2668988266113528e+00
    4.4179812524438633e+00 -1.3788058339123872e+00
    5.1831796320810879e+00 -1.2972814787960336e+00
    5.2322871051500677e+00 -1.1507969266775511e+00
    5.2666819709599411e+00 -1.0790301713666253e+00
    5.2207701864934641e+00 -1.0471181398496059e+00
    5.4420930168172594e+00 -1.0326280079008414e+00
    5.0711780916450238e+00 -9.4715419925136057e-01
    5.0345858091806592e+00 -9.7021493880690357e-01
    4.9709432230732578e+00 -9.9967313046788242e-01
    5.0144869756477304e+00 -1.0580024627013618e+00
    4.9235164017070021e+00 -1.1517599230371351e+00
    4.2665011681187197e+00 -1.2297812417508496e+00
    2.5903581671710749e+00 -1.1666997570692639e+00
    2.4997894220111729e+00 -1.2630850023785618e+00
    2.6020422021228344e+00 -1.3824558180131314e+00
    2.6850674055879966e+00 -1.4678054326407244e+00
    2.7221715875045187e+00 -1.5052246757407020e+00
    2.7328392477463943e+00 -1.5146503759936936e+00
    2.7206936275274125e+00 -1.5009677551321405e+00
    2.6963527089944326e+00 -1.4751424661746577e+00
    2.6586357861792416e+00 -1.4368382039906065e+00
    2.6334575319700919e+00 -1.4117860290392472e+00
    2.6332132500017837e+00 -1.4123178082562271e+00
    2.6453046026739222e+00 -1.4257239717013954e+00
    2.6501215267059353e+00 -1.4323685976272864e+00
    2.6396666599016894e+00 -1.4227857540752236e+00
    2.6086595027512649e+00 -1.3913843281410991e+00
    2.5554712817312542e+00 -1.3363536845397987e+00
    2.5308424175158359e+00 -1.2755460667545273e+00
    2.7438401278403357e+00 -1.2192543259387594e+00
    3.7932512728908150e+00 -1.2496304463718613e+00
    4.5485765930096225e+00 -1.1953026012063344e+00
    4.8234686529143858e+00 -1.1056711803733095e+00
    4.9631386940403663e+00 -1.0601101714746588e+00
    5.0160071297246036e+00 -1.0398856702612624e+00
    5.1578874077186327e+00 -1.0326492251317227e+00
    5.0545573879891466e+00 -9.5079524308997987e-01
    4.9954003827397564e+00 -9.7194674416595839e-01
    4.8576932108296269e+00 -1.0016628875459193e+00
    4.8607359899058071e+00 -1.0652224046255729e+00
    5.0755704997410209e+00 -1.1988417421252835e+00
    4.6450165980561611e+00 -1.3167405972720880e+00
    2.8129435727938801e+00 -1.2177650278394148e+00
    2.5506743593109178e+00 -1.2944168573163723e+00
    2.6104231895652221e+00 -1.3910033897351908e+00
    2.6770058337692570e+00 -1.4591914757344857e+00
    2.7013593055905192e+00 -1.4835419591988246e+00
    2.7002925555667265e+00 -1.4812412694438875e+00
    2.6876511098800755e+00 -1.4668267044326351e+00
    2.6655558338283663e+00 -1.4436282275508123e+00
    2.6501040909081413e+00 -1.4278841541200029e+00
    2.6549066280500697e+00 -1.4332300219516341e+00
    2.6768108877503232e+00 -1.4566410659147784e+00
    2.6939415514448379e+00 -1.4757628004299950e+00
    2.6907825712015878e+00 -1.4744890178944492e+00
    2.6728592108255227e+00 -1.4572910435194106e+00
    2.6405217035002280e+00 -1.4241430256746486e+00
    2.5786382775676935e+00 -1.3600751100028856e+00
    2.5405018109582724e+00 -1.2753735518128977e+00
    2.7847793733859705e+00 -1.1952139601908300e+00
    3.6732752913470375e+00 -1.1901863831204427e+00
    4.3728876815631024e+00 -1.1456275008662531e+00
    4.5550734881698549e+00 -1.0762344602610014e+00
    4.7314904836427090e+00 -1.0434757778768005e+00
    4.9722264653027830e+00 -1.0424505040296872e+00
    5.2306351752131572e+00 -1.0424072844390260e+00
    5.1491695014539181e+00 -9.5918917587850605e-01
    5.0679545931130203e+00 -9.7851421721400600e-01
    4.9657876123739602e+00 -1.0114104705255491e+00
    4.8627782146235452e+00 -1.0817796023947308e+00
    4.9753014712061665e+00 -1.2248531542957675e+00
    4.6119732096021693e+00 -1.3577854869381023e+00
    2.8257315560529999e+00 -1.2589266874125438e+00
    2.5815377822001584e+00 -1.3250080810463005e+00
    2.6215555243499971e+00 -1.4026664818327088e+00
    2.6662236670757578e+00 -1.4482268570701564e+00
    2.6795087342712351e+00 -1.4606028154464594e+00
    2.6671214284475595e+00 -1.4467084957738559e+00
    2.6441564901767278e+00 -1.4224200051246889e+00
    2.6150817526654024e+00 -1.3926668799705773e+00
    2.6073143673640327e+00 -1.3848066989546215e+00
    2.6357914921677890e+00 -1.4138163451674115e+00
    2.6838475981991836e+00 -1.4639026071504913e+00
    2.7126146817934229e+00 -1.4954231301837173e+00
    2.7154849361359568e+00 -1.5003114034159599e+00
    2.7009518457400858e+00 -1.4863772123901025e+00
    2.6721579909429742e+00 -1.4571824322131501e+00
    2.6159038373281756e+00 -1.3981803274723168e+00
    2.5929596792023522e+00 -1.3090083123287513e+00
    2.8507048235696022e+00 -1.1985474523866140e+00
    3.8584593206798097e+00 -1.1873260020747232e+00
    4.3459495935304373e+00 -1.1169357851383988e+00
    4.4331404587441021e+00 -1.0601653996184719e+00
    4.5768452852822055e+00 -1.0354493338621855e+00
    4.7810020741644070e+00 -1.0342887568776387e+00
    5.3059985462757435e+00 -1.0498951707260031e+00
    5.2505076441420000e+00 -9.6594283511037005e-01
    5.2406395613995009e+00 -9.8794569067098248e-01
    5.1606448234937670e+00 -1.0281871315340918e+00
    5.3026551478465302e+00 -1.1251498766764636e+00
    5.3068989295345981e+00 -1.2803340352083830e+00
    5.0307332665645887e+00 -1.4384776573403659e+00
    3.1560071424807643e+00 -1.3307137633559705e+00
    2.6098991225273740e+00 -1.3464849247441675e+00
    2.6268606599429369e+00 -1.4089798075771944e+00
    2.6577671134546192e+00 -1.4395733121102892e+00
    2.6554860509113167e+00 -1.4351748194050507e+00
    2.6253273889269639e+00 -1.4032555515241567e+00
    2.5882969110512017e+00 -1.3654724383958510e+00
    2.5543410966028057e+00 -1.3315540221102460e+00
    2.5497766727960416e+00 -1.3272568884867433e+00
    2.5930858592050239e+00 -1.3707611939878523e+00
    2.6615906138778227e+00 -1.4413171493243391e+00
    2.7138442114927801e+00 -1.4971016662690360e+00
    2.7294386506018617e+00 -1.5156013036415250e+00
    2.7195466634890821e+00 -1.5066065824746748e+00
    2.6984135292904390e+00 -1.4828402422138760e+00
    2.6579872825362894e+00 -1.4311982073106220e+00
    2.6562853022855060e+00 -1.3454547700562620e+00
    3.0714583246510787e+00 -1.2440530046181564e+00
    4.1534167207119710e+00 -1.2289835324530896e+00
    4.4201726054303112e+00 -1.1318850269902316e+00
    4.4983754833774912e+00 -1.0672353392158880e+00
    4.6222824058308634e+00 -1.0430910422640329e+00
    4.8853604676670184e+00 -1.0454700392794591e+00
    5.2502141764762502e+00 -1.0563271299379902e+00
    5.4117916597361475e+00 -9.7276046007824002e-01
    5.3969999012430714e+00 -9.9377770582913827e-01
    5.3560932648306370e+00 -1.0417499652026780e+00
    5.4054842603324751e+00 -1.1446433390349724e+00
    5.6983462359342667e+00 -1.3326159010121814e+00
    5.5714478509976253e+00 -1.5159327891624712e+00
    4.3913133844015970e+00 -1.5396071175182118e+00
    2.8389595353637564e+00 -1.3891958830196645e+00
    2.6361533944787352e+00 -1.3988199997221036e+00
    2.6287721121226313e+00 -1.4098127285160242e+00
    2.6070904766722465e+00 -1.3858780330864753e+00
    2.5584461023503682e+00 -1.3352587907442686e+00
    2.5122802524057932e+00 -1.2887769829858200e+00
    2.4805682109484080e+00 -1.2547740569040458e+00
    2.4864028829265608e+00 -1.2603086565341020e+00
    2.5369526476482251e+00 -1.3131495628743246e+00
    2.6154188720710962e+00 -1.3936194846042844e+00
    2.6873804424423198e+00 -1.4697698278241880e+00
    2.7265350629436482e+00 -1.5114116794179715e+00
    2.7336516700393108e+00 -1.5160926721083834e+00
    2.7134636445342561e+00 -1.4913806228396358e+00
    2.6742178695733503e+00 -1.4402819511886187e+00
    2.8406170884990418e+00 -1.3925341918946972e+00
    3.9773431754259434e+00 -1.4328911735411107e+00
    4.5442592653149925e+00 -1.3228888467901176e+00
    4.6287815765279996e+00 -1.1842339071360637e+00
    4.5836714941502112e+00 -1.0907045873549102e+00
    4.6637818608535184e+00 -1.0516234746791266e+00
    4.9694957282534222e+00 -1.0543271852970155e+00
    5.3820194393042442e+00 -1.0689380670218556e+00
    5.5652529766359287e+00 -9.7891124101921023e-01
    5.5272134486674798e+00 -1.0018377842273847e+00
    5.5400674642235597e+00 -1.0567634263031827e+00
    5.6868807909676429e+00 -1.1694470526653158e+00
    6.0279514947109050e+00 -1.3624370167565425e+00
    6.1440532339313050e+00 -1.5849392006883118e+00
    5.8916203294148222e+00 -1.7680551391130712e+00
    4.3402508334961807e+00 -1.6284514878659673e+00
    2.9582044316754867e+00 -1.4272795491593631e+00
    2.6317581637522620e+00 -1.3729274749901987e+00
    2.5522897729147722e+00 -1.3273998295777627e+00
    2.4896770959155581e+00 -1.2648681777279349e+00
    2.4344098418491198e+00 -1.2076012273818961e+00
    2.3971258273767986e+00 -1.1680393770384285e+00
    2.4095247906988448e+00 -1.1804697097759624e+00
    2.4700380561588693e+00 -1.2395080420416169e+00
    2.5604350726840495e+00 -1.3292607008005399e+00
    2.6516938829297736e+00 -1.4240768105693455e+00
    2.7108616134523702e+00 -1.4879433240636433e+00
    2.7334791690779228e+00 -1.5133971175589875e+00
    2.7525905455830499e+00 -1.5079636902554896e+00
    2.9141120985437250e+00 -1.5013945816780150e+00
    3.7686476145367336e+00 -1.5842878802261504e+00
    4.6897724351003305e+00 -1.5903366137389534e+00
    4.8672109755429673e+00 -1.4162202772657295e+00
    4.7446552095851633e+00 -1.2396644424637298e+00
    4.7915505244125027e+00 -1.1324718563146856e+00
    4.8571046173047421e+00 -1.0759830399902357e+00
    5.1386566219464829e+00 -1.0665156402069540e+00
    5.5140930760651141e+00 -1.0733843187992795e+00
    5.7002282633800210e+00 -9.8208412333442230e-01
    5.6249454558079162e+00 -1.0073212430003378e+00
    5.5755145096545382e+00 -1.0584013882856402e+00
    5.7472245089249716e+00 -1.1716803021967672e+00
    6.0216490501777784e+00 -1.3413985623375502e+00
    6.1713899019663883e+00 -1.5495661324221335e+00
    6.2995238319795348e+00 -1.7729371316330471e+00
    5.9129803138206460e+00 -1.8666467725424480e+00
    4.0915880924402410e+00 -1.5521452413448209e+00
    3.0881838016723564e+00 -1.3723574499985127e+00
    2.7190380902882083e+00 -1.2994805950884727e+00
    2.4680659639788729e+00 -1.2068170918436654e+00
    2.3747785198043045e+00 -1.1349731705145296e+00
    2.3145326515144751e+00 -1.0858050497957346e+00
    2.3240767124997790e+00 -1.0949142368005953e+00
    2.3884212032825931e+00 -1.1571296177934358e+00
    2.4836169577924831e+00 -1.2509303450039921e+00
    2.6014054709426540e+00 -1.3622929409194577e+00
    2.7044576766598740e+00 -1.4555237848460940e+00
    2.8999082397789362e+00 -1.5395568070168149e+00
    3.2908255577314640e+00 -1.6201032116380647e+00
    3.8112535402351000e+00 -1.7106249247212892e+00
    4.8895064881881698e+00 -1.8358330339414135e+00
    4.9711305066911748e+00 -1.6535519789157722e+00
    4.8803051043529839e+00 -1.4427964769385220e+00
    4.8948810787250085e+00 -1.2827253262167608e+00
    5.0295450333729859e+00 -1.1744584134003331e+00
    5.1710375690598118e+00 -1.1109029296493589e+00
    5.3942439503853263e+00 -1.0829059358514990e+00
    5.6150752005795050e+00 -1.0765267731990287e+00
    5.8239318564272020e+00 -9.8018292271339580e-01
    5.7664386463088002e+00 -1.0043762645712391e+00
    5.6140944037576688e+00 -1.0579536808984575e+00
    5.8110189450444363e+00 -1.1559965429695620e+00
    5.8863326339872550e+00 -1.2943213595680549e+00
    6.0945073832020045e+00 -1.4836924140482164e+00
    6.2480248048537170e+00 -1.6789944093590434e+00
    6.0148171882085490e+00 -1.7798543388413484e+00
    5.1599133861712527e+00 -1.6859794621693980e+00
    3.5793367955171194e+00 -1.3612793167913002e+00
    3.1483564273023488e+00 -1.2492903396773076e+00
    2.9010514784597530e+00 -1.1691314085762137e+00
    2.6439383721055698e+00 -1.0908702608528649e+00
    2.4917086189121158e+00 -1.0374462648378151e+00
    2.4191234870775569e+00 -1.0397416901065806e+00
    2.4418391096149530e+00 -1.0937681333940261e+00
    2.5440449409656964e+00 -1.1838333905002225e+00
    2.8963281149008377e+00 -1.3164349685146834e+00
    3.2055239153125008e+00 -1.4412099600340016e+00
    3.5797809087518329e+00 -1.5889010424011538e+00
    4.0197950905155864e+00 -1.7439464472954598e+00
    5.1755344040957683e+00 -2.0130815134668114e+00
    5.5611067784969386e+00 -1.9968231312985569e+00
    5.3418613096990972e+00 -1.7442420425215714e+00
    5.1006056161641231e+00 -1.4889977317465244e+00
    5.0724467111721108e+00 -1.3104192196241922e+00
    5.1722918522537844e+00 -1.1887189235749969e+00
    5.2974177419715378e+00 -1.1180853759984426e+00
    5.4672833299189003e+00 -1.0839045379773926e+00
    5.5991059873260483e+00 -1.0714988184645338e+00
    6.0938049073099130e+00 -9.5637249516813616e-01
    6.0231152272540998e+00 -9.8264738285149800e-01
    5.9398295520782050e+00 -1.0359501009790710e+00
    6.0887978742858087e+00 -1.1280046228484018e+00
    5.9864515737988029e+00 -1.2562263113491781e+00
    6.0216149468245881e+00 -1.4073696761004770e+00
    6.2639629664214871e+00 -1.5804545267439161e+00
    6.1635717420173508e+00 -1.6840242004844261e+00
    5.6121825833642704e+00 -1.6512825311391348e+00
    4.8255768032767810e+00 -1.5120141015453104e+00
    3.9344715426493582e+00 -1.3106269627398945e+00
    3.4051207985668004e+00 -1.1607306721112431e+00
    3.0301724327011628e+00 -1.0477107429635406e+00
    2.7574838011146992e+00 -9.6862168516084579e-01
    2.7844298710679038e+00 -9.6170802869449501e-01
    2.8197063784940624e+00 -9.9976210586309910e-01
    2.8911330027809536e+00 -1.0772495430170030e+00
    3.1576304325541309e+00 -1.2137702497605614e+00
    3.9414510546231214e+00 -1.4640697413368327e+00
    4.8345845855466401e+00 -1.7663990891811576e+00
    5.5646752326234683e+00 -2.0127286223941114e+00
    6.0263702439579854e+00 -2.1061433035270261e+00
    5.9775432907551824e+00 -2.0161482759877027e+00
    5.7236321746415815e+00 -1.8002222317701893e+00
    5.4838110237711044e+00 -1.5503923437870715e+00
    5.4212291896188871e+00 -1.3487390356948428e+00
    5.2570260099403905e+00 -1.1915618072031184e+00
    5.1319866496250883e+00 -1.1042257153928079e+00
    5.3015770331420944e+00 -1.0715174660681392e+00
    5.5784344514713453e+00 -1.0648328742952600e+00
    6.1244090554976216e+00 -9.2326767161952672e-01
    5.9074768047271968e+00 -9.7332468088872626e-01
    5.8163741483229501e+00 -1.0155590295956167e+00
    5.9465306205644612e+00 -1.0813914958245094e+00
    5.7850028007078205e+00 -1.1890153279465456e+00
    5.7655374996989339e+00 -1.3044592019725634e+00
    5.8977681449800681e+00 -1.4282368268441963e+00
    6.0404084531511169e+00 -1.5381563581028219e+00
    6.0967615892332923e+00 -1.5958456569575188e+00
    5.5875575658932259e+00 -1.5221965860737796e+00
    5.0764310538276938e+00 -1.3871864434098149e+00
    4.5017798665541866e+00 -1.2447810289821988e+00
    3.9712298298700270e+00 -1.1059009470510925e+00
    3.3936053116368177e+00 -9.8855515714933440e-01
    3.9041327060384186e+00 -1.0327499544478702e+00
    4.0169648885794000e+00 -1.0671936787144465e+00
    3.6719397308607591e+00 -1.0940596748864400e+00
    3.8745596609912218e+00 -1.2041750652719900e+00
    5.2514187636284220e+00 -1.5511434330517060e+00
    5.5916606909607687e+00 -1.7414006401768174e+00
    5.8369099158581950e+00 -1.8615421669920196e+00
    5.9272763172455329e+00 -1.8842217037644882e+00
    6.0500983456306265e+00 -1.8538231318180922e+00
    5.9851060213822311e+00 -1.7302859701239650e+00
    5.5283275984735658e+00 -1.5086656043512561e+00
    5.3674046534492739e+00 -1.3262217990146630e+00
    5.2081145785331762e+00 -1.1778996404105200e+00
    5.0833407572990357e+00 -1.0890875448052997e+00
    5.1418670096523273e+00 -1.0511709802715259e+00
    5.5848399413092142e+00 -1.0542223198904066e+00
    5.8865313282693990e+00 -9.3862354021668537e-01
    5.6931742020223259e+00 -9.7273806563199738e-01
    5.7165643105468451e+00 -1.0034854190532894e+00
    5.7354595455719641e+00 -1.0579464059830566e+00
    5.8222358116448500e+00 -1.1292615892190796e+00
    5.5344884886022179e+00 -1.2137164175088044e+00
    5.6665551033325325e+00 -1.3038217749597361e+00
    5.8904926740730517e+00 -1.3987205163650627e+00
    6.0937705708940184e+00 -1.4607215878554329e+00
    5.9806980258899083e+00 -1.4436638594734514e+00
    5.7941600088818683e+00 -1.3711997687548019e+00
    5.4956504179466465e+00 -1.2618605421500633e+00
    4.6316327644816129e+00 -1.1150347850091784e+00
    4.3045000297468254e+00 -1.0398069990558580e+00
    4.5548649732534452e+00 -1.0594293675293021e+00
    5.3416752060262462e+00 -1.1475456749123170e+00
    5.4605212000924892e+00 -1.2028168485949875e+00
    5.3076028751865749e+00 -1.2681241318391165e+00
    5.4095029201316054e+00 -1.3941066745445807e+00
    5.2355201968527014e+00 -1.4819725130580572e+00
    5.5701791165320085e+00 -1.6021641952719217e+00
    5.6234745682893506e+00 -1.6270883158904359e+00
    5.7176657858711266e+00 -1.6079241280074481e+00
    5.7548036854680875e+00 -1.5452414499326561e+00
    5.3881967891857094e+00 -1.3977143749706531e+00
    5.2339903808908783e+00 -1.2622234579262579e+00
    5.1151711264901349e+00 -1.1443642422318079e+00
    4.9465483925850222e+00 -1.0649917337211168e+00
    5.0218053269642802e+00 -1.0344154853973806e+00
    5.6835340424986152e+00 -1.0507302743628641e+00
    5.7024018824301024e+00 -9.2576834893592552e-01
    5.5786829257926609e+00 -9.5506988162806017e-01
    5.4220895499526778e+00 -9.9904818311269439e-01
    5.5462891468216391e+00 -1.0355345660995507e+00
    5.4256484507231280e+00 -1.0912587672519443e+00
    5.3285705103112937e+00 -1.1463678058617031e+00
    5.5851924780419049e+00 -1.2166468307764606e+00
    5.6577801199898863e+00 -1.2748632898061232e+00
    5.8005403975597805e+00 -1.3148910290024205e+00
    5.7919105240646918e+00 -1.3107142861467189e+00
    5.6320608868565909e+00 -1.2579258438303607e+00
    5.6031758189577454e+00 -1.1977054949457562e+00
    5.4745939624922277e+00 -1.1312719075385986e+00
    5.1765724215130913e+00 -1.0777784626515512e+00
    5.2529114913683070e+00 -1.0790682570544550e+00
    5.4742632229077302e+00 -1.1050738489884653e+00
    5.6235886952528098e+00 -1.1426072536722858e+00
    5.7106136904198923e+00 -1.1986439603834957e+00
    5.2890486994766173e+00 -1.2323158608490576e+00
    4.9689630927650281e+00 -1.2793226314937083e+00
    5.2736225492078246e+00 -1.3714042714770858e+00
    5.3533176890582919e+00 -1.4105060365958422e+00
    5.4282114804966737e+00 -1.4090951100087128e+00
    5.3839657245694257e+00 -1.3588171810552496e+00
    5.2356661093923300e+00 -1.2725258426887782e+00
    5.1209283727313117e+00 -1.1789375349486535e+00
    5.0763253486492452e+00 -1.1001973360876847e+00
    4.9523714237981444e+00 -1.0431140740389877e+00
    5.0464493125487353e+00 -1.0220647586635070e+00
    5.7954436126116216e+00 -1.0451133786935083e+00
    5.5625081665655420e+00 -9.0877091579263691e-01
    5.4487258981931230e+00 -9.4462125012881570e-01
    5.3705566531610422e+00 -9.8018555948386676e-01
    5.3510692381792344e+00 -1.0147926443036026e+00
    5.1525381356475979e+00 -1.0618722262386480e+00
    5.1809283937404418e+00 -1.0980323598843469e+00
    5.2501673213384139e+00 -1.1385349787852304e+00
    5.4305279839109595e+00 -1.1834800455238172e+00
    5.5036162496924295e+00 -1.2064468145388112e+00
    5.5324723981343817e+00 -1.2020215278021311e+00
    5.6514853788898316e+00 -1.1812878142688341e+00
    5.7028067737169499e+00 -1.1469200788059124e+00
    5.7515326911064788e+00 -1.1124006418387260e+00
    5.5589770944021621e+00 -1.0811454142203989e+00
    5.6877472230718098e+00 -1.0826361542162959e+00
    5.8240648855825681e+00 -1.0926811792409268e+00
    5.8506108169073610e+00 -1.1066677979280433e+00
    5.7750816586245577e+00 -1.1257268671224467e+00
    5.4310733897097343e+00 -1.1372512057987461e+00
    4.9812480737427727e+00 -1.1470428098228147e+00
    5.0868959582694115e+00 -1.1960830369385136e+00
    5.1319503052505215e+00 -1.2324340673614738e+00
    5.1798619840579301e+00 -1.2465473760123646e+00
    5.1905337927153203e+00 -1.2249021899495260e+00
    5.1416279382598500e+00 -1.1737116354043342e+00
    5.1074873018649258e+00 -1.1147087392144412e+00
    5.0501595405323565e+00 -1.0606074103480718e+00
    4.9529115972624753e+00 -1.0245873937584249e+00
    5.1882058468632186e+00 -1.0202864267574550e+00
    5.9982404886087028e+00 -1.0451894756164333e+00
    5.4906173104544935e+00 -8.9360322171869910e-01
    5.4093279365087534e+00 -9.1966493916094150e-01
    5.3072134253945213e+00 -9.5063891990687399e-01
    5.1458014268231569e+00 -1.0065862675434831e+00
    5.0296903352204589e+00 -1.0344647055546143e+00
    5.1523121113723880e+00 -1.0618407314577984e+00
    5.1930908615328120e+00 -1.0897436119586819e+00
    5.2380603549566445e+00 -1.1190318183021264e+00
    5.3068379058283632e+00 -1.1335231945203224e+00
    5.4421894914518791e+00 -1.1364572310222649e+00
    5.7198578789577041e+00 -1.1304461468281146e+00
    5.9084292579637712e+00 -1.1144746793869853e+00
    5.8928851994872060e+00 -1.0953144039004226e+00
    5.8121458845201674e+00 -1.0814129520737286e+00
    5.9016680196735569e+00 -1.0827842519637945e+00
    6.1113148204283849e+00 -1.0889658571663765e+00
    6.2503935757799969e+00 -1.0911756997299686e+00
    6.0622197266032884e+00 -1.0920866401648697e+00
    5.6962919187304273e+00 -1.0919643406751092e+00
    5.2724142132224507e+00 -1.0859445239409296e+00
    5.1727867486119941e+00 -1.0985019057860699e+00
    5.0486601067249230e+00 -1.1104540554375137e+00
    5.0552320323915323e+00 -1.1246966710019741e+00
    5.0361727997905357e+00 -1.1206479446033593e+00
    5.0595841448513115e+00 -1.1032173816394861e+00
    5.0519590772249607e+00 -1.0708172172171400e+00
    5.1152783605431171e+00 -1.0417982292564179e+00
    5.2204633034330472e+00 -1.0265383486097961e+00
    5.4908550088695858e+00 -1.0275146233381036e+00
    6.5364788179373488e+00 -1.0553056369601745e+00
    5.4226517259626954e+00 -8.8814374145602759e-01
    5.3434724500365753e+00 -9.1791383868041676e-01
    5.2477248032758519e+00 -9.4090465249043043e-01
    5.0503827949032294e+00 -9.8871926225883144e-01
    5.1149979853703380e+00 -1.0029258563474410e+00
    5.2351382420587953e+00 -1.0097213956153168e+00
    5.0970011606476362e+00 -1.0505013779133723e+00
    5.1288117677909142e+00 -1.0707314113475814e+00
    5.1587659907979493e+00 -1.0833257724452579e+00
    5.4461585894866493e+00 -1.0834460862417326e+00
    5.7084220812105215e+00 -1.0867385745596450e+00
    5.8932730841960117e+00 -1.0825030495703185e+00
    6.1337399192009991e+00 -1.0727672612781183e+00
    6.0602691658735477e+00 -1.0728822652455106e+00
    6.1354587739234452e+00 -1.0785982326997650e+00
    6.3543465402990646e+00 -1.0883469116264981e+00
    6.5239805415677870e+00 -1.0906904350473066e+00
    6.4350465689948990e+00 -1.0777808727684772e+00
    6.0893927010671378e+00 -1.0747056588728405e+00
    5.5613339634312489e+00 -1.0622522358078494e+00
    5.4156345706605187e+00 -1.0613502760569071e+00
    5.2872581707306292e+00 -1.0618770361239811e+00
    5.1720762345418878e+00 -1.0622811993008978e+00
    5.0643949768347944e+00 -1.0577575175513110e+00
    5.0879080788316724e+00 -1.0531984703893382e+00
    5.2074827552555023e+00 -1.0464647775913432e+00
    5.3490662776408691e+00 -1.0359687224988245e+00
    5.4813859676529093e+00 -1.0286622184494278e+00
    5.8977607585445222e+00 -1.0355687933546360e+00
    7.3500690600662439e+00 -1.0523268590677306e+00
    5.3995727147978565e+00 -8.8581756357315800e-01
    5.2805134700247187e+00 -9.2646203002551331e-01
    5.2004900310478748e+00 -9.4264782850361672e-01
    5.1636624654080210e+00 -9.6188895707389932e-01
    5.1373308336203261e+00 -9.5654788688260295e-01
    5.2169857852307793e+00 -9.7696727784611004e-01
    5.1145113513260343e+00 -1.0111226237094391e+00
    5.0063518028312197e+00 -1.0355691123746060e+00
    5.1014674428706801e+00 -1.0405829446148802e+00
    5.4290213834215146e+00 -1.0296710474299302e+00
    5.5497765298130917e+00 -1.0448587356600247e+00
    5.8579260645653024e+00 -1.0394090276823744e+00
    6.1768446933594694e+00 -1.0414229093058296e+00
    6.2610346738686156e+00 -1.0582193275933809e+00
    6.2318555784324587e+00 -1.0708505718379513e+00
    6.3034959255716716e+00 -1.0776450977669252e+00
    6.4800470535051966e+00 -1.0898692221028394e+00
    6.9209440092056287e+00 -1.1017608462991622e+00
    6.4573338088907208e+00 -1.0813246987063438e+00
    5.8896245147922057e+00 -1.0610114805571991e+00
    5.6830763790281074e+00 -1.0530739036616681e+00
    5.5599552324907293e+00 -1.0475886540922097e+00
    5.4340849310821158e+00 -1.0422883558988889e+00
    5.3516245651981169e+00 -1.0376858109845790e+00
    5.3960590495449825e+00 -1.0376004226044275e+00
    5.4546156245887625e+00 -1.0343177335947369e+00
    5.7323103515559000e+00 -1.0372344823783057e+00
    6.2019569671542927e+00 -1.0394131624701974e+00
    7.2299998186873129e+00 -1.0503495193421506e+00
    8.3260347649114674e+00 -1.0533884055183740e+00</input_scale>
  <output_scale>
    5.2631578947368418e-01 4.9999999999999994e-01</output_scale>
  <inv_output_scale>
    1.8999999999999999e+00 -9.4999999999999996e-01</inv_output_scale>
  <weights>
    <_>
      -6.6280773268953537e+00 -9.3956426906503465e-01
      1.7121024011180791e-02 -4.2384866550519117e-03
      9.3797763173077942e-01 -3.5496239941848529e-02
      -1.5886467726012157e+01 2.5954000482998407e-01
      9.3969895131779613e-01 -1.9632785591305971e-01
      -3.0298606150655067e-02 7.7113763958868997e-01
      1.7501348720094428e-01 -1.7341474412234736e+00
      2.0712973571139774e+00 -8.8929865138747488e-01
      1.5896715766077779e+01 2.1087818296509048e-01
      -2.4945130063472988e+01 -2.0353888687548288e+01
      -2.0763776078834306e-01 -6.3924236483348178e+00
      -2.2622119644924318e-01 1.3954204063232831e+00
      -2.1146747475375913e-01 1.4970637070324440e+00
      -1.1991581189830866e+01 -7.8164577704219207e+00
      -6.4632657898871653e+00 8.2808752436477739e-01
      3.1315302755479102e-01 -4.1291202550419122e+01
      -1.5584763842526634e+01 1.4263506974662959e-01
      -1.0015907468747205e+00 -8.1088738567120910e-01
      -1.4308209067520986e-01 -2.9074368897908003e+00
      -8.4898156781882950e-01 1.2381578063491809e+00
      -1.3909397458648773e-01 -6.9478591109852356e-02
      -1.5233382932910318e+00 -7.9324977597413016e-01
      -3.0555712865632612e+00 -1.6840803701902107e-01
      1.8684258724576350e-01 1.6588774790695954e+01
      3.0219544970150348e+01 -1.6921741124844392e-01
      -5.0323089548496303e-01 -5.2476019750722602e-01
      1.6837616940071110e-01 -5.4072869919315025e-01
      -5.6164783146029273e-03 -1.5103923131759717e-01
      1.6993250227024156e-01 -2.9533779923408338e-01
      -8.3083840245206841e-01 -4.7337608051678282e-01
      -4.7964922739447491e-01 4.3501941455402102e-04
      1.4182021470280901e-02 1.4945788750807654e+00
      2.6855318365994951e+00 -1.9701127160488115e-02
      -8.3094265321357608e-01 -6.3931449366156712e-01
      1.8821751219651468e-02 -2.3704324113135167e+00
      -5.0120625107708842e-03 -8.1528830288796580e-02
      1.9997705092899536e-02 -2.2704000317578809e-02
      -5.8680615108085077e-01 -6.5863751271351589e-01
      -2.3949577461945282e+00 4.7520341882257851e-02
      1.1860274398586893e-02 3.3229065109452094e-01
      9.4744289047854335e-01 -1.3739811207935144e-02
      4.3327392096678283e-02 7.2624635745340949e-02
      1.2890798273912396e-02 -4.5266218150638571e-01
      -1.2409113999226615e-01 -2.2383458358679855e-02
      1.4818991004651555e-02 -1.9466101565269412e-03
      -3.9094403259871213e-01 2.4105428894236475e-01
      7.2654420679706982e-02 4.0062536727354831e-01
      1.1011027959260272e-02 5.4658289288848465e-03
      2.9688193037514615e-01 -1.2315430431284140e-01
      -2.1836456314657965e-01 -2.5002970863937635e-01
      1.2492195148796922e-01 -2.4485671002173087e-01
      1.2697785869922698e-02 -4.3707265371851972e-01
      1.2202014469930184e-01 -2.2076249898494146e-01
      -2.6163091684898421e-01 -1.8685052158068358e-01
      -2.4409358061736899e-01 -4.3587306750743154e-02
      1.2151718676612562e-02 -3.4881139434785163e-01
      5.4322515809406301e-02 -1.2164598639634287e-01
      -1.6555103887745798e-01 -2.2980551746321728e-01
      1.2222932764051390e-01 -4.5211580238262089e-01
      -1.2264410059232023e-01 9.9139418459765960e-01
      1.2397739194060980e-01 -1.3964965718591635e-01
      -2.5075704835454676e-01 -1.5891513424132350e-01
      -1.6481696810004490e-01 4.2592629383579828e-02
      1.1183143980813041e-02 -1.3790378050589519e-01
      2.9765294800566312e-02 -1.2373637105558907e-01
      -3.0241188192445395e-01 -3.6076640086960571e-01
      1.2396710154966741e-01 -5.6574472546058852e-01
      -1.2137147152531230e-01 1.0324707739485248e+00
      1.2404354687281600e-01 -1.3926156672884063e-01
      -2.5355189350541124e-01 -5.4672265994301139e-01
      -4.6223777227009644e-01 1.3340051622744703e-01
      1.1749492505905700e-02 -1.2451244873573003e-01
      2.4303905725312804e-02 -1.5717050186609530e-01
      -2.8560677989353855e-01 -2.8331889238918684e-01
      1.5695266559455215e-01 -2.9000035641372457e-01
      -1.1995290838480076e-01 -2.4565352564932491e-01
      1.5655165936066326e-01 -1.8156250285536615e-01
      -2.9917636505523171e-01 -2.7496672569447311e-01
      -2.8847554535192860e-01 8.6957520785869435e-02
      3.0772679412556340e-03 -1.8558040903520687e-01
      2.6709607373413552e-01 -2.3193112900552395e-02
      -3.1042633152208710e-01 -4.1131890884605177e-01
      2.1210109157109681e-02 -1.0161438805951311e+00
      -1.2367397174964184e-01 1.7230263638297771e-01
      2.1272911378774722e-02 -2.5957927745802233e-03
      -3.4657071805594764e-03 -9.5857451789551384e-01
      -1.0213541568084026e+00 4.0135570421466865e-01
      -1.0549441241701848e-04 6.5668865512457332e-03
      1.8670964048731788e+00 2.6259738034757935e-01
      2.0578594755712140e-01 -4.1210709414213698e-01
      -2.7218753625902942e-01 -2.3729741260111354e+00
      -1.2368024852343883e-01 -8.8886488291441260e-02
      -2.7391422266905169e-01 3.3090681293362839e-01
      7.2699091556638318e-01 8.9871339751555912e-01
      3.1254035305503378e+00 4.0120940165877972e-02
      1.1472582927917620e-02 8.1415386807210099e-01
      3.2449776183577805e+00 2.6540984220331809e-01
      -1.2015305959677136e-01 -3.3377389692094306e-01
      -2.6315127122487453e-01 -5.9617239397300126e-01
      -2.0687780742297057e-02 3.7681726111902636e-01
      -2.6242238738483975e-01 3.3159461042973021e-01
      -1.0501334605507039e-01 -2.5788952596220525e-02
      4.3136974107289816e-01 6.1577914708722259e-02
      1.1608135750070504e-02 5.1407616817557411e-01
      1.0431400720652373e+00 -1.5047415169627766e-02
      -9.9467687995376974e-01 -1.0762708254809739e+00
      1.7183442250685771e-02 -1.0122942051528443e+00
      -1.7610738648378511e-02 3.6215641603571110e-02
      1.3945007569182356e-02 -2.7181197694269815e-03
      -1.0555026724890679e-01 -2.7394301658877023e+00
      -1.0231885620878918e+00 3.9972803999641532e-01
      1.1497715377544120e-02 6.0802258371994711e-02
      1.0599664974193541e-01 2.4228754393860949e-01
      -5.6054118205003634e-01 -6.4060410721137662e-01
      -2.5201485519015387e-01 -2.3714944253537737e+00
      -4.5856924996683932e-03 7.5264392636137595e-03
      -2.4240463650053232e-01 3.3139474263863483e-01
      -3.4199041699788373e-02 -2.2149120278310113e+00
      -2.3954132129887578e+00 3.0044885800034420e+00
      1.6092263977699327e-03 3.8827401491907643e-01
      1.5748201075773289e+00 2.4617463975795484e-01
      -8.3364921173874407e-01 -6.4188213305898834e-01
      -2.4668145935571084e-01 -2.3708162223975995e+00
      -1.2057268720058281e-01 -5.4674057537082557e-02
      -2.4479109535248622e-01 3.2896585910600945e-01
      -1.4233824133790900e+00 -2.2151221529238456e+00
      -2.3953737952888128e+00 4.0190153941626328e-01
      1.3820842999973056e-02 4.0742117137121225e-02
      1.7822981289524930e-02 -2.2238596466497652e-02
      4.4416623680535158e-02 7.1285725756600971e-02
      2.0835324717700901e-02 -4.5490160191127305e-01
      -1.2143250449659880e-01 2.1202984289881316e-01
      2.2162356627693114e-02 -6.4909987333920216e-04
      -3.9077234077657713e-01 -8.4685840840465106e-03
      9.9594088624546315e-02 3.9949273425436954e-01
      6.1431714587735842e-05 2.0089164756405129e-02
      1.9447303566556478e-02 -1.4891201012872619e-02
      -3.4817793113681367e-01 -4.1448998900990053e-01
      1.7085721275499347e-02 -2.3716441467963874e+00
      -1.2669712875434591e-01 -1.4193869450278371e-01
      1.5263994099266234e-02 -2.3985913658094151e-03
      7.3093148938252572e-01 -2.2123320186147382e+00
      -1.4857643029468608e+00 3.9949642048170342e-01
      -4.6221300763202612e-03 4.7657218316181638e-03
      5.6391397462581937e-03 -1.5775920312241126e-01
      -2.8294357682163646e-01 -2.8758870709303413e-01
      1.5800565571579731e-01 -2.9444414468519281e-01
      -3.4822178943631939e-02 -2.0553259018591929e-01
      1.5660299017919385e-01 -1.8046217202433831e-01
      -2.9959524080088562e-01 -2.8233271088640022e-01
      -2.9087737528995283e-01 6.8277743744095482e-02
      -5.2903087614663263e-03 -1.8159546097590798e-01
      -3.9093688365158787e-02 -1.2609646392585336e-01
      -8.3291586029590692e-01 -6.3915100078879816e-01
      1.2472030441867840e-01 -2.3735696128471977e+00
      -1.2480586597696808e-01 -8.9602095212968288e-02
      1.2572404585608640e-01 -1.4130542827952761e-01
      -3.0581521607520121e-02 -2.2149909938721191e+00
      -2.3941821951510551e+00 4.0002201703537571e-01
      -5.4242668388842733e-03 -1.3919587734423305e-01
      -3.7731068253160138e-02 -2.1346149807186132e-02
      -5.6147371038347904e-01 -2.2613133958920426e+00
      2.4205452780613729e-02 -2.3731967463638957e+00
      -6.1120312928948442e-03 7.2352184347062171e-02
      2.3929325259659229e-02 -1.1603738194930027e-03
      7.2659482533118902e-01 -2.2133767811596248e+00
      -2.3936309372445179e+00 1.0627968495884688e+00
      3.5908887320514611e-03 -1.7168175972261151e-02
      1.0072550536145303e-01 -2.3675955552448200e-02
      -2.0324763930309553e+00 -2.2604787297099476e+00
      2.0916896708491201e-02 -2.3726710815224017e+00
      6.5913158427217997e-02 -1.0826542969947479e-01
      2.4483607639593511e-02 -4.3327407481264754e-04
      -3.3941554346636468e-02 -2.2129092882645649e+00
      -2.3959519276630643e+00 3.0028245384038215e+00
      9.1325847197660777e-04 6.8488455093698563e-03
      -3.4949695388540071e-02 -2.2408754765276959e-02
      -2.0312611470543969e+00 -2.2628722359618632e+00
      2.1602148336765496e-02 -2.3699125845306916e+00
      2.8240248299397155e-02 1.4383683585447679e-01
      2.2447886110742627e-02 -1.4091518311331772e-03
      7.2636968744260733e-01 -2.2125832747595187e+00
      -2.3956350265519877e+00 1.0651494075030921e+00
      8.3604030869532172e-04 -1.8332287308905404e-02
      -3.2781979822783011e-02 -2.2600670572570369e-02
      -2.8142592935267534e+00 -2.2622940929082342e+00
      1.9851532869946668e-02 -2.3730436785920315e+00
      4.2278617112600038e-02 -9.8631766898469989e-02
      2.3402284813035142e-02 -6.6722432372422560e-04
      -1.4211092655036737e+00 -2.2164344374252289e+00
      -2.3944210142166873e+00 3.0033345895866006e+00
      1.0240388658622258e-03 8.7511493687635299e-03
      -2.8912328055908036e-02 -2.1385923075384818e-02
      -2.0289278502580639e+00 -2.2599524199471785e+00
      2.4859037591049602e-02 -2.3706567081073828e+00
      3.8897034378168285e-02 -1.0751256535071331e-01
      2.5052105729678167e-02 1.0123349988153880e-03
      7.2647649650628499e-01 -2.2164089748081035e+00
      -2.3946749151471289e+00 3.0061059653318019e+00
      3.4938319823152220e-03 -1.2773527232543920e-02
      7.7339180310515232e-02 -2.3263475325884832e-02
      -8.3297748589671483e-01 -2.2604885063059750e+00
      2.1880682628174355e-02 -2.3719657080168082e+00
      -4.0217954843226756e-03 -6.4617424533697246e-02
      2.3505158545824547e-02 5.3872255162867443e-04
      -3.4947682539901222e-02 -2.2157392187922627e+00
      -2.3969703729089589e+00 3.0039014829138391e+00
      6.3028377910822545e-04 -1.4200885709117176e-02
      -3.2269177218304322e-02 -2.2634564967631006e-02
      -8.3064686963241330e-01 -2.2634844029107124e+00
      2.1905672793347767e-02 -2.3702644899225929e+00
      2.9844282421997284e-02 -1.0199580067634785e-01
      2.3503325278998677e-02 -2.1544707489830543e-03
      -1.4238502676384881e+00 -2.2160088323547091e+00
      -2.3970609070256246e+00 1.0616917203902223e+00
      2.3023724713018522e-03 -1.1532778969925571e-02
      4.6414120059259057e-03 -2.1169140041654280e-02
      -5.5936678192447342e-01 -6.4058007363709879e-01
      1.9888144228025543e-02 -2.3725855905786530e+00
      -2.1258669554428313e-02 -1.1385204953892412e-01
      2.2159024033462676e-02 -9.4713534486488696e-04
      -3.3168603836047174e-02 -2.2134996791420147e+00
      -2.3962718481709562e+00 3.9917080207070327e-01
      8.9259218900577695e-04 1.6887169128921124e-02
      3.1962607571804212e-02 -1.2228733569294696e-01
      -2.3977709039997727e-01 -2.1304005085896266e-01
      1.2433991294095345e-01 -2.5670320758114018e-01
      -8.1142358995495614e-02 1.0245114233257704e+00
      1.2222226568423024e-01 -1.4192173532096392e-01
      -2.3497207033995907e-01 -2.0270260220850542e-01
      -2.3343124514128957e-01 4.0104937499606524e-01
      8.9791506131974258e-04 -1.2790695465387011e-01
      7.2146735880150126e-01 2.6532206974118733e-01
      -4.5925847967692102e-01 -4.6395894419652473e-01
      -2.7133896594671131e-01 -4.5322347771045318e-01
      1.7795612236526114e-02 -7.7918806826017567e-02
      -2.6278268128100496e-01 3.2958939839516443e-01
      -4.7335195752582604e-01 -4.6126472389068868e-01
      -4.4925722974934568e-01 1.7910206709848806e-02
      3.7558750284708907e-03 8.1914441045973263e-01
      4.2294106330138446e+00 1.6336187599334448e-01
      -2.8166890886009335e+00 -2.2625609364123478e+00
      -1.6593718838625598e-01 -2.3717835857486453e+00
      -7.2114799360984805e-01 6.4537432507562018e+00
      -1.6488588009217386e-01 4.8523060328529394e-01
      -3.2401217851212465e-02 -6.6103382879174355e-01
      -2.3948763166446767e+00 -5.4010519072247043e-01
      6.9198690944139052e-01 6.3224829520463981e+00
      3.2815305326253494e+01 2.4055745890766733e-01
      -3.1025266467850265e+00 -7.2185638380504855e+00
      -2.4155287424899352e-01 -2.3702402734696868e+00
      -4.7413639916140643e-02 -2.2244422135648631e-02
      -2.4183065970299256e-01 5.9836416260688086e-01
      -2.0650597810561688e+00 -2.8658106448392093e+00
      -2.3934002983809815e+00 9.7331814821252094e-01
      1.3611321650318546e-02 8.2542168004070895e+00
      -1.0133361989464009e+00 -1.7055239214605991e-01
      -5.2280521283540804e-01 -4.5858420470664724e-01
      1.6843834703318336e-01 -4.6986523649306938e-01
      -3.2064960102434897e-02 -7.9580853735793947e-02
      1.6917693487579324e-01 -1.8935720745350884e-01
      -4.8034300039153988e-01 -2.6539900039271719e-01
      -2.5017992907993941e-01 3.0376867209661419e-02
      1.3331458339102823e-02 -3.0408574759065585e+00
      2.0602555213651477e-02 -1.2805068257072116e-01
      -2.2955779388679048e-01 -2.2401772855564711e-01
      1.2701421784226005e-01 -2.3182671401909322e-01
      -7.7547574472193442e-03 4.3314673108503683e-02
      1.2811434832357646e-01 -1.3941807037852039e-01
      -2.1871328503678425e-01 -2.1212535387588372e-01
      -2.5998773213178639e-01 1.8327641830389093e-02
      1.1514285598569570e-02 -6.9107977164128065e-01
      5.0591265722695726e-02 -1.9910221503245933e-02
      -2.8165937394651506e+00 -2.2601879912681913e+00
      2.0876804313071522e-02 -2.3715360126987881e+00
      -7.6879344404737843e-02 -1.0025189097032298e-01
      2.2240997448807046e-02 -2.1847816815825719e-03
      -3.4218883100898038e-02 -2.2123936434485643e+00
      -2.3949059147588656e+00 3.9988282581893014e-01
      1.2599333641114051e-02 4.2275490977109961e-03
      4.4378593707527608e-01 -1.9889201666740634e-02
      -8.3231154992405221e-01 -2.3722457637636582e-01
      2.2307808139547244e-02 -2.3727674866338972e+00
      -1.2044599908626813e-01 -4.2206083508858412e-02
      2.0223653410855410e-02 -2.8185983671105796e-03
      2.4465745080509244e-01 -2.5957901631571132e+00
      -2.3938120531839813e+00 4.0092752777679280e-01
      1.0209714393299882e-02 4.6500502574476278e-02
      -2.9977807727965520e-02 -1.2548706396531858e-01
      -4.7973673518784932e-01 -4.1201149982341706e-01
      1.2225740521361453e-01 -1.0129097222227101e+00
      1.5031859230403474e-02 -5.3489085339220317e-02
      1.2385172982220591e-01 -1.4252171913128123e-01
      -1.0473229314985790e+00 -4.2149504692969031e-01
      -3.7618788205699194e-01 8.4882462694186561e-02
      1.3116734586267945e-02 -1.3089597811487572e-01
      3.8629975949784623e-02 -1.2026968563548289e-01
      -1.8073413086455106e-01 -2.3073219371055939e-01
      1.1974930334205607e-01 -1.3935262080179903e-01
      -1.2077025355546726e-01 3.0405438782623273e-01
      1.2271921123194073e-01 -1.4083220408391967e-01
      -3.5055210373165679e-01 -2.1907488036454176e-01
      -1.8780249502664703e-01 3.9895001520089207e-01
      1.2555160994414534e-02 -1.3349250541756988e-01
      2.7291033349832927e-01 -2.2184566663650811e-02
      -8.3225776549635200e-01 -6.4202092950992928e-01
      1.9174095055855260e-02 -2.3732827220718313e+00
      -1.2107569341466806e-01 -4.6644547242598380e-02
      2.1478383520972061e-02 8.0233130679286790e-04
      -1.4221711201177556e+00 -2.2165069235066683e+00
      -2.3947696128313414e+00 3.9903302024990162e-01
      1.0879372905300782e-02 1.3021012370822947e-02
      -7.5569749174783365e-03 -1.2388804478778967e-01
      -3.8695072056328089e-01 -3.3436170742880089e-01
      1.2301062785106455e-01 -1.0139402472959091e+00
      -1.2198514350045488e-01 -5.3907251072103195e-02
      1.2307178162518748e-01 -1.3960603698295626e-01
      6.0375115208404953e-02 -1.0931049084427178e+00
      -1.0230432268909277e+00 3.9937330985435215e-01
      2.6505422879063816e-03 -1.3520987758709965e-01
      1.0494834014365755e-01 -1.1395889708513155e-02
      -5.6002615779079412e-01 -6.3821508939325500e-01
      1.3593383514902335e-02 -2.3719114031642308e+00
      -8.2264058835589109e-03 6.7393665008370934e-02
      1.4318985447795557e-02 -2.8765642420184607e-03
      2.4529795541111024e-01 -2.2151784383863271e+00
      -2.3957859080266326e+00 3.0026737755390052e+00
      3.1093477781486316e-03 4.7402318835078230e+00
      1.5011115320317694e-01 -1.8205796746515998e-02
      -3.0936573466898332e-01 -7.4843138614301830e-01
      1.3758586967110574e-02 -1.0157325507563022e+00
      -1.2163676683782597e-01 -6.3980523561341179e-02
      1.7229683384590643e-02 4.7938379372918920e-04
      6.0616537485399573e-02 -1.0930745986103212e+00
      -1.0245616939437130e+00 3.9904169749650326e-01
      -1.7875071108051285e-05 7.4954142494953885e-02
      2.2340333735218504e+01 -1.6714287289587537e-01
      -2.5762650076787225e-01 -2.8295877822885102e-01
      1.6966936109402372e-01 -3.3172888282540403e-01
      -1.1936085340401621e-01 -4.9817974546067001e-01
      1.6765773572363979e-01 -2.3628644558708101e-01
      -2.2604966362232229e-01 -3.2562525989672614e-01
      -3.2831567318055493e-01 -2.5545552751721629e-02
      1.0674648126001657e-02 -2.2288795325106348e-01
      8.1279559641189110e+00 2.6244960703130271e-01
      -2.3178323000200542e+00 -1.8949683120142236e+00
      -2.6206553394871202e-01 -2.3711372498272576e+00
      -1.1991727048130271e-01 -1.7985057219557780e-02
      -2.6377114803231222e-01 3.2852672298747537e-01
      7.3041821875297563e-01 -7.3446192226098024e+00
      -2.3951202305517318e+00 1.0400289947201404e+00
      1.1983967765777669e-02 3.1702493319516661e-01
      1.4151165565349458e-01 -1.7921688601754238e-01
      -1.9822851383378268e-01 -2.0689380049455391e-01
      1.8254013798175159e-01 -2.5983664812645546e-01
      -2.0270735529202499e-02 -2.0911304375099293e+00
      1.8323589578628122e-01 -2.3271307938689492e-01
      -2.8451367173288628e-01 -2.2123023371884926e-01
      -2.6043151172957169e-01 4.2694834996644122e-02
      1.4154401220233193e-02 -2.3013898109311157e-01
      2.5513855201812308e-01 -2.3890147850925254e-02
      -3.8124789070622650e-01 -3.5719561877021472e-01
      2.2704415302977437e-02 -5.6982230650988930e-01
      -1.2072931775231928e-01 1.1023439107910846e+00
      2.3305727898351988e-02 -1.4663583955063170e-01
      -2.5104931302108502e-01 -3.6295274884227396e-01
      -5.6975633799959935e-01 4.0231250022489801e-01
      1.0918728950860558e-02 -9.0623857959689094e-02
      1.2223494833648945e-02 -2.4973170412124539e-02
      -8.3049772266643751e-01 -6.4187700541958059e-01
      2.1579235931210257e-02 -2.3704505586285287e+00
      -3.8419991629775913e-02 -4.7412656000353361e-02
      2.0793021375666600e-02 -2.8125349333157690e-02
      -1.4149202637846039e+00 -2.2124049708256317e+00
      -2.3956810552902650e+00 1.4742325325449190e-01
      -5.3597649235794190e-03 1.1640680010579286e-02
      -2.5256655962803236e-02 -2.1745931795673749e-02
      -5.6181196687113411e-01 -6.4037424942143395e-01
      2.3553802179943163e-02 -2.3726588169766387e+00
      2.4185750113969425e-03 3.8775328483111916e-02
      2.4536627830589821e-02 -2.7581130117503669e-02
      7.2965177251446400e-01 -2.2160176937358473e+00
      -2.3964949345015536e+00 1.4665696319072696e-01
      -5.9395769712824341e-03 6.0461378732491307e-02
      -4.7364960363577693e-02 -2.3450193208879578e-02
      -8.3305076808375433e-01 -6.4186224248511037e-01
      2.1587435192268720e-02 -2.3719637714403641e+00
      -5.3687531271800551e-02 -1.3932128158446835e-01
      2.5265737574115394e-02 -2.5103691946615190e-02
      -1.4141861668652858e+00 -2.2155395510196394e+00
      -2.3932774883920334e+00 1.4802237677128471e-01
      -7.8916245750202847e-03 5.4662348086082099e-02
      -3.5398788312582703e-02 -2.1555425688899611e-02
      -2.8147361186025361e+00 -2.2629948437626934e+00
      2.1339566023397601e-02 -2.3730880076188843e+00
      1.6869969326257225e-02 8.5128202165395947e-02
      2.5523509075847627e-02 -2.4036217534096397e-03
      -1.4114110148871959e+00 -2.2143297441549947e+00
      -2.3954949644339818e+00 3.7575166594580595e-01
      -5.5580173169879144e-03 -1.8532620622349831e-02
      -4.3658057888754258e-02 -2.3612868426823867e-02
      -2.8135464304446032e+00 -2.2616574226121697e+00
      2.3889229800402773e-02 -2.3703771833710796e+00
      1.7022592733346189e-02 -1.1324803031957839e-01
      2.4569835340083616e-02 -3.5589000126897527e-03
      -2.7739773740421605e-02 -2.2137527336358067e+00
      -2.3973985366302126e+00 1.0615559176565790e+00
      -6.6524540643252052e-03 7.4932968515552922e-01
      -4.3259992442856027e-02 -2.4886500520185151e-02
      -2.0297944226836546e+00 -2.2606759130792997e+00
      2.2438745589385009e-02 -2.3720541870340992e+00
      4.5020860873413809e-02 -1.0761730674651532e-01
      2.2039120955706828e-02 -2.5438299877204775e-03
      7.3288280727340871e-01 -2.2141659308469279e+00
      -2.3937724755746932e+00 3.0028003911683157e+00
      -4.6777852637778219e-03 1.4446382404107170e-02
      -3.3247781154623846e-02 -2.1671312999230294e-02
      -2.0305695041064000e+00 -2.2611710231059456e+00
      2.4657162812794436e-02 -2.3725714321211528e+00
      4.2208992074981050e-02 5.3590813514983260e-01
      2.1899784974589973e-02 9.6660950205122484e-05
      7.2876040896596961e-01 -2.2150156693721863e+00
      -2.3957002223799564e+00 3.0067034690434955e+00
      2.6644899399657497e-03 7.1319860274446280e-03
      -2.8437495144431713e-02 -2.1736139251880168e-02
      -5.6140807997475162e-01 -2.2605669176653040e+00
      2.2638629462103307e-02 -2.3735716046632236e+00
      2.4414313216670442e-02 1.4625737063195687e-01
      2.4835772273955850e-02 -2.4182164652231451e-03
      7.2778099042740618e-01 -2.2160757881377844e+00
      -2.3974815320923186e+00 1.0642300998292464e+00
      3.3718418658496415e-03 9.4295174203236284e-03
      -2.9595837712337255e-02 -2.2494000986802130e-02
      -2.0315552435357165e+00 -1.6057646212324765e+00
      2.1075172419332485e-02 -2.3698231847515512e+00
      2.8968553049112625e-02 1.2478233816568264e-01
      2.2001441285050917e-02 1.0263539398683915e-03
      7.3021306124119023e-01 -2.2161089452628202e+00
      -2.3942424905795145e+00 1.0622102976159356e+00
      1.6185700208819968e-03 5.7311182706174957e-03
      -2.8812787370642731e-02 -2.0813950725342447e-02
      -5.6008306694896870e-01 -6.3955095950034835e-01
      2.2675032342505685e-02 -2.3725032875852987e+00
      7.5253916383546757e-03 -1.0124675428539053e-01
      2.4585911771645680e-02 -2.5465503253666741e-05
      7.2758234444679715e-01 -2.2165864349145199e+00
      -2.3967558121088901e+00 1.0618257828548732e+00
      1.7636678936591510e-03 2.2048216270530784e-02
      -3.1231106127702305e-02 -2.3913781951728382e-02
      -2.0298002131573898e+00 -2.2624760647227498e+00
      2.0863915588782842e-02 -2.3726600314593007e+00
      -4.2958493070897347e-03 -1.0362585036195980e-01
      2.3706044044161417e-02 -8.4734842548423882e-04
      7.2981136327925455e-01 -2.2166324434333040e+00
      -2.3938547951834752e+00 1.0656706472956037e+00
      2.8939115643009682e-03 1.0379912961209641e-02
      -4.0580845399996644e-02 -2.1348677170641782e-02
      -2.0296012050452488e+00 -2.2635965184573825e+00
      1.9547902131891205e-02 -2.3699215018209259e+00
      -7.6375000156953610e-03 -1.0369831227482239e-01
      2.1838837541085059e-02 -1.2716927620678464e-03
      7.2894548260395620e-01 -2.2158988298605200e+00
      -2.3949169337304594e+00 1.0616735018310244e+00
      -2.7487196284167722e-05 1.0334868690478723e-02
      1.9664173503824253e-02 -1.2326882993081213e-01
      -3.1030097475401597e-01 -3.3591633613047867e-01
      1.2324992725066126e-01 -3.3958131169928191e-01
      -8.0218636820700601e-02 2.0988655935583167e-01
      1.2138652005130997e-01 -1.4183156981473188e-01
      6.0603387634288602e-02 -2.4677506612563999e-01
      -6.6809115779921130e-02 3.9887768369069726e-01
      3.3812889940478407e-03 -1.3794555859688037e-01
      1.6902392756523499e-01 -1.4118282264222489e-02
      -8.3235570785317925e-01 -6.3868717535958819e-01
      1.3859452647119965e-02 -2.3730742421691597e+00
      -8.0118082034088128e-02 -1.0534716159323525e-01
      1.4347582973001498e-02 -2.4057507988939273e-02
      -2.4673293915507180e+00 -2.2142268852166787e+00
      -2.3958626947561590e+00 4.0134905153822698e-01
      3.3775768275913763e-03 -4.7289795963765133e-02
      2.6732994924737437e+00 2.2101903348404395e-01
      -2.8158654684981519e+00 -2.2620976251462745e+00
      -2.2280983273854407e-01 -2.3727138469926903e+00
      -4.8424649890539601e-02 1.6751597715912989e-02
      -2.2043630639749959e-01 4.7549541729708877e-01
      -2.9828801753700888e-02 -6.5956807956028196e-01
      -2.3952521930546959e+00 -1.1638919983090841e-03
      5.5716816884036860e-02 7.6145830312589222e+00
      -2.8744686622001852e+00 -1.8582988599759079e-01
      -3.0206075348030603e-01 -3.0794262809123324e-01
      1.8227288879067011e-01 -3.1285760514150396e-01
      -1.9489752871862481e-02 -1.0067354712176538e-01
      1.8215948789341252e-01 -1.8460050510564785e-01
      -3.0833332936822228e-01 -2.9754384699870734e-01
      -3.0018439911407790e-01 -3.9175795721791851e-03
      1.0142022111669766e-02 4.1023699316633161e-01
      1.1646346275097665e+01 2.4309008084369083e-01
      -2.9231111966819037e+00 -2.6283311651693455e+00
      -2.4209889669910112e-01 -1.6333793292708592e+00
      -5.2868923669525522e-03 -4.4844870117597455e-02
      -2.4234699792373371e-01 3.2997282493319707e-01
      -5.7985168190476455e-01 2.9733546559282437e-01
      7.4288782038650081e-01 1.2895877131391542e-01
      1.2213978301668281e-02 4.8397490982340123e+00
      6.1736301465681750e-02 -1.2522225724041455e-01
      1.8196139568882197e-01 1.7490670672818268e-01
      1.2835798816712904e-01 7.3241206039315485e-02
      -1.3542540296215272e-02 4.4630238317847529e-02
      1.2809400873442192e-01 -1.4141886504565881e-01
      -1.4591169418623237e-01 6.1982255669149187e-02
      3.3423612478527917e-02 4.9836712500931003e-02
      1.3382192717391840e-02 9.7217246373579946e-01
      1.8716365079411201e-01 -2.2193270276212068e-02
      -2.8159791823068812e+00 -2.2630131339516084e+00
      1.9417442988598568e-02 -2.3734110117546816e+00
      -1.1986035161566201e-01 -4.6796121809625300e-02
      2.0396457566589105e-02 7.6177196781837086e-04
      -1.4199591029629488e+00 -2.2160071219586546e+00
      -2.3931540735972496e+00 4.0163692605641843e-01
      1.0491387654610478e-02 5.4545788215766425e-03
      3.3737591132207784e-02 -1.9125005571588739e-02
      -2.8159410171302679e+00 -2.2596846895780525e+00
      2.0113295676138804e-02 -2.3731283354278343e+00
      -1.2315806500421191e-01 -1.3990084068051825e-01
      1.9083630148126883e-02 -7.3169968685417894e-04
      -3.1932654870870499e-02 -2.2142704627951426e+00
      -2.3961609247409452e+00 3.9904945732279101e-01
      1.0891510155248918e-02 6.1178268197336098e-03
      -2.8108099697687187e-02 -1.2256672975887400e-01
      -1.9627819530309426e-01 -2.7434932850520788e-01
      1.2337046731703998e-01 -1.0164771255808405e+00
      -1.9814665614284681e-02 2.1752942106519288e-01
      1.2253854396574065e-01 -1.4221073961623831e-01
      6.3980718415173429e-02 -7.9567393623351142e-03
      3.0284676043734404e-01 9.6536075250342565e-02
      1.2992565399645568e-02 -1.4127070841734543e-01
      6.0434078014559911e-01 -1.3815922656908232e-02
      -5.6135438596867804e-01 -6.4115483922913508e-01
      1.3453644448761572e-02 -2.3712744014621183e+00
      -1.2013929166588275e-01 -7.8429945378907864e-03
      1.5280556827675299e-02 -2.1593325134846146e-03
      5.3693522208356625e-01 -2.2143462381593828e+00
      -2.3934783535504751e+00 1.0954469938147211e+00
      1.0100948766143755e-02 -6.3476528333397475e-03
      7.2859487885861317e-03 -1.8369974130027184e-02
      -6.3972260665190545e-02 3.6548784467951900e-02
      2.2064699158736347e-02 -7.5935615145165669e-01
      -1.2035809540893334e-01 1.8101985294329437e-01
      1.8898217623907049e-02 8.8814424359534843e-04
      8.8418423414308847e-02 -7.6227458581937975e-03
      7.2905233788295970e-02 3.9972982317987132e-01
      2.7820140967232294e-03 2.9756597903488062e+00
      1.3713405727010939e-02 -1.2228750637428368e-01
      -2.4888595463082108e-01 -2.7035391943032228e-01
      1.2443303084979646e-01 -3.3682616333172927e-01
      -1.2087382706183955e-01 1.7131050387115346e-01
      1.2207330354682493e-01 -1.4061002069283432e-01
      6.1135897684779859e-02 3.3151917691035052e-02
      1.8160200853878018e-02 4.0287180801813544e-01
      1.9398843167150225e-03 -1.4203054502979723e-01
      -2.2964046731101390e-02 -1.2368018385911725e-01
      1.8523903247386564e-01 1.7700533533000076e-01
      1.2525798307613792e-01 -1.5667836887397144e-01
      -4.0853811526540872e-03 1.5305116108613837e+00
      1.2380909060033080e-01 -1.3992505167905647e-01
      1.9744277793860728e-02 4.9247203082174326e-02
      3.5118729230042930e-02 3.0059542753743260e+00
      -2.2742369426260001e-02 -1.4736856851391930e-01
      -3.5601128276446972e-02 -2.2131907664141890e-02
      -5.6086383093877723e-01 -6.4198717594629384e-01
      1.9225542936719946e-02 -2.3732692387684731e+00
      -4.3735348203005975e-03 -1.1801659025946253e-01
      2.2255803491484882e-02 1.2458089710313768e-03
      -2.3602129687665030e-01 -2.2123554369306984e+00
      -2.3944217916379036e+00 1.0636615866192571e+00
      1.5103041602746855e-03 5.1250853974025914e-02
      2.7557344496427755e-01 -2.4953661608552388e-02
      -2.4716755376619737e-01 -3.3424656810494013e-01
      2.1952848866369484e-02 -3.3693620005116925e-01
      -1.2236371006463712e-01 2.1035645301671832e-01
      2.0884365084026916e-02 1.1821278239535456e-03
      6.2449633035362079e-02 3.2432186365005625e-02
      -6.7464724114804225e-02 4.0280427498200694e-01
      8.7622682587773005e-04 2.3277884648053450e-02
      5.5483048246064548e-01 -1.5532888872926049e-02
      -8.3430004692301207e-01 -6.3984321998196525e-01
      1.5591263142610889e-02 -2.3697722574740094e+00
      -1.2195693252460756e-01 -8.8762611771728769e-02
      1.5382756081103593e-02 -3.0529042849418461e-03
      -1.4235782973437234e+00 -7.3426334073135733e+00
      -2.3967055743028882e+00 4.0258306716655767e-01
      1.3877673478982991e-04 6.5831393842078936e-02
      -1.2951173780184915e-02 -1.2451547475644392e-01
      -5.6004938330518828e-01 -6.4239185237238683e-01
      1.2320423244946137e-01 -2.3726792764720468e+00
      -1.2275194363138310e-01 -5.7290012065693896e-02
      1.2380482522318814e-01 -2.3710501860084161e-03
      7.3117238643685489e-01 -2.2139362065817370e+00
      -2.3934194346067974e+00 4.0176210142207641e-01
      -6.7404547937071442e-03 7.4009961998921195e-02
      -2.7967797726040078e-02 -2.4500575932423586e-02
      -8.3121954135775111e-01 -6.4116127592862204e-01
      3.0316545198017627e-02 -2.3737560640043109e+00
      2.4552470398772697e-03 -1.1746660467401644e-01
      2.3831210983009075e-02 -2.7882129568329403e-02
      6.5426616362984483e-02 -2.2159857226154633e+00
      -2.3942163675935300e+00 1.4542021749420328e-01
      -7.0855199662614998e-03 1.0101006248826125e-01
      -2.9553835556117066e-02 -2.1878645282060790e-02
      -2.0289492572884256e+00 -2.2627800059796104e+00
      2.3670395302717230e-02 -2.3724021761945400e+00
      1.6862053807068626e-02 -1.0764403908026415e-01
      2.4514698574328454e-02 -2.7713075770146960e-02
      -2.5597269872470269e-02 -2.2129920040751934e+00
      -2.3939390476716178e+00 3.7475134185735104e-01
      -7.9967509374436179e-03 3.4790498065185090e-02
      -4.9263632567821097e-02 -2.3000639503417165e-02
      -2.0316183942607076e+00 -2.2611158542722483e+00
      2.6211616119400215e-02 -2.3731429096008183e+00
      6.8230532523625378e-05 -1.0824382751700176e-01
      2.4356201692965315e-02 -2.7901900802670913e-02
      -1.2890919827208252e-02 -2.2151891365733301e+00
      -2.3941923308375066e+00 3.7725765240027287e-01
      -6.5271481532557449e-03 -8.1245297147141248e-03
      -5.2080172381219078e-02 -2.4030168145176178e-02
      -2.8133923554127946e+00 -2.2634045312626840e+00
      2.9560772518227522e-02 -2.3724003515639174e+00
      8.7140301431250997e-03 -1.0794872258773371e-01
      2.3479317546151492e-02 -2.7533059761240132e-02
      1.2582555091174443e-02 -2.2162634440322431e+00
      -2.3974599133798562e+00 3.7457109072655775e-01
      -3.9688598665963753e-03 -6.2940054554171555e-03
      -4.5311694935147293e-02 -2.8779837317038984e-02
      -2.8151471727615238e+00 -2.2615726932552578e+00
      2.8423088361885007e-02 -2.3705414413307739e+00
      1.7166547874559547e-02 -5.4870141714062366e-03
      2.6852082363672120e-02 -2.9581537224122857e-02
      -2.0782826073292329e-01 -2.2153813869427368e+00
      -2.3967547714052473e+00 3.7531188862137643e-01
      -5.2595845793081200e-03 -1.9467825428442657e-02
      -4.7690566689008229e-02 -2.6793316423362190e-02
      -2.0297631914248004e+00 -2.2617521269628611e+00
      2.8898071289150246e-02 -2.3715911661273976e+00
      2.2773758584071657e-02 5.3587859453104236e-01
      2.6937620748454207e-02 -3.5236125739201750e-03
      7.3176644491988407e-01 -2.2153176698447359e+00
      -2.3970723646939476e+00 3.7616376339815877e-01
      -2.7327688051985420e-03 -5.9501722920437714e-04
      -4.1799857039062686e-02 -2.3425469430799952e-02
      -2.0303570554839707e+00 -2.2597833469092499e+00
      2.9331691882672650e-02 -2.3707358462298567e+00
      2.0229816539306680e-02 2.4778295331090289e-02
      2.2169308422410418e-02 -4.3997575915435431e-03
      -2.8880013880076022e-02 -2.2137251955742272e+00
      -2.3932087753276274e+00 3.0067005852610400e+00
      -7.2460003356957133e-03 -1.9765257132987379e-02
      -3.7232575508530055e-02 -2.2896826424484071e-02
      -2.0318010403756697e+00 -2.2600239330028562e+00
      2.3332479944463407e-02 -2.3735947636519219e+00
      4.1535533071523606e-02 -1.1302052534660610e-01
      2.2927220541933548e-02 -3.4239035968351584e-03
      -2.9110776541704290e-02 -2.2160117658217331e+00
      -2.3958734623851927e+00 3.0066577787677837e+00
      -4.1477606429389836e-03 -1.2815215637538338e-02
      -3.7420986575927177e-02 -2.1830384505007145e-02
      -2.8145373410038474e+00 -2.2624929079544063e+00
      2.0736969995229681e-02 -2.3732184152731701e+00
      4.4994747792449559e-02 -1.0575021455202407e-03
      2.3921854967211557e-02 7.5338870322887185e-04
      -1.4236834747621960e+00 -2.2158499919633505e+00
      -2.3956764018759142e+00 3.0051610014746215e+00
      3.3692250465253148e-03 1.1122804858973221e-02
      7.3876861356146323e-02 -2.4522391125958123e-02
      -2.0295999530727262e+00 -2.2592835534595470e+00
      2.1741084380786070e-02 -2.3705525253601278e+00
      3.1261623027216932e-02 -8.1565144300019168e-02
      2.4569250365825336e-02 -6.6512536889237468e-04
      7.2939887605492437e-01 -2.2132815319372261e+00
      -2.3956705770493922e+00 1.0648253059541346e+00
      9.3869296285113745e-04 3.3070115870493057e-02
      6.8014590797608760e-03 -1.2393586794647934e-01
      -3.8369098195876100e-01 -4.1363596604386027e-01
      1.2635110496764451e-01 -1.0139067660369399e+00
      -7.9253836853284590e-02 -5.6113717488435716e-02
      1.2551269768834761e-01 -1.4217604643454970e-01
      6.0842578946409029e-02 -9.6014315117590532e-01
      -3.7465153065684764e-01 4.0134689232010251e-01
      1.3940923201678655e-03 -1.3599147276598247e-01
      -2.8025657674494955e-02 -2.2181297522183435e-02
      -3.4751782860694919e-01 -4.1344664025934064e-01
      2.0907339833736379e-02 -2.3729948133299779e+00
      -5.5457534115587641e-03 -6.5412475548279850e-02
      2.4719541925733758e-02 3.1067926220274342e-04
      7.2922450311571985e-01 -1.6157503049074617e-01
      -1.4896036924451368e+00 4.0138040530764052e-01
      2.1179186581935928e-03 1.7694894206915130e-02
      7.6093727600164682e-02 -2.2253587116003507e-02
      -5.5984898603605449e-01 -2.2624711760993348e+00
      2.1327212021293205e-02 -2.3696656372760003e+00
      -4.2402273900475976e-03 7.5836427843201812e-02
      2.1106864455861834e-02 -1.2428467634696991e-03
      7.2807162756784694e-01 -2.2140619654540212e+00
      -2.3957309405684102e+00 1.0647264625183703e+00
      2.8146722042705057e-03 9.4549675926504147e-03
      4.2829346780930465e-03 -2.4454145619645571e-02
      -5.6096022915851806e-01 -6.3844665920360333e-01
      1.8171224427707012e-02 -2.3722106338588240e+00
      -7.7871585112050529e-02 -1.1706007536257618e-01
      2.3242393813559574e-02 -3.2489156291826090e-03
      -1.4196232120233234e+00 -2.2137289983364257e+00
      -2.3960184377623199e+00 4.0078742819086666e-01
      8.7356276840115806e-04 7.9325062635489541e-03
      5.9088061340842653e-03 -1.6440585504726997e-02
      -1.9957682276139893e-01 -3.3356009304351664e-01
      1.4385825699134540e-02 -1.0130531068055113e+00
      -1.5822473843781642e-02 -8.8802501939131848e-02
      1.5719690802808810e-02 -2.0102465389055264e-03
      -2.0131198009702930e-01 -5.3823809778275411e-01
      -2.6635478014304481e-01 4.0310797347641653e-01
      3.8381355153921152e-03 1.0626646584911459e+00
      4.5449370970692393e-01 -3.2476118516717757e-02
      -2.0301455781066915e+00 -2.2609472395094210e+00
      3.2562202172766307e-02 -2.3699680840575539e+00
      -6.1207275134097855e-03 -1.3700776721968094e-01
      2.9177001535472744e-02 -2.1250446143228664e-02
      7.2945126794226633e-01 -2.2163686385922636e+00
      -5.2711881688161799e-01 1.7100856731548372e-02
      8.5652842016580005e-03 -5.9524370782533875e+00
      -1.8381415569525261e+00 -2.5925199919605683e-02
      -8.8131059539712275e+00 -7.2164844541060837e+00
      2.5771087978818278e-02 -2.3697568916973824e+00
      -5.8944390867937801e-03 -1.1872368672836019e-01
      2.5608997645488189e-02 -4.4938614036755055e-06
      -1.4221769203192600e+00 -2.8641470133665736e+00
      -2.3965663943415336e+00 1.2594301729884733e-01
      9.9353629321309919e-03 5.5457475664419144e-02
      9.5826755797436258e-01 -3.1631085512212928e-02
      -8.3091466625668586e-01 -6.4208553780052591e-01
      2.9162453120309136e-02 -2.3704493478956636e+00
      -5.8376320108941308e-03 -6.2196480433989072e-02
      3.0886216692983835e-02 -2.0747661440033479e-02
      -2.4671840618557583e+00 -6.5962399480827238e-01
      -2.3958832679264472e+00 1.9164515808161069e-02
      1.3508436603025080e-02 8.2861678529799185e+00
      2.8614364415491150e-01 -1.9547821821727051e-02
      -2.8131722968252588e+00 -2.2612021686038721e+00
      1.8386325860543798e-02 -2.3719796558006978e+00
      -3.8451146465137580e-02 -1.0008660533245964e-01
      2.2141640887760512e-02 -2.6944327573331329e-03
      -1.4200053755671955e+00 -2.2131188500717798e+00
      -2.3971987548628273e+00 3.9932008857116857e-01
      1.2292234289367160e-02 3.0810723478853611e-02
      -2.4194950047376179e-02 -2.2331638674379251e-02
      -2.0302801883001971e+00 -2.2596883511225911e+00
      1.8479948615867374e-02 -2.3722071703026986e+00
      -5.1543014081717837e-03 -1.1656658172574397e-01
      1.9275630275169882e-02 -2.1901004879319717e-03
      7.2890584685056636e-01 -2.2154499283758309e+00
      -2.3976311715215251e+00 1.0619282256068068e+00
      1.3495198347212826e-02 9.9282040737266044e+00
      2.8499555509395863e-01 -2.1448526221342256e-02
      -2.8142337264592205e+00 -2.2613264103537749e+00
      2.1427463163533358e-02 -2.3695637497621052e+00
      -7.6567606433999000e-02 -7.4641405520830765e-03
      2.0017502331513431e-02 -1.5807081169048854e-03
      -3.9464907599401328e-02 -2.2125959724396282e+00
      -2.3970342373712117e+00 3.0061484933347762e+00
      1.9742715151683135e-03 -4.5819149808564120e-03
      1.1769326353546264e-01 5.2980884820757183e-02
      -2.0322663985646199e+00 -2.2605258893486004e+00
      -5.2551393574880471e-02 -2.3716499440493015e+00
      -7.4247709398168799e-02 -1.0258416206248559e-01
      -5.5753599998303781e-02 -3.1011397965319517e-03
      -8.1933276025393131e-02 -2.2147488503980912e+00
      -2.3966491556331202e+00 3.0054836841180976e+00
      -2.8409204564105259e-02 -3.7789884087966272e-03
      -2.9365320213778967e-02 5.2597566836655417e-02
      -2.0324842401409668e+00 -2.2593010043423281e+00
      -6.6135208047026897e-02 -2.3705954220337411e+00
      -8.0269362064748898e-02 -3.4760983493484422e-02
      -5.5560288204900228e-02 -1.5403017815493654e-03
      7.0935139434985928e-01 -2.2160218729406713e+00
      -2.3944164860185313e+00 3.0034386240462077e+00
      -1.3849595715285167e-02 -7.4883635948975050e-03
      1.4125644391880557e-01 5.5396090874181417e-02
      -1.4157594129753626e+00 -1.6089198302426175e+00
      -5.0882329763933962e-02 -2.3696092534389153e+00
      3.6445965260165511e-02 -6.4249604975825325e-02
      -5.5648075000903373e-02 -2.9846657124464561e-03
      7.1006194270905121e-01 -2.2142654036830463e+00
      -2.3936783793400105e+00 3.0065174929539173e+00
      -1.0714278264477708e-02 -5.2417689037407332e-03
      6.8462195779184720e-02 5.2968722369634375e-02
      -2.8149365266708366e+00 -2.2593414314809457e+00
      -5.1581990364446578e-02 -2.3701643558915420e+00
      3.4064437310029838e-02 -8.0541794349115056e-02
      -5.2683330330487277e-02 1.0995363849903619e-04
      -1.4697109085294080e+00 -2.2124793635963984e+00
      -2.3961203364383801e+00 3.0045470964617778e+00
      -1.1114560686498862e-02 -6.4551341406045232e-03
      -3.2365145708856471e-02 5.1069581061876201e-02
      -5.6142946674240979e-01 -6.4248919017650663e-01
      -5.3461506689651633e-02 -2.3722284969449614e+00
      3.5016080372345694e-02 -1.0321348252433103e-01
      -5.3099633220430639e-02 -1.8971072027322527e-03
      -2.8893132204366923e-01 -2.2139625466100679e+00
      -2.3953087970315576e+00 3.0042071182610668e+00
      -1.0785726951075179e-02 -9.5986771341283993e-03
      1.0911610563860993e-01 4.3502381194272838e-01
      -5.5842955818364981e-01 -6.4053109356101023e-01
      -4.3678131961401462e-01 -2.3702335971361905e+00
      3.3799142924334030e-02 1.4551982682225395e-01
      -4.3509404723151640e-01 3.3013180897628658e-01
      -1.9094257402762729e+00 -2.2148151107758873e+00
      -2.3932494804220257e+00 3.0067129411373310e+00
      -1.1009009408124161e-02 3.4637230672489527e-01
      -2.6804240497443049e-02 -2.1412215390414272e-02
      -8.3399636002481803e-01 -2.2636440856749473e+00
      2.4925985999317991e-02 -2.3713801777455625e+00
      3.4069363931429043e-02 1.4272526542487959e-01
      2.1818710072403245e-02 3.4535511809048959e-05
      6.5779104875578487e-01 -2.2155270950288624e+00
      -2.3958996672475852e+00 3.0057527138718330e+00
      -2.6849414934468428e-02 -9.2796884519313182e-03
      8.6124912313308322e-02 -2.9481381496173471e-02
      -2.8131786415371827e+00 -2.2614289710566835e+00
      2.7781606775197535e-02 -2.3724813690289062e+00
      3.1514594828468356e-02 1.3690416284181284e-01
      2.8882288291445325e-02 -3.2197505007332754e-04
      -1.7306696674574544e+00 -2.2124638101100165e+00
      -2.3947043906275312e+00 3.0027497729201711e+00
      -2.9260260006441614e-02 6.8010950316810714e-01
      -1.4643416829637396e-02 -2.1592640538839681e-02
      -2.0307855713416254e+00 -2.2597923763861978e+00
      2.6613569463577867e-02 -2.3707097541216675e+00
      2.7930707513042292e-02 -1.0797473867708410e-01
      2.9196368704805648e-02 -7.8589339945397166e-05
      -1.7068968690302305e-01 -2.2162879268858795e+00
      -2.3965021865717144e+00 3.0058785997522857e+00
      -6.3691314324028272e-04 4.5240091284722943e-02
      -3.0142825120048455e-02 -2.8113298699714247e-02
      -2.8135478416883921e+00 -2.2629886666237131e+00
      2.9145045656324069e-02 -2.3720601156352550e+00
      1.4140381207127621e-02 -1.1203653124497254e-01
      2.7595796179434529e-02 -1.7502981024389611e-03
      -1.7079606219995341e-01 -2.2150775908914468e+00
      -2.3956621414234136e+00 3.0048947528967629e+00
      -6.6695584956302746e-03 -1.4814988221718337e-01
      -3.7794478464190456e-02 -2.9637487254261938e-02
      -2.0296275548042653e+00 -2.2600351323531420e+00
      3.0426052161533088e-02 -2.3705437673204655e+00
      1.7605372642959968e-02 -1.0102214319784047e-01
      2.9643669089069648e-02 -4.5979957201902613e-03
      -1.6765423326971121e-01 -2.2158696023838358e+00
      -2.3962895550673826e+00 1.0500143828604374e+00
      -8.2757928105989063e-03 2.8164003347898697e-01
      3.4788048845507340e-02 -2.6319425542181283e-02
      -2.8146704058946752e+00 -2.2636240172266850e+00
      2.7192730028493768e-02 -2.3722636910427681e+00
      1.7051834978617418e-02 1.6983686351818187e-02
      2.6942174935111796e-02 -1.9782757648762073e-03
      -1.6659642334034747e-01 -2.2136547163781657e+00
      -2.3947568873412122e+00 1.0509272338681668e+00
      -7.0753517216895498e-03 5.2545003989121442e-01
      -5.1305549587392356e-02 -2.9344141470776366e-02
      -2.8163494680504866e+00 -2.2636317325769619e+00
      2.8143733355465640e-02 -2.3720156286757170e+00
      -1.5624152156717436e-02 -1.1064403883887196e-01
      2.8360620600445932e-02 -3.2824442852958206e-02
      -1.2242149569822289e-01 -2.2156769307496891e+00
      -2.3955774464793413e+00 1.0511658178521157e+00
      5.3198058129459811e-04 7.8497575756269422e-02
      -7.5024402673954493e-02 -2.7313960571737770e-02
      -2.0284496967473453e+00 -2.2617634515486600e+00
      2.8875090387813669e-02 -2.3696995874182387e+00
      -1.5967519197647606e-02 -1.1434158853362056e-01
      2.7020379126468402e-02 -5.7645121714344064e-02
      -1.2330890360337091e-01 -2.2135161354134181e+00
      -2.3968631512583234e+00 3.7677722830500421e-01
      -7.2366073708368000e-04 -1.6484912936509756e-02
      -4.8988210430938851e-02 -2.7012828763319466e-02
      -2.0315043166876832e+00 -2.2624261368744465e+00
      2.8535566655935537e-02 -2.3729950447011103e+00
      2.1606782552834953e-02 -1.0944110264597061e-01
      3.0202413620055768e-02 -2.7700083964305514e-02
      6.8469522458981491e-01 -2.2152443015199017e+00
      -2.3936050266285549e+00 1.0523476879588145e+00
      -6.7647789657584298e-03 -1.1103271337465895e-01
      -5.4717958852128358e-02 -2.9431743733843274e-02
      -2.0320588662202397e+00 -2.2623099269549587e+00
      2.7156842397034951e-02 -2.3700416107388409e+00
      2.3377333863031972e-02 -1.2037364540278317e-01
      2.7582545467778503e-02 -4.1877396581233139e-03
      6.7885164002229159e-01 -2.2130075198794508e+00
      -2.3943165996956646e+00 1.0510889007901738e+00
      -3.5501272260037606e-03 7.7893039205420983e-02
      -3.2976673853223087e-02 -2.8726341721219305e-02
      -2.0310753454158101e+00 -2.2633090651467733e+00
      3.0474985081550516e-02 -2.3694873781546839e+00
      3.0202464760266789e-02 9.3744662365763254e-01
      2.7024864540602551e-02 -3.4100310634261350e-03
      7.2874887564812141e-01 -2.2149642965537550e+00
      -2.3973636000143101e+00 3.0063070513708192e+00
      -3.3261631985084705e-03 -1.2568250414846075e-02
      -3.2349929726257894e-02 -2.1329231726283336e-02
      -2.0315010737414205e+00 -2.2599385206954605e+00
      2.7822709096007720e-02 -2.3713159624498705e+00
      4.1935252591905656e-02 5.3979585269457619e-01
      2.2103966267439660e-02 -1.1333145950321237e-03
      7.3199408914973862e-01 -2.2136290348410710e+00
      -2.3944963727041326e+00 1.0615545281473946e+00
      -7.1222403700891964e-03 -1.9582538981324280e-01
      -3.3249252398207300e-02 -1.2483032364321078e-01
      -2.0311123493846019e+00 -2.2598715041661714e+00
      1.2430434057447587e-01 -2.3718290738146397e+00
      3.1206683024661140e-02 7.4448901108834620e-02
      1.2436351253469541e-01 6.4105464775355593e-04
      7.2691984891516803e-01 -2.2125049610202163e+00
      -2.3975303560422465e+00 1.0657121178515887e+00
      4.7482655015739124e-03 1.5530178179364709e-02
      -3.7149022091927400e-02 -2.1371946934715176e-02
      -8.3451519354884851e-01 -2.2629503141729694e+00
      2.0796618154366404e-02 -2.3722261778382370e+00
      2.7817593966790254e-02 -7.7977635016248922e-02
      2.4916563456665222e-02 -6.4328428338181187e-04
      -1.4196416107263208e+00 -2.2152754679320683e+00
      -2.3955130636283037e+00 1.0617076969521511e+00
      1.6185446687772434e-03 5.2018006856200342e-03
      -3.6944399259773567e-02 -2.2723800481218755e-02
      -2.8173211471352189e+00 -2.2633838802914661e+00
      2.1252410604344792e-02 -2.3701712764156500e+00
      2.9197142484166071e-02 -1.0182236865074037e-01
      2.2874039613357273e-02 -3.1741562029700054e-03
      -1.4211681662417608e+00 -2.2127272867679810e+00
      -2.3973826894779457e+00 4.0141999044754123e-01
      2.5963423901655867e-03 8.5460588328907308e-03
      8.9267768605043719e-04 -1.2427928170055742e-01
      -2.0309165275846461e+00 -1.6059728017059418e+00
      1.2243453010835431e-01 -2.3734192161604861e+00
      -1.8219548164435627e-02 -5.9794711533642415e-02
      1.2159096824609041e-01 -9.4453900980192510e-04
      7.2900192438930234e-01 -2.2141760281347906e+00
      -2.3974965381741402e+00 4.0189991310005996e-01
      9.6818141035381953e-04 9.8402748975097466e-03
      -7.1242263016952342e-02 -1.2507091039081600e-01
      -4.8152157930569039e-01 -4.1405778590776338e-01
      1.2197981985922490e-01 -1.0126538125205180e+00
      2.9076320506830334e-02 -2.8137682756794979e-01
      1.2616940125811590e-01 -1.4055284125722833e-01
      6.2630202014583816e-02 -9.5949984296522728e-01
      -3.7602025488593815e-01 5.8314557240194353e-02
      -1.7080915891150828e-04 -1.3662196379149338e-01
      2.6644137573556565e-02 -2.3912649057441296e-02
      -8.3409568176282234e-01 -6.4099982464774996e-01
      1.8686764493261999e-02 -2.3700629420110504e+00
      -7.7890581165457162e-02 -7.3599353897367936e-02
      2.4239176665223589e-02 -9.5744326855947662e-04
      -1.4203977345100482e+00 -2.2145583836458593e+00
      -2.3962124316316866e+00 4.0273663291338113e-01
      1.3982436993912217e-02 -2.0768119396977720e-02
      -5.2137558190533664e+00 -1.2866662627298198e-01
      -2.0298738211136609e+00 -1.6091738361144663e+00
      1.2605451400933132e-01 -2.3703897053163363e+00
      -7.2467674242644850e-03 -1.0817215817499151e-01
      1.2538215710049097e-01 -2.3208696860948914e-02
      7.2864508039530307e-01 -2.2132664470802239e+00
      -5.2768573535972496e-01 -9.3576163418538207e-04
      9.1808245483875218e-03 1.7782569884210329e+00
      1.7253168409838143e-01 2.2098653524747294e-01
      -2.8134416462604039e+00 -2.2610398987416644e+00
      -2.2386266874302499e-01 -2.3702394153922386e+00
      -1.4861804215264810e-02 -6.9086682096602528e-02
      -2.2265882063372103e-01 -2.2946957366181703e-03
      -5.8779690165253473e-01 -2.2148655573167551e+00
      -2.3969594784382906e+00 1.2635215920499951e-01
      1.2697575661519300e-02 2.3336829783266747e+01
      2.0328265757445609e+00 -3.2253410715019859e-02
      -9.0153706986907711e-01 -1.0968568269403283e+00
      3.0157041988183773e-02 -2.3712480714978348e+00
      -7.9662213310248333e-03 -8.9467844840558572e-03
      2.9915839100098398e-02 9.5108536143171036e-04
      7.2842339868270711e-01 5.2083473851095241e-01
      7.4080452708242883e-01 1.2692426996268075e-01
      1.0742307097708681e-02 4.5225042285210498e-01
      -3.3454860718005505e-02 -1.2217939346047124e-01
      -2.0326467288872574e+00 -2.2600171498733497e+00
      1.2291611547598692e-01 -2.3714583398670301e+00
      -1.7502599696263541e-02 -6.4361371098318992e-02
      1.2310279829138046e-01 -1.3054265202302100e-03
      7.2874833434241204e-01 -2.2162632456262124e+00
      -5.2942402819146650e-01 4.0223282216342898e-01
      1.0621695239608035e-02 -3.6453910668645924e-03
      -2.6261094691533624e-02 -2.1090395168619325e-02
      -2.8137038142615260e+00 -2.2618701961413183e+00
      2.1903897751975519e-02 -2.3711103149222001e+00
      -9.3432168502230271e-03 -1.0705819412719050e-02
